tree
version=v4
num_class=1
num_tree_per_iteration=1
label_index=0
max_feature_idx=21
objective=binary sigmoid:1
feature_names=recency_days tenure_days ndays n_events n_view n_cart n_remove_from_cart n_purchase avg_price purch_amt min_price max_price std_price purchase_avg_price remove_ratio cart_purchase_ratio n_categories cat_entropy n_brands brand_loyalty n_sessions events_per_session
feature_infos=[-1.6013307464027311:1.9420711836640812] [-0.57065672283683777:2.7565506469009162] [-0.3818932057895299:17.403649457263832] [-0.22951374061592147:149.456397242169] [-0.18349386824532182:215.90670051202238] [-0.23984764198496808:81.409944034110652] [-0.17235350219114537:78.835419338699751] [-0.2269326827416342:38.737783163046679] [-0.58219468819673337:11.897337319689438] [-0.26235831108576607:58.86247041371967] [-2.4547973069985685:13.341319989894121] [-0.62127748529600757:5.909321516101965] [-0.42678718558970474:12.969407505524716] [-0.47205710170146603:45.688033234959384] [-0.20620963590947192:124.83960091101495] [-0.15740685338108945:110.28865714000517] [-0.40067283201106813:28.350036277971] [-0.72097897280236578:4.4434523030280557] [-0.45681138365059398:25.699554691075246] [-2.6822369036233917:0.80462914682701481] [-0.087810710055544527:271.65955761119636] [-0.14587163099721598:139.39861726007646]
tree_sizes=3322 3475 3471 3474 3485 3480 3488 3505 3495 3502 3499 3507 3498 3499 3513 3510 3502 3487 3490 3499 3488 3505 3499 3499 3486 3475 3494 3482 3470 3490 3495 3475 3477 3476 3473 3434 3442 3471 3446 3468 3443 3442 3446 3435 3474 3469 3454 3407 3446 3421 3406 3391 3414 3437 3422 3457 3435 3404 3448 3401 3398 3395 3410 3482 3419 3434 3442 3395 3423 3431 3437 3396 3399 3406 3446 3442 3413 3405 3442 3396 3402 3421 3468 3425 3454 3409 3409 3395 3416 3413 3425 3409 3476 3443 3425 3435 3406 3413 3379 3426

Tree=0
num_leaves=31
num_cat=0
split_feature=2 2 1 0 0 2 2 4 2 1 0 0 1 20 12 16 2 1 12 0 3 0 1 0 0 3 0 6 0 2
split_gain=14206.4 2316.01 2028.27 675.553 575.599 394.783 322.275 226.651 200.678 180.066 172.489 166.385 110.718 91.4172 79.2412 76.1993 74.953 73.2122 68.2471 61.9548 57.1547 55.0996 50.1912 50.121 48.5984 47.8997 46.0344 43.7999 42.134 39.2852
threshold=1.0000000180025095e-35 1.4137625438456651 -0.57013232720105889 -0.96227690911565422 -0.93495124239911132 3.8079702100259252 0.38767354405412513 -0.089819518376274707 -0.12537095584164487 0.26819745139667844 -0.6549012410660503 -1.1396271651926513 0.75061583982245472 0.050719494498290267 -0.4209691834902019 -0.26998779060205863 0.21665871075553508 0.80574968335467334 -0.40686761341036043 -0.1988807423420442 0.3075277772815313 -1.4274782225362348 0.36090993495843909 1.0934024147837123 0.59963335888674563 -0.22041134200749005 0.74110695970243246 -0.011845359469450185 0.75284516151773995 2.0978218770400257
decision_type=2 2 2 2 2 2 2 2 2 2 2 2 2 2 2 2 2 2 2 2 2 2 2 2 2 2 2 2 2 2
left_child=2 3 11 9 7 10 12 25 15 16 -3 18 19 -11 -13 -6 -2 26 -1 -5 -9 -15 23 -10 -17 -4 -8 -19 -7 -12
right_child=1 5 4 6 8 28 17 20 22 13 29 14 -14 21 -16 24 -18 27 -20 -21 -22 -23 -24 -25 -26 -27 -28 -29 -30 -31
leaf_value=1.5835553406720853 1.2898889690604569 1.1777308004792708 1.5220684421140571 1.3763318037850993 1.5677807568683588 1.0689322052779588 1.301112718815379 1.3841151301916785 1.4561583208603244 1.3760765790627953 1.3190981090804257 1.6173661172301181 1.501873403952922 1.1970644223807025 1.5912957458508288 1.5120077103055218 1.1539568393026136 1.4246273964854814 1.5248473665251907 1.4589935111761019 1.233978289780657 1.3168245061234238 1.5240704915318661 1.5363567515587027 1.559782948180704 1.4629329842179271 1.4041840314942466 1.3708414435418321 1.2103502053286366 1.2510692306944349
leaf_weight=945.01146113872528 67.239228129386902 276.8674099445343 188.68001270294189 145.90473031997681 1509.4401016235352 208.30976557731628 162.89765071868896 208.89572834968567 347.03645193576813 210.06765389442444 164.80202972888947 5352.7699255943298 421.1607426404953 56.54540753364563 1490.5428022146225 538.4997878074646 102.25050377845764 280.6761679649353 250.49908518791199 239.51228320598602 28.8586665391922 119.82938694953918 366.66620481014252 100.49261546134949 352.16362619400024 499.82624483108521 59.035749316215515 328.72511529922485 23.438510894775391 175.0563782453537
leaf_count=6451 459 1890 1288 996 10304 1422 1112 1426 2369 1434 1125 36540 2875 386 10175 3676 698 1916 1710 1635 197 818 2503 686 2404 3412 403 2244 160 1195
internal_value=1.5281 1.33481 1.57639 1.38907 1.51953 1.19451 1.4214 1.45007 1.53954 1.29382 1.23632 1.60567 1.46643 1.33151 1.61169 1.55409 1.20788 1.37771 1.57125 1.4277 1.36589 1.27843 1.49664 1.47417 1.5309 1.47914 1.32853 1.39561 1.08323 1.28406
internal_weight=15221.7 3042.32 12179.4 2193.84 4140.56 848.474 1637.91 926.261 3214.3 555.932 616.726 8038.82 806.578 386.442 6843.31 2400.1 169.49 831.335 1195.51 385.417 237.754 176.375 814.195 447.529 890.663 688.506 221.933 609.401 231.748 339.858
internal_count=103909 20768 83141 14976 28265 5792 11181 6323 21942 3795 4210 54876 5506 2638 46715 16384 1157 5675 8161 2631 1623 1204 5558 3055 6080 4700 1515 4160 1582 2320
is_linear=0
shrinkage=1


Tree=1
num_leaves=31
num_cat=0
split_feature=2 1 2 0 0 2 20 4 0 0 2 1 1 12 21 12 0 4 1 1 2 0 0 0 3 1 1 0 0 15
split_gain=10407.7 1778.62 1285.74 447.882 363.65 214.602 162.253 157.026 155.453 155.214 146.174 103.152 80.485 75.648 72.0803 59.0384 52.4111 48.8086 47.4496 43.2369 47.3277 42.2535 40.945 40.5864 40.4371 39.2104 41.4937 33.1275 32.161 32.027
threshold=1.0000000180025095e-35 -0.57013232720105889 1.0717328772484851 -0.85991404761520818 -0.98814079327521231 3.9789850433245153 -0.063364203369573671 -0.089819518376274707 0.088595348734416893 -1.1396271651926513 0.38767354405412513 0.54841420141748853 0.75061583982245472 -0.4209691834902019 0.080385631901967597 -0.40686761341036043 -0.29722150474281045 0.10854969311111914 0.36090993495843909 0.60154470403115257 1.9268070437414353 0.70847024734297681 -1.4086918266686113 -1.4815085180893992 -0.22041134200749005 -0.56396257569547892 -0.37510817746164965 -1.4645764475896546 0.64000375050560088 0.7042158567955944
decision_type=2 2 2 2 2 2 2 2 2 2 2 2 2 2 2 2 2 2 2 2 2 2 2 2 2 2 2 2 2 2
left_child=1 9 4 7 11 8 28 22 19 15 12 17 21 -11 16 -1 -8 -2 -12 -4 -21 -6 -3 -13 -24 -9 29 -17 -5 -27
right_child=2 3 5 6 10 -7 14 25 -10 13 18 23 -14 -15 -16 27 -18 -19 -20 20 -22 -23 24 -25 -26 26 -28 -29 -30 -31
leaf_value=0.051844981475499777 -0.19320805200941971 -0.077174649469223061 -0.31997526298178941 0.022817456264015136 -0.10484352369662556 -0.31043104721435733 -0.036602713687101343 -0.052101292306368931 -0.157186261456842 0.085453587733045691 -0.16555435994492029 -0.20892320348931009 -0.023223508820311725 0.059400979689170734 -0.061221944942431564 -0.059436334983382105 0.010197195455327122 -0.29076870992363846 -0.10158956620051561 -0.2025314723600532 -0.25879310836690278 -0.034981451699694986 0.017060586919914845 -0.1215809728068824 -0.041604872123215952 -0.21627336114642182 -0.10563020922814551 0.020428457315437389 0.052087801069426003 -0.07312553449011415
leaf_weight=911.48107367753983 139.69280564785004 210.0325003862381 60.498284384608269 909.44042970240116 298.27037325501442 274.33630156517029 320.23368330299854 60.396177276968956 353.18201844394207 5048.2032439112663 143.74566899240017 67.499819755554199 435.58704018592834 1430.3249169141054 241.70870620012283 73.39884340763092 946.76360604166985 81.022394925355911 600.20702534914017 292.75557732582092 305.58780725300312 121.97552190721035 160.62141296267509 251.17631439864635 437.58530010282993 84.579924866557121 134.33652696013451 177.62520104646683 639.2320446819067 19.172461807727814
leaf_count=6451 806 1390 344 6299 1891 1452 2167 378 2111 36540 867 402 2920 10175 1634 500 6462 457 3755 1717 1715 797 1098 1534 2885 525 839 1210 4468 120
internal_value=0.000480618 0.0450099 -0.152977 -0.00757026 -0.105469 -0.231982 0.0121615 -0.0620802 -0.210716 0.0736643 -0.0815278 -0.176475 -0.0533451 0.0797017 -0.0111784 0.0400186 -0.00163149 -0.229022 -0.113949 -0.239411 -0.231266 -0.0845662 -0.0391896 -0.140081 -0.0258529 -0.124063 -0.142318 -0.00292382 0.0348991 -0.189821
internal_weight=15230.7 11805.1 3425.54 4164.1 2139.18 1286.36 3057.38 1106.72 1012.02 7641.03 1599.79 539.391 855.833 6478.53 1508.71 1162.51 1267 220.715 743.953 658.842 598.343 420.246 808.239 318.676 598.207 298.485 238.089 251.024 1548.67 103.752
internal_count=103909 83141 20768 28265 13429 7339 21030 7235 5887 54876 10230 3199 5608 46715 10263 8161 8629 1263 4622 3776 3432 2688 5373 1936 3983 1862 1484 1710 10767 645
is_linear=0
shrinkage=0.1


Tree=2
num_leaves=31
num_cat=0
split_feature=2 2 1 0 0 2 16 0 0 1 1 20 18 0 0 12 0 0 4 0 16 1 15 2 3 1 17 14 1 1
split_gain=8116.84 1326.19 923.074 325.024 321.375 227.821 145.915 114.451 106.377 85.2343 77.0704 72.782 72.6236 62.0359 58.8751 48.6306 43.1621 38.0871 35.1425 34.3433 32.4466 30.8934 30.5673 30.499 30.276 29.5133 28.3272 27.9971 27.6076 27.2283
threshold=-0.12537095584164487 0.72970321065130517 -0.57045544134240733 -0.98009366565189071 -0.27788437717035125 2.0978218770400257 0.25275237503397896 -1.0530216751832304 -0.885865814493623 0.54841420141748853 1.0000000180025095e-35 -0.04706653224559311 0.28814840961691413 0.056737863148824522 -0.94490249559766359 -0.42355566449170495 1.1271171551611452 -1.4974533727139858 -0.078799006626975046 -1.366815711133343 1.5596027891240729 0.80574968335467334 0.72008570157925289 0.21665871075553508 -0.2143430762685358 -0.56631928115338892 1.9845247489792046 0.14523413821052888 1.6988153964031547 0.36090993495843909
decision_type=2 2 2 2 2 2 2 2 2 2 2 2 2 2 2 2 2 2 2 2 2 2 2 2 2 2 2 2 2 2
left_child=2 4 7 11 6 8 9 -1 28 23 22 17 16 24 -7 -9 29 -4 -15 -12 -16 -10 -8 -2 -5 -26 -13 -14 -3 -6
right_child=1 5 3 13 12 14 10 15 21 -11 19 26 27 18 20 -17 -18 -19 -20 -21 -22 -23 -24 -25 25 -27 -28 -29 -30 -31
leaf_value=0.042717678050006536 -0.088605452389451875 -0.21926617131066883 -0.089971080584268379 0.027012425257840884 -0.050434479603604788 -0.2477298975450819 -0.21711622771186462 0.082289961650450674 -0.16680605609761365 -0.042549684780162474 -0.16780350905640365 -0.10431982401551423 -0.032267061900344264 0.043915541094031015 -0.13810224413610031 0.058528483945905069 0.019895039660844497 -0.023686813606220311 0.003874058303555316 -0.096208228299546228 -0.20440914666882748 -0.11151031680186219 -0.11249566207641698 -0.14592636476128248 0.021429706496842674 -0.022585911455426742 -0.29669828878578836 -0.077980826484282825 -0.16283046311438815 -0.0094559117592548196
leaf_weight=1103.5490889549255 389.35123781859875 156.13253565132618 103.36504916846752 447.92081801593304 298.86189606785774 308.66285316646099 134.08513137698174 4656.6721494197845 121.48696887493134 448.73873801529408 88.583153754472733 122.08436591923237 219.86666937172413 1382.3018630892038 91.481673955917358 1056.7827382683754 261.17092527449131 537.28406175971031 260.49087904393673 274.9811035245657 381.80811624228954 600.24795469641685 35.27357292175293 121.88103900849819 238.5994707942009 421.35744445025921 8.1660053730010969 342.9402146935463 194.86190789937973 354.45405681431293
leaf_count=8003 2354 801 652 3171 1898 1468 728 35724 665 2769 483 741 1394 9908 465 7825 1731 3491 1822 1643 1883 3394 198 652 1683 2845 45 2131 1024 2318
internal_value=0.00074285 -0.106355 0.0507241 0.00915058 -0.0649265 -0.172702 -0.097648 0.0722004 -0.142778 -0.0743543 -0.139608 -0.048236 -0.0318595 0.0252337 -0.213752 0.0778949 -0.0144656 -0.0343814 0.0375663 -0.113653 -0.191593 -0.120818 -0.195326 -0.102271 0.00694644 -0.0066726 -0.116381 -0.0601222 -0.187935 -0.0282017
internal_weight=15163.4 4824.87 10338.6 3521.57 2970.19 1854.68 1492.89 6817 1072.73 959.971 532.923 770.899 1477.29 2750.67 781.953 5713.45 914.487 640.649 1642.79 363.564 473.29 721.735 169.359 511.232 1107.88 659.957 130.25 562.807 350.994 653.316
internal_count=103909 27999 75910 24358 18299 9700 8827 51552 5884 5775 3052 4929 9472 19429 3816 43549 5947 4143 11730 2126 2348 4059 926 3006 7699 4528 786 3525 1825 4216
is_linear=0
shrinkage=0.1


Tree=3
num_leaves=31
num_cat=0
split_feature=2 2 1 0 0 2 0 16 0 3 1 2 12 0 2 1 5 0 0 0 0 0 1 1 0 1 0 2 16 0
split_gain=6416.34 929.506 824.379 257.712 236.008 160.609 116.499 101.417 75.8809 65.4279 64.4039 61.2318 60.383 52.4822 52.1632 50.38 48.5655 39.4268 38.0252 36.0499 33.2325 30.8693 30.6558 30.6136 29.6836 29.3974 28.0079 27.2647 32.8376 26.4919
threshold=-0.12537095584164487 0.72970321065130517 -0.57034075576754606 -0.98009366565189071 -0.1988807423420442 2.0978218770400257 -0.30626463651317581 0.33987573597331855 0.099214510596281016 -0.20220654479062725 0.75061583982245472 0.38767354405412513 -0.41515119757825802 0.64000375050560088 5.1760888764146458 0.45423606945119649 1.0000000180025095e-35 -1.5059311256597054 -1.2270265290957452 -1.4645764475896546 -1.3579366271048439 1.2211194406743471 1.3458765233628149 1.0101217047111446 -1.3266386614959733 -0.57063893826218537 -1.3189137705084599 -0.29638578914023483 0.16562901409463932 0.088595348734416893
decision_type=2 2 2 2 2 2 2 2 2 2 2 2 2 2 2 2 2 2 2 2 2 2 2 2 2 2 2 2 2 2
left_child=2 4 6 9 7 8 12 10 20 24 -2 21 26 16 29 18 -5 -11 -9 -14 -3 23 -22 -6 -4 -8 -1 -19 -29 -7
right_child=1 5 3 13 11 14 25 15 -10 17 -12 -13 19 -15 -16 -17 -18 27 -20 -21 22 -23 -24 -25 -26 -27 -28 28 -30 -31
leaf_value=0.039960568600684594 -0.08515193302735008 -0.17884671475501865 -0.042961509580393589 0.017306544775172458 -0.039406271148446664 -0.17654800587420855 0.08298162836071904 -0.20166211745157911 -0.086136656672857248 -0.15013027129510612 -0.036780136057487096 -0.066072527173793083 -0.047047111098055802 0.040248718641158858 -0.22193899277286772 -0.090588313772848594 -0.033967714707722654 -0.025065032037456227 -0.1193858510132903 0.031580852807767949 -0.16085715316061483 0.014229908876464553 -0.1110683406421559 2.8570341442064061e-05 0.012811003906350319 0.062429572115290023 0.065954198080061366 -0.060406442938522889 -0.15781499059833182 -0.13257657555922811
leaf_weight=561.42174184322357 652.05441704392433 164.14248271286488 203.25727163255215 1379.7727632522583 528.45245976746082 452.28893931210041 3100.4300020113587 93.870398491621017 427.68956749141216 60.056115567684174 476.31700684130192 302.22584137320518 66.06854185461998 938.84963174164295 197.35362553596497 301.90082615613937 213.2807732373476 122.3791471272707 139.8719098418951 496.61591143906116 185.39723372459412 268.37175385653973 371.40148830413818 313.72875115275383 179.88128660619259 897.43904716521502 1584.2128672748804 129.26992665231228 47.260632514953613 196.56297901272774
leaf_count=4232 3653 774 1281 9758 3327 2026 25131 446 2292 344 2875 1725 442 6910 850 1684 1444 754 738 3715 914 1788 1904 2063 1173 7000 12695 769 262 940
internal_value=0.000895464 -0.0906939 0.0474384 0.00630521 -0.0562227 -0.143862 0.0675199 -0.0817422 -0.119507 -0.0455174 -0.0647329 -0.026165 0.0515063 0.0214945 -0.17692 -0.117574 0.0104419 -0.0761935 -0.152428 0.0223486 -0.139304 -0.0153045 -0.127647 -0.024716 -0.0167766 0.0783681 0.0591528 -0.0613383 -0.0864846 -0.163227
internal_weight=15051.8 5071.63 9980.2 3274.01 3076.79 1994.84 6706.19 1664.01 1148.63 742.104 1128.37 1412.78 2708.32 2531.9 846.206 535.643 1593.05 358.966 233.742 562.684 720.941 1110.55 556.799 842.181 383.139 3997.87 2145.63 298.91 176.531 648.852
internal_count=103909 27999 75910 22695 18299 9700 53215 9396 5884 4583 6528 8903 21084 18112 3816 2868 11202 2129 1184 4157 3592 7178 2818 5390 2454 32131 16927 1785 1031 2966
is_linear=0
shrinkage=0.1


Tree=4
num_leaves=31
num_cat=0
split_feature=2 1 2 0 0 2 0 0 4 18 4 1 3 12 0 2 1 1 1 12 0 0 1 3 1 0 3 1 20 6
split_gain=5130.68 732.562 691.242 213.674 160.676 156.442 102.484 69.0656 62.1459 55.2908 52.1094 51.9847 60.5718 46.0034 42.977 41.7538 36.3361 35.329 29.5972 29.2574 25.1233 24.5377 23.3853 22.9824 22.2537 22.2492 21.876 21.7643 21.5237 19.6133
threshold=-0.12537095584164487 -0.57045544134240733 0.55868837735271526 -0.85089142181257593 -0.98814079327521231 2.0978218770400257 -0.98009366565189071 -0.038286791327078268 1.0000000180025095e-35 0.45369503034302699 -0.13390156537347334 -0.56166354544695574 -0.086909495750496168 -0.42355566449170495 1.0934024147837123 4.6630443765188749 0.80574968335467334 1.8125548983773052 0.26819745139667844 -0.41041197493450565 -1.5140895713935791 -1.4815085180893992 -0.33555594827862562 -0.2143430762685358 -0.57064226248174643 -1.3266386614959733 0.33180084023734835 0.17995338376907757 -0.030768861121612551 0.2336376823402013
decision_type=2 2 2 2 2 2 2 2 2 2 2 2 2 2 2 2 2 2 2 2 2 2 2 2 2 2 2 2 2 2
left_child=1 6 4 10 8 7 21 18 19 14 25 -5 23 -8 16 -7 -6 -10 -4 -2 -12 24 29 -13 -1 -3 -20 -14 -18 -11
right_child=2 3 5 11 9 15 13 -9 17 22 20 12 27 -15 -16 -17 28 -19 26 -21 -22 -23 -24 -25 -26 -27 -28 -29 -30 -31
leaf_value=0.026164343283674424 -0.12772168448176963 -0.034279664395098185 -0.1606313356014728 0.043451469273407442 -0.043651142312764367 -0.1372539661771662 0.075948472230063943 -0.073034054130434692 -0.14495229399194162 -0.072883058130866069 -0.1207645301112112 0.032135485501092638 -0.058596743560172727 0.051428447916863899 0.012937579631863337 -0.18495876233840017 0.014777363739980579 -0.049033484015290237 -0.090459650612737641 -0.054316099882779294 -0.048667213633857384 0.045457027902021753 -0.048726066465013464 0.0066015355442575448 -0.04901201463955538 0.0049792870616466416 -0.1243556961463471 0.014362086666805808 -0.02718555490144416 -0.17529641316540434
leaf_weight=166.06882086396217 63.068551450967789 255.4459392875433 128.5777273774147 848.29601091146469 730.27045738697052 629.98066148161888 4032.3808307051659 630.96286405622959 201.71538044512272 60.711205676198006 55.778165504336357 755.03851175308228 146.22440005838871 944.34521274268627 296.83469241857529 258.8631683588028 219.78440347313881 47.427933469414711 352.16191165149212 390.40843352675438 362.0759120285511 979.49848192185163 534.88738504052162 661.18276688456535 51.615224450826645 331.94347008317709 414.51269479095936 56.758130058646202 275.3882989436388 27.023338750004768
leaf_count=1274 334 1575 573 6347 4247 2750 34661 3279 961 349 299 5629 996 7580 1980 1066 1430 244 1739 2101 2144 7679 3113 4748 358 2232 1963 388 1720 150
internal_value=0.000980784 0.044309 -0.0784427 0.00756576 -0.0450658 -0.117796 0.0649766 -0.0983733 -0.0865693 -0.0314702 -0.0312969 0.0233982 0.0128923 0.0712957 -0.0212022 -0.151147 -0.0294717 -0.126693 -0.116232 -0.0645252 -0.0582913 0.0387079 -0.0565751 0.0202146 0.00833922 -0.0120938 -0.108786 -0.0381959 -0.00856014 -0.104428
internal_weight=14909.2 9646.65 5262.58 3472.74 2847.52 2415.06 6173.91 1526.22 702.62 2144.9 1005.24 2467.5 1619.2 4976.73 1522.28 888.844 1225.44 249.143 895.252 453.477 417.854 1197.18 622.622 1416.22 217.684 587.389 766.675 202.983 495.173 87.7345
internal_count=103909 75910 27999 24358 16629 11370 51552 7554 3640 12989 6250 18108 11761 42241 9377 3816 7397 1205 4275 2435 2443 9311 3612 10377 1632 3807 3702 1384 3150 499
is_linear=0
shrinkage=0.1


Tree=5
num_leaves=31
num_cat=0
split_feature=2 1 16 0 0 0 0 2 4 4 1 3 2 1 2 0 12 0 0 1 0 20 1 15 1 4 12 16 8 21
split_gain=4132.7 650.644 546.483 199.685 149.257 92.0772 85.1471 82.7632 63.6457 55.6475 45.9377 46.9137 42.7258 37.8848 36.0993 34.4777 33.911 31.9773 29.3599 30.4922 28.8362 25.2327 24.4468 24.0075 23.3396 22.75 21.6708 20.7744 20.8779 25.9914
threshold=-0.12537095584164487 -0.57057245387096134 1.0368626234880354 -0.31501482588735191 -0.85991404761520818 -0.6549012410660503 -0.30626463651317581 0.38767354405412513 -0.12288105362417369 -0.034716959629776424 -0.56691514750973326 -0.17186521609585589 3.1239108768315655 1.0101217047111446 4.149999876623105 -1.4086918266686113 -0.40327894562263528 1.2742006028638582 -1.4472283988873211 -0.56631928115338892 -1.382974413707148 0.083314836746251397 -0.21944361838169307 0.99388203743135672 1.6022390062344374 -0.13390156537347334 6.7217965113848619 1.0000000180025095e-35 -0.53152241738181127 -0.13362631214729379
decision_type=2 2 2 2 2 2 2 2 2 2 2 2 2 2 2 2 2 2 2 2 2 2 2 2 2 2 2 2 2 2
left_child=1 6 4 8 9 14 20 13 15 16 -5 -12 -7 17 21 -3 25 27 -10 -20 -1 23 -18 -4 -23 -2 -17 28 29 -6
right_child=2 3 5 10 7 12 -8 -9 18 -11 11 -13 -14 -15 -16 26 22 -19 19 -21 -22 24 -24 -25 -26 -27 -28 -29 -30 -31
leaf_value=0.025333573179163058 -0.05293333091697814 -0.038633832693876824 -0.1076434185444891 0.049572008879762555 -0.22407718791542949 -0.080105642138501715 0.074018900473312207 -0.056947109427744481 -0.091430810538975227 -0.097338152203912759 0.029977610906695318 -0.013878794684089936 -0.12926830469691106 0.0031934373848854906 -0.17456670742445227 0.0071049365529232082 -0.088031943882339952 0.014881648118430678 0.0013206884654781764 -0.051934552636924342 0.054151037622867194 -0.16427602168560745 -0.030390822220232778 -0.0041914204734295598 -0.12028082610051671 -0.14618925212948208 -0.17849526458185255 -0.058560128272220326 -0.022229444195308094 0.023970053769301766
leaf_weight=429.71848303079605 47.497458428144455 210.51048672199249 135.91861592233181 802.63557901978493 11.31380069255829 779.43400061130524 3215.6425155624747 811.35226574540138 101.24393424391747 563.81333297491074 994.97723498940468 323.12423717975616 228.62691415846348 561.88197033107281 186.53956283628941 986.32139487564564 91.356657668948174 141.5382474809885 172.19870776683092 286.21409773826599 1809.063592672348 184.7650231719017 378.12853711843491 26.866098195314407 347.12459015846252 58.229843765497208 6.3313691169023505 284.1031331717968 566.97098429501057 6.7415008991956702
leaf_count=3349 252 1268 634 6437 65 3840 29004 4110 535 2622 7532 2263 950 3630 750 6970 470 956 1175 1702 15631 793 2028 129 1486 278 44 1617 3349 40
internal_value=0.00102283 0.0413204 -0.0685048 0.0100376 -0.0452348 -0.111896 0.0635937 -0.031007 -0.0148336 -0.0750126 0.0307114 0.0192265 -0.0912557 -0.0176233 -0.135508 -0.00187439 -0.0531294 -0.0291964 -0.0426937 -0.0319297 0.0486197 -0.12502 -0.0416072 -0.0905696 -0.135564 -0.104294 0.00592114 -0.0363745 -0.0256006 -0.131461
internal_weight=14750.2 9337.98 5412.2 3883.56 3522.93 1889.27 5454.42 2383.9 1762.82 1139.03 2120.74 1318.1 1008.06 1572.55 881.214 1203.16 575.212 1010.67 559.657 458.413 2238.78 694.674 469.485 162.785 531.89 105.727 992.653 869.129 585.026 18.0553
internal_count=103909 75910 27999 27926 19417 8582 47984 13767 11694 5650 16232 9795 4790 9657 3792 8282 3028 6027 3412 2877 18980 3042 2498 763 2279 530 7014 5071 3454 105
is_linear=0
shrinkage=0.1


Tree=6
num_leaves=31
num_cat=0
split_feature=2 1 2 0 0 0 2 2 16 2 1 1 1 0 17 0 15 10 1 0 0 1 3 2 1 15 1 5 1 0
split_gain=3345.73 578.565 443.648 173.171 129.702 76.2302 66.8006 62.3082 52.7146 51.7777 47.5563 45.3387 44.2491 40.7713 38.0541 35.2975 24.5412 22.1698 20.2844 21.1188 20.2214 21.6826 20.0906 19.3323 25.7448 19.2136 20.8993 19.2057 18.9272 18.4558
threshold=-0.12537095584164487 -0.57059771793962644 1.0717328772484851 -0.30626463651317581 -0.1988807423420442 -0.98009366565189071 0.21665871075553508 4.149999876623105 -0.095741068723379494 0.38767354405412513 0.69397113849967218 0.23044960859147159 -0.56166354544695574 -0.022142735873082985 0.16870166227229785 -1.4086918266686113 0.75264722797107375 -0.28567147907639423 1.5502113134602005 -1.3351017673218837 -1.4897284817264724 -0.56631928115338892 0.63521412718506187 -0.29638578914023483 -0.34576595623888345 0.39170377366742387 -0.42348355020400058 1.5405714265076729 1.2905402348593189 -1.4815085180893992
decision_type=2 2 2 2 2 2 2 2 2 2 2 2 2 2 2 2 2 2 2 2 2 2 2 2 2 2 2 2 2 2
left_child=1 5 4 8 6 -1 10 13 15 -6 17 -8 -5 18 -14 -3 20 25 -4 -20 -10 -22 -15 -17 -25 26 -2 -13 -16 -12
right_child=2 3 7 12 9 -7 11 -9 16 -11 29 27 14 22 28 23 -18 -19 19 -21 21 -23 -24 24 -26 -27 -28 -29 -30 -31
leaf_value=0.036507428122305251 -0.12451975319086531 -0.035954762384915073 -0.13172036754687008 0.045575863811783919 -0.0086547486265031084 0.067271214304432531 -0.11144377009927778 -0.14122358841426749 -0.11994833285024131 -0.045778433788594156 -0.08098095421649161 -0.059374185692982917 0.029167331972730082 -0.045979474730372651 -0.017466162636846094 0.018302556268768446 0.0030050396866256857 -0.028888968120979991 -0.12749571064626883 -0.086011028090709096 -0.011595217785217321 -0.069011920487075759 -0.08634417894458761 -0.027726782745167784 0.011906226075795952 -0.028056149394857094 -0.066637190472995794 -0.12428205888233811 0.046142244015349408 -0.0068680699714710556
leaf_weight=1007.4381466954947 78.360777631402016 268.20428024232388 232.94332320988178 956.145543448627 1150.6905911564827 4017.680414929986 269.51423525810242 333.9711834192276 43.619544044137001 557.8313390314579 36.954847604036331 699.16458320617676 809.64906975626945 197.63909640908241 340.05152368545532 535.27187956869602 87.816354818642139 200.25752754509449 167.7368480861187 457.18270623683929 107.59703623503447 169.19559416174889 327.8599698394537 318.09077387303114 338.11536517739296 94.243969351053238 305.84750881791115 48.766080766916275 54.241511717438698 370.167296692729
leaf_count=8364 381 1568 971 7958 7178 38090 1182 1339 215 2838 189 3455 6255 922 2408 4025 529 1058 692 1947 724 966 1468 2126 2288 465 1553 226 394 2135
internal_value=0.00103666 0.0384703 -0.0602553 0.0102342 -0.0412422 0.0611037 -0.0578675 -0.102457 -0.012063 -0.0207756 -0.0406164 -0.0762781 0.0295154 -0.0930978 0.0167606 -0.003179 -0.0438292 -0.0568249 -0.106534 -0.0971461 -0.0566652 -0.0466924 -0.0711631 0.00419889 -0.00730556 -0.0685176 -0.0784426 -0.0636063 -0.00871578 -0.0135954
internal_weight=14582.2 9053.12 5529.13 4028 3811.8 5025.12 2103.28 1717.33 1867.91 1708.52 1085.83 1017.44 2160.09 1383.36 1203.94 1459.68 408.229 678.71 857.863 624.92 320.412 276.793 525.499 1191.48 656.206 478.452 384.208 747.931 394.293 407.122
internal_count=103909 75910 27999 29456 20660 46454 10644 7339 12441 10016 5781 4863 17015 6000 9057 10007 2434 3457 3610 2639 1905 1690 2390 8439 4414 2399 1934 3681 2802 2324
is_linear=0
shrinkage=0.1


Tree=7
num_leaves=31
num_cat=0
split_feature=4 1 3 0 0 0 1 0 0 1 2 2 2 2 4 1 0 20 21 12 17 1 10 0 1 4 0 0 11 14
split_gain=2730.71 448.395 401.349 129.003 90.8823 90.1412 84.7395 79.6958 45.538 37.1069 36.8027 30.9917 30.798 29.7182 24.1336 25.7343 23.6127 22.8117 22.325 21.8636 21.6335 21.3732 20.851 18.9399 18.7827 18.7265 18.1394 17.5775 15.9435 15.6222
threshold=-0.12288105362417369 -0.57037632491685075 0.33786910597630265 -0.95352086089355448 -0.30626463651317581 -0.6549012410660503 -0.56813347397891178 -0.26832859620665445 0.64000375050560088 -0.57065522693803505 1.7557922104428452 4.6630443765188749 -0.12537095584164487 0.72970321065130517 1.0000000180025095e-35 -0.56486094603189219 -1.4974533727139858 -0.04706653224559311 -0.13748805620060148 -0.42006913543311725 1.9845247489792046 0.36090993495843909 -0.26631555312155436 -1.3579366271048439 0.80574968335467334 -0.089819518376274707 -1.4815085180893992 -1.3189137705084599 -0.57047198403241595 2.0583259401110063
decision_type=2 2 2 2 2 2 2 2 2 2 2 2 2 2 2 2 2 2 2 2 2 2 2 2 2 2 2 2 2 2
left_child=1 4 3 14 9 11 -5 17 13 -1 -7 26 -9 20 19 -16 -11 21 -6 -2 24 22 -3 -17 -8 -10 -4 -24 -14 -21
right_child=2 7 5 6 18 10 8 12 25 16 -12 -13 28 -15 15 23 -18 -19 -20 29 -22 -23 27 -25 -26 -27 -28 -29 -30 -31
leaf_value=0.048212436930970298 -0.11613157866193989 -0.025775345774370673 -0.13248027721058792 0.029617414691797735 0.070768405038042631 -0.050658686815092016 -0.03601607182386294 0.031031360958110224 0.019378169138310641 -0.039994429374325964 -0.086821642460000625 -0.14790940448969156 -0.091550065748652029 -0.063137595002309685 0.014419973927429084 -0.10519465628701918 0.026078113969543265 -0.03574620634341083 0.050975419738822941 -0.040062736490867418 -0.088204808572435525 0.022077009657947635 -0.02797709882308452 -0.063757764166181938 -0.011213482940650318 -0.01546043194094205 -0.093021619637493641 0.015832892880173168 0.0032655924650128207 -0.15880591665088259
leaf_weight=1579.9363318756223 43.105899572372437 466.62265168875456 140.08218170702457 309.23826887458563 2385.9981092661619 654.32246942073107 770.68636748194695 1144.1535392776132 209.21850971877575 59.16615928709507 493.79448802769184 158.50227209925652 18.591591119766235 313.46423070132732 28.726194381713867 208.29916134476662 630.24092453718185 276.94181393831968 748.67054937034845 576.11410242319107 58.845079272985458 250.40827438235283 125.04521138966084 234.47727099061012 505.65476876497269 587.66327428817749 692.14278742671013 342.22677134722471 384.76055127382278 11.296874955296515
leaf_count=14648 205 3016 574 2527 24155 3234 4396 9112 1414 406 2061 640 109 1424 158 902 5401 1525 7065 2973 312 1615 729 1049 2989 3478 2928 2363 2445 56
internal_value=0.00102885 0.0377806 -0.0505393 -0.031272 0.0550071 -0.0852823 -0.0197045 0.00684017 -0.0259413 0.0397656 -0.066212 -0.107382 0.0226552 -0.0354284 -0.0601878 -0.0773007 0.0204076 -0.00990845 0.0660411 -0.0473908 -0.0289231 -0.00386646 -0.0108228 -0.0832513 -0.0261899 -0.00631368 -0.0996634 0.00410904 -0.00110472 -0.0423464
internal_weight=14408.4 8412.76 5995.63 3856.79 5404.01 2138.84 2754.77 3008.75 2445.53 2269.34 1148.12 990.727 1547.51 1648.65 1102.02 471.503 689.407 1461.24 3134.67 630.517 1335.19 1184.3 933.895 442.776 1276.34 796.882 832.225 467.272 403.352 587.411
internal_count=103909 72589 31320 21883 51675 9437 16540 20914 14013 20455 5295 4142 11666 9121 5343 2109 5807 9248 31220 3234 7697 7723 6108 1951 7385 4892 3502 3092 2554 3029
is_linear=0
shrinkage=0.1


Tree=8
num_leaves=31
num_cat=0
split_feature=1 2 3 2 18 0 0 0 0 0 1 1 2 0 0 0 18 0 3 0 1 10 1 16 0 14 1 7 11 20
split_gain=2253.08 575.287 142.205 129.305 108.876 78.334 70.909 57.7832 54.5639 43.0141 37.4507 32.2263 31.6675 26.1185 24.8482 22.4356 23.4872 21.3204 21.1164 19.915 21.0225 19.2393 17.6192 20.0356 17.5941 17.5044 15.4539 15.4187 15.301 14.9244
threshold=-0.56396257569547892 0.21665871075553508 -0.22041134200749005 1.9268070437414353 1.0000000180025095e-35 -0.76247554779470506 -1.0530216751832304 -0.29722150474281045 -0.94490249559766359 -0.89559150204710958 0.54841420141748853 0.26819745139667844 5.8601482096090054 0.088595348734416893 -1.5534815354091618 0.34017134915787262 0.61924165106913998 1.0248919765869078 0.11941153937394895 1.1851724792379514 1.0101217047111446 -0.26379086974454041 0.36090993495843909 -0.18286442966271907 1.0153654898628302 2.0583259401110063 1.7559613900357653 1.0000000180025095e-35 -0.56897770360550715 0.13220785011819311
decision_type=2 2 2 2 2 2 2 2 2 2 2 2 2 2 2 2 2 2 2 2 2 2 2 2 2 2 2 2 2 2
left_child=2 4 6 8 7 14 -1 10 11 18 21 -3 13 -5 -4 28 -17 -7 27 20 -11 -2 23 -9 -8 -16 -20 -6 -10 -13
right_child=1 3 5 12 9 17 24 22 15 19 -12 29 -14 -15 25 16 -18 -19 26 -21 -22 -23 -24 -25 -26 -27 -28 -29 -30 -31
leaf_value=0.028852888061483752 -0.036216531945021037 -0.11010246186321933 -0.10902469384850436 -0.098026220840137235 -0.052338982741746712 0.027842958195578867 0.056870465191337642 0.013366689071589178 -0.15319483949190929 -0.035634967156740575 0.015310615989176393 -0.050747246393568313 -0.13556217504214044 -0.060749841697234325 -0.0023258763430365581 -0.0082064121436154613 -0.044110475099145952 0.057669620300226571 -0.10275495877918722 0.011601421268355311 -0.0022865870559080678 -0.008419984035184359 0.032593276318996625 -0.033408192516118172 0.072176396557217012 -0.18820931177794306 -0.0079242312688707628 0.0025938473869704221 -0.050116399506846113 -0.083859819863557103
leaf_weight=829.12841166555882 512.1536962389946 186.68167291581631 23.480561003088951 597.52407531440258 285.18607066571712 799.58321139961481 2648.285578392446 908.84158048033714 14.598784923553465 631.1148320287466 350.25264631211758 384.15717765688896 153.46481527388096 274.23397202789783 555.44398212432861 315.24782860279083 431.70254375040531 342.22923897951841 117.04930101335049 170.74398206919432 269.8611476123333 484.62568743526936 441.83222109079361 101.83612702041864 1048.2891677767038 5.1126240715384474 20.141752898693085 62.248433202505112 1061.5891317129135 210.81255283951759
leaf_count=7100 2968 759 131 2412 1402 7036 27318 6795 68 3688 2162 1716 628 1141 3967 1704 2095 3139 514 1144 1699 2983 3219 674 11092 36 95 310 5042 872
internal_value=0.00100774 -0.0341891 0.0459692 -0.0635903 -0.00968744 0.0215458 0.0552828 0.00210049 -0.0517496 -0.0308915 -0.0128181 -0.0738536 -0.093674 -0.0863 -0.00824279 -0.0422728 -0.0289573 0.0367827 -0.0556138 -0.0197122 -0.0256464 -0.0227021 0.0159357 0.00865364 0.061211 -0.00402125 -0.0888324 -0.0424969 -0.0515147 -0.0624799
internal_weight=14237.5 7985.9 6251.55 3630.01 4355.89 1725.85 4525.7 2799.54 2604.79 1556.35 1347.03 781.651 1025.22 871.758 584.037 1823.14 746.95 1141.81 484.626 1071.72 900.976 996.779 1452.51 1010.68 3696.57 560.557 137.191 347.435 1076.19 594.97
internal_count=103909 44090 59819 16437 27653 14309 45510 18801 12256 8852 8113 3347 4181 3553 4134 8909 3799 10175 2321 6531 5387 5951 10688 7469 38410 4003 609 1712 5110 2588
is_linear=0
shrinkage=0.1


Tree=9
num_leaves=31
num_cat=0
split_feature=1 2 12 18 0 0 0 17 0 5 5 0 1 1 0 1 0 20 11 20 0 1 2 15 2 0 12 4 1 15
split_gain=1863.52 458.845 128.826 114.058 88.3522 64.4988 63.5413 62.5631 56.8935 44.5091 28.4083 26.801 26.6535 25.9648 25.4353 24.0417 22.3879 21.0568 19.0888 18.7396 18.2939 17.9865 20.6296 16.2493 16.1411 16.1118 16.0948 15.9638 15.6874 15.2732
threshold=-0.56396257569547892 0.21665871075553508 -0.42355566449170495 2.7713477205086083 -0.99755303246477633 -0.44910041947114326 -0.93495124239911132 0.12281118800771422 -0.95352086089355448 0.020978081424781841 0.24778305830282524 -1.4374031109191301 0.26819745139667844 1.0101217047111446 -1.3747866737336556 0.54841420141748853 0.34017134915787262 -0.063364203369573671 -0.6053385039718695 0.19739853461411536 1.1851724792379514 0.54841420141748853 1.7557922104428452 0.83352994317638041 3.4659405434287449 1.0248919765869078 5.2911151227586926 -0.078799006626975046 -0.29048551462401601 0.17738692360478911
decision_type=2 2 2 2 2 2 2 2 2 2 2 2 2 2 2 2 2 2 2 2 2 2 2 2 2 2 2 2 2 2
left_child=2 4 6 8 9 11 -1 15 21 12 16 -4 27 20 -5 17 -10 -6 -19 28 23 -3 -23 -9 -16 -7 -20 -2 -12 -11
right_child=1 3 5 14 7 25 -8 13 10 29 19 -13 -14 -15 24 -17 -18 18 26 -21 -22 22 -24 -25 -26 -27 -28 -29 -30 -31
leaf_value=0.030349825998964405 -0.027744896212606496 -0.093523794601934593 -0.039614067205911152 -0.13276186205125667 0.018640259203298808 0.028009804348503177 0.059472527442266387 -0.033846282857530156 -0.039734662111954297 -0.098308208014497328 -0.13572734057505551 0.0078517709925790737 0.001061386671481303 0.0044410921923928159 -0.068824568641752043 0.036289467797015772 -0.011081221659937092 -0.12877708941716895 -0.0022136992508504107 -0.069911846577850462 0.0070116145062491114 -0.050059034647200462 -0.089417103009317461 0.00097073047385409577 -0.10263713142866565 0.053893120635905983 -0.1396600013548496 -0.068886913266295577 -0.037848138030173756 -0.042119525939232523
leaf_weight=977.10877468436956 446.71647429466248 226.04501837491989 147.57127121835947 130.22982983291149 701.32302176207304 720.94571739435196 3211.8763475492597 812.11310634762049 687.15989561378956 122.18627800047398 16.870598420500755 613.48391170799732 285.06996460258961 506.3934640660882 318.84446565806866 351.12249783426523 452.08483757078648 12.559664629399775 588.18362640589476 356.76238371431828 175.110246270895 484.01075652241707 183.72725476324558 160.54486470669508 253.37049615383148 360.87530811876059 8.644842751324175 119.55112741887569 556.97367948293686 80.082609564065933
leaf_count=8844 2480 920 869 536 5482 6589 35299 4757 3255 552 79 4749 1542 3296 1336 2592 2344 71 3792 1509 1211 2096 742 923 1039 3469 55 537 2581 363
internal_value=0.000977102 -0.0305564 0.0429862 -0.0566444 -0.0086686 0.0209527 0.0526795 -0.000653295 -0.0480572 -0.033895 -0.0389525 -0.00135202 -0.0238766 -0.0144209 -0.0928744 0.0130507 -0.0283642 0.00682534 -0.00677203 -0.0519147 -0.0227427 -0.0691421 -0.0608884 -0.0280995 -0.0837964 0.036644 -0.00420456 -0.0364309 -0.0407257 -0.0760619
internal_weight=14067.5 8035.68 6031.86 3666.08 4369.6 1842.88 4188.99 3316 2963.63 1053.61 2069.85 761.055 851.338 1654.16 702.445 1661.83 1139.24 1310.71 609.388 930.607 1147.77 893.783 667.738 972.658 572.215 1081.82 596.828 566.268 573.844 202.269
internal_count=103909 44090 59819 16437 27653 15676 44143 22179 13526 5474 9768 5618 4559 10187 2911 11992 5599 9400 3918 4169 6891 3758 2838 5680 2375 10058 3847 3017 2660 915
is_linear=0
shrinkage=0.1


Tree=10
num_leaves=31
num_cat=0
split_feature=1 2 0 16 3 3 0 15 0 21 2 0 0 0 1 1 3 6 0 1 19 18 1 18 4 2 5 12 14 12
split_gain=1544.93 390.137 103.038 97.2011 79.2316 62.5842 48.1657 40.8353 39.4486 38.357 37.5319 34.9665 23.5805 21.1659 18.6042 17.2049 16.6967 16.5889 16.2129 16.0864 15.7259 14.958 20.8934 14.8779 14.4285 14.382 13.8583 13.7216 13.3051 13.8628
threshold=-0.56865404676219511 0.21665871075553508 -0.30626463651317581 1.5596027891240729 -0.17186521609585589 -0.22041134200749005 -0.1988807423420442 0.12727790177819681 -0.94490249559766359 -0.13970135421772342 4.149999876623105 -0.80902409454919344 -1.366815711133343 0.088595348734416893 0.31549295141457467 0.36090993495843909 0.11941153937394895 2.3863351259017604 -1.5403254923962979 0.54841420141748853 -0.065782400946346339 0.61924165106913998 -0.14259813341845581 -0.2084914525614246 -0.14492207712277297 1.0717328772484851 0.020978081424781841 6.7217965113848619 0.57881609603607864 -0.3531649913195043
decision_type=2 2 2 2 2 2 2 2 2 2 2 2 2 2 2 2 2 2 2 2 2 2 2 2 2 2 2 2 2 2
left_child=2 4 5 8 6 12 15 11 19 -4 13 16 -1 14 -5 24 -6 -13 -7 -3 21 -10 -23 -8 27 -21 -9 -2 -20 -30
right_child=1 3 9 10 7 18 23 26 20 -11 -12 17 -14 -15 -16 -17 -18 -19 28 25 -22 22 -24 -25 -26 -27 -28 -29 29 -31
leaf_value=0.014940578322772142 -0.0040076558158661712 -0.082517792475048854 0.06135172754581867 -0.12023573241105119 -0.04591888664465732 -0.067340863497725556 0.023369340103136502 0.014412424202560082 -0.012816806276309345 0.03759339316227539 -0.1034302090942491 -0.01940732304569541 0.042610220176772406 -0.044124102252330134 -0.067698060039109789 0.0084577664558456341 -0.093503079683578849 -0.22728006647315466 0.0081963566745215585 -0.035334107617029431 -0.050935021911859946 -0.106021824853979 -0.030332626679511417 -0.001688024464171558 -0.028936485304423096 -0.070159929091042295 -0.015248622919946218 -0.20977586463938361 0.047832937078569171 -0.081598383373403666
leaf_weight=397.30203815549612 569.40496245026588 192.4283317476511 2114.3238778710365 75.396894559264183 371.22226996719837 33.004106119275093 1012.1263599619269 274.43879551440477 579.14618752896786 1001.3746548742056 291.56479448080063 750.92646709084511 1370.2085111513734 383.61114478111267 635.60067613422871 408.34494652599096 92.019457623362541 3.8587580472230902 624.09598083049059 312.96904103457928 280.72552962601185 38.444231688976288 710.36926001310349 309.39120545983315 461.74692710489035 190.9194675385952 369.74320524185896 3.2593112140893927 11.079461455345152 32.692705661058426
leaf_count=3460 3732 782 24774 309 1800 179 7926 1640 2912 10084 1234 4635 14297 1660 2607 2576 400 21 4860 1380 1353 176 3251 2183 2543 773 2026 20 86 230
internal_value=0.000939279 -0.0263753 0.0416252 -0.0506219 -0.00703047 0.0263638 0.0037106 -0.0229746 -0.0380377 0.0537159 -0.0715476 -0.0337437 0.0363906 -0.0630553 -0.0732694 -0.00892275 -0.0553711 -0.0204701 0.00107734 -0.0579221 -0.0294308 -0.0248849 -0.0342185 0.017503 -0.0157839 -0.0485293 -0.00261222 -0.00517878 0.00445837 -0.0488372
internal_weight=13901.7 8317.66 5584.08 3691.18 4626.48 2468.38 2764.27 1862.21 2305 3115.7 1386.17 1218.03 1767.51 1094.61 710.998 1442.76 463.242 754.785 700.872 696.317 1608.69 1327.96 748.813 1321.52 1034.41 503.889 644.182 572.664 667.868 43.7722
internal_count=103909 45939 57970 16437 29502 23112 18980 10522 10627 34858 5810 6856 17757 4576 2916 8871 2200 4656 5355 2935 7692 6339 3427 10109 6295 2153 3666 3752 5176 316
is_linear=0
shrinkage=0.1


Tree=11
num_leaves=31
num_cat=0
split_feature=1 2 0 0 18 20 3 12 18 0 0 0 1 0 15 5 12 20 1 17 1 21 2 1 2 0 2 1 1 0
split_gain=1280.15 321.375 88.2047 83.9411 71.6518 46.8273 44.8099 39.4221 38.6192 33.2968 26.4578 21.7118 19.6261 19.0073 18.0166 31.272 17.882 17.5431 16.9387 16.83 15.5005 15.1427 14.614 14.3196 15.9274 14.2371 13.9952 19.4777 13.6235 12.7475
threshold=-0.56904231560694274 0.38767354405412513 -0.35011518379876033 -0.27788437717035125 2.7713477205086083 -0.04706653224559311 -0.22041134200749005 -0.42355566449170495 -0.2084914525614246 -1.4815085180893992 -1.3579366271048439 -1.3747866737336556 0.36090993495843909 -1.366815711133343 0.17738692360478911 0.020978081424781841 -0.38102910354749958 0.18110086349013479 1.0569227270693129 1.0000000180025095e-35 1.0101217047111446 -0.075393051206395528 6.3731927095047753 0.80574968335467334 1.0000000180025095e-35 1.3141198631925814 1.0000000180025095e-35 -0.50222084851951443 1.9580790918968112 -1.5534815354091618
decision_type=2 2 2 2 2 2 2 2 2 2 2 2 2 2 2 2 2 2 2 2 2 2 2 2 2 2 2 2 2 2
left_child=2 3 6 5 10 12 13 -4 23 -7 -3 -6 19 -1 15 16 26 20 -10 -2 -12 -19 25 24 -5 -13 27 -11 -23 -8
right_child=1 4 7 8 11 9 29 -9 18 14 17 22 -14 -15 -16 -17 -18 21 -20 -21 -22 28 -24 -25 -26 -27 -28 -29 -30 -31
leaf_value=0.013844291631264771 -0.0038307775596518982 -0.066655549279236073 0.057371573289563466 0.016541792554611114 -0.11538456234116062 -0.080223617289717913 -0.072420168741422694 0.032177271581873307 -0.014773536822334472 -0.11678316409804455 -0.045514044361306689 -0.067780755936257917 0.01287068292164097 0.039106213790298106 -0.0066002255824448219 -0.071341614395600148 -0.018971722185357268 -0.028773496944821338 0.0096636311821583637 -0.029528645954021684 -0.022559259988643929 -0.079797929904678877 -0.11232295015223831 0.040655884395228409 -0.025959595316571195 -0.0020806562921853386 -0.095280796086395073 0.017962619039129584 -0.045922365456246034 0.0046581408558181306
leaf_weight=391.15898313373327 606.58361275494099 341.13306447863579 2194.1921328604221 909.62665241211653 123.44649785757065 139.90925922989845 22.218766868114471 866.25360808521509 912.21976891160011 15.542226091027258 431.08099907636642 456.64105927944183 345.19950325787067 1248.4831597581506 282.42846721410751 192.00265444815159 595.47916302084923 249.95896266400814 411.6430674418807 439.51380444318056 926.23077626526356 192.37873040139675 68.534677982330322 218.62378494441509 97.637855350971222 35.550660535693169 60.237868279218674 34.631160825490952 310.05322569608688 625.54311541467905
leaf_count=3449 3798 1405 26999 7232 529 614 115 8714 5730 86 1899 1890 2164 13443 1388 884 3057 1068 2665 2483 4206 803 301 1702 564 148 274 182 1280 4837
internal_value=0.000896792 -0.0234599 0.0391375 -0.00835782 -0.0488047 -0.0206063 0.0242824 0.0502404 0.00466783 -0.0340968 -0.040817 -0.077418 -0.00780493 0.0330796 -0.0286292 -0.0355583 -0.0258252 -0.036639 -0.00717502 -0.0146276 -0.0298497 -0.0488868 -0.0690595 0.0174572 0.012422 -0.0630353 -0.0627881 -0.0237776 -0.0588932 0.00201429
internal_weight=13744.1 8396.29 5347.85 5261.28 3135.01 2711.53 2287.4 3060.45 2549.75 1320.23 2450.84 684.173 1391.3 1639.64 1180.32 897.893 705.89 2109.7 1323.86 1046.1 1357.31 752.391 560.726 1225.89 1007.26 492.192 110.411 50.1734 502.432 647.762
internal_count=103909 46352 57557 32823 13529 14930 21844 35713 17893 6485 10661 2868 8445 16892 5871 4483 3599 9256 8395 6281 6105 3151 2339 9498 7796 2038 542 268 2083 4952
is_linear=0
shrinkage=0.1


Tree=12
num_leaves=31
num_cat=0
split_feature=1 4 3 2 0 0 0 0 2 11 15 2 0 1 13 1 0 12 6 1 1 15 0 5 0 11 0 14 17 1
split_gain=1064.1 235.241 116.414 90.9581 56.1279 52.5986 48.0954 33.3948 25.6675 27.4546 25.287 23.7059 23.4823 23.2817 20.9678 18.7421 18.0503 17.8714 16.8692 16.9736 15.6598 15.3322 16.5392 15.2638 15.2412 14.8916 14.6099 14.4507 13.756 15.317
threshold=-0.55091900298125751 -0.078799006626975046 -0.22041134200749005 2.0978218770400257 -1.0530216751832304 -1.366815711133343 -0.78263291407649449 0.64000375050560088 1.0000000180025095e-35 -0.54875511926176501 1.1219433496437758 5.8601482096090054 1.3141198631925814 0.36090993495843909 4.5759095702953436 0.17995338376907757 1.0345092754538046 -0.29007542433836792 -0.011845359469450185 1.4977185623693521 -0.035710845225798669 0.52557208019252843 -1.5403254923962979 0.020978081424781841 1.0153654898628302 1.0310967875895021 -1.1396271651926513 2.2389862503381601 0.84011203649578292 -0.49650651509381832
decision_type=2 2 2 2 2 2 2 2 2 2 2 2 2 2 2 2 2 2 2 2 2 2 2 2 2 2 2 2 2 2
left_child=2 7 4 5 -1 20 21 8 13 -10 12 26 18 23 15 -9 27 24 19 -7 -3 22 -4 -2 -6 -22 -5 -8 29 -20
right_child=1 3 6 11 17 10 16 14 9 -11 -12 -13 -14 -15 -16 -17 -18 -19 28 -21 25 -23 -24 -25 -26 -27 -28 -29 -30 -31
leaf_value=0.019206901532155388 -0.0073159584039108345 -0.090362874426524506 -0.076147366871342201 -0.081675978574824545 0.0464579557151285 -0.032203180153419074 0.018336813093700641 0.002828512249738725 -0.096935798712721136 -0.020124171984429048 0.00053615395761942412 -0.1043819135218068 -2.0454076344536017e-05 0.013720117433662918 -0.18554303662878116 0.033282441431635501 0.044789204179461431 0.017359024979101585 -0.15176039609519587 -0.0082012286402752405 -0.039842683158412273 0.032623078117230357 -0.010213363668569668 -0.049291532263200946 0.062385323518655791 -0.090558021096989835 -0.050861363172046939 -0.10999336153982474 -0.043618460994961007 -0.00075887361355450719
leaf_weight=783.20394656062126 1190.5129662379622 134.38251614570618 40.988937050104141 211.99690958857536 2155.0971567705274 855.06306438148022 834.54647971689701 473.11993020027876 50.883271172642708 544.28548717498779 321.54141965508461 137.44846141338348 253.51607743650675 583.46931887418032 5.2029613554477683 352.75821779668331 322.95092957466841 167.79584077000618 7.1109038144350043 449.52921210229397 281.51115247607231 76.874381966888905 529.66061430424452 93.428703010082245 833.03588943183422 72.888517379760742 561.08805233240128 8.8678995445370656 1141.0279250442982 121.43367281556129
leaf_count=7210 7571 561 206 893 26370 4284 7744 3646 228 2731 1589 628 1371 3943 37 2571 3322 1763 36 2248 1174 486 3731 489 10753 302 2290 79 5072 581
internal_value=0.000851578 -0.0231106 0.0335155 -0.0378487 0.0431685 -0.0307741 0.0125527 -0.00275739 -0.008607 -0.0266911 -0.026037 -0.066115 -0.0290587 -0.00284336 0.0145756 0.0158363 0.0246854 0.049115 -0.0319186 -0.0239327 -0.0612952 -0.00930149 -0.0149493 -0.0103704 0.0508982 -0.0502732 -0.0593114 0.0169875 -0.0401247 -0.00911206
internal_weight=13595.2 7842.2 5753.02 4548.54 3939.13 3638 1813.89 3293.66 2462.58 595.169 3149.22 910.533 2827.68 1867.41 831.081 825.878 1166.37 3155.93 2574.16 1304.59 488.782 647.524 570.65 1283.94 2988.13 354.4 773.085 843.414 1269.57 128.545
internal_count=103909 42245 61664 21029 46096 17218 15568 21216 14962 2959 15181 3811 13592 12003 6254 6217 11145 38886 12221 6532 2037 4423 3937 8060 37123 1476 3183 7823 5689 617
is_linear=0
shrinkage=0.1


Tree=13
num_leaves=31
num_cat=0
split_feature=1 2 20 0 2 0 19 0 1 1 1 0 17 0 0 16 12 1 11 6 13 21 0 10 15 0 10 1 15 10
split_gain=884.138 217.997 77.6635 71.7218 44.352 39.2315 36.9512 34.2982 31.5334 23.072 21.166 19.7558 17.5273 18.3498 17.3849 16.0555 18.8713 15.3434 17.7845 15.1214 14.5841 14.4576 13.9993 13.6324 14.7494 13.5889 13.428 13.1982 16.2232 13.1584
threshold=-0.56904231560694274 0.72970321065130517 -0.04706653224559311 -0.30626463651317581 3.8079702100259252 -1.3579366271048439 -0.26497106477941007 0.66711556927292548 -0.57063893826218537 1.0101217047111446 1.6022390062344374 -1.4815085180893992 0.013500814419942908 -1.3266386614959733 -0.6549012410660503 0.16562901409463932 -0.4209691834902019 -0.06901404026670814 1.0848907879544862 0.21475437143176654 3.2938687769919275 0.3591064893013769 -1.5312559958102754 -0.33237817171215128 1.0134829862624586 1.0248919765869078 -0.37719134178294805 -0.43220713338746958 0.30301540621763245 -0.42537076137252988
decision_type=2 2 2 2 2 2 2 2 2 2 2 2 2 2 2 2 2 2 2 2 2 2 2 2 2 2 2 2 2 2
left_child=3 2 7 6 10 17 -1 12 -5 15 14 -8 13 -2 -3 16 26 -4 -19 -11 -9 -21 -12 24 -17 -10 -7 28 -14 -26
right_child=1 4 5 8 -6 9 11 20 25 19 22 -13 27 -15 -16 23 -18 18 -20 21 -22 -23 -24 -25 29 -27 -28 -29 -30 -31
leaf_value=-0.0051024921613755147 -0.021425223499451085 -0.072654130792286428 -0.070818292869577956 0.052272331566346641 -0.077943870811027091 -0.13010146624231 -0.0035864690752756057 0.023644836918621896 0.020041949305153708 0.0015405696873697985 -0.099574100162153956 0.030573573452497633 -0.0460508791191701 0.0093225219129311771 -0.039625319319930068 -0.038055537590940901 -0.0094889099221365601 -0.021515223063639618 -0.091644593299565175 -0.057411243100300373 -0.11499829462004224 -0.0015245621542019981 -0.030405493350625486 -0.11339796394186757 0.035943126403238913 0.046022714489004607 -0.03672256510702996 -0.0056448617782640593 0.011465952469508415 -0.036573136718193421
leaf_weight=440.66762369126081 236.93249349296093 284.58886955678463 169.97774052619934 1858.4889217913151 352.48745037615299 17.361932702362537 188.4166207909584 698.36399649828672 566.11922853440046 904.22630076855421 29.953986957669258 1668.6797200292349 211.95693307369947 1073.3854381144047 362.16506269574165 563.98950609564781 946.20310835540295 229.95562294125557 42.908724740147591 93.775731816887856 7.670575149357318 91.411182776093483 1264.6686455905437 21.097549214959145 55.778725244104862 312.41250564903021 136.26105443388224 516.12447995692492 63.800997748970985 45.380640469491482
leaf_count=3399 1304 1171 730 25131 1582 80 1561 5651 5978 5069 123 17960 1229 7744 1537 2685 5267 1008 187 451 58 444 5287 105 281 3528 732 3014 379 234
internal_value=0.000806167 -0.0190154 -0.00917001 0.0339568 -0.045311 -0.0195276 0.0209305 0.00306891 0.0448925 -0.0152605 -0.039386 0.0271078 -0.00333574 0.0037627 -0.0541589 -0.0222563 -0.014767 -0.0472345 -0.0325433 -0.00379114 0.0221386 -0.0298247 -0.0320059 -0.0342591 -0.0317489 0.0292809 -0.0472759 -0.0150814 -0.0327434 0.00341194
internal_weight=13455.2 8420.43 6126.56 5034.78 2293.86 3318.33 2297.76 2808.23 2737.02 2875.49 1941.38 1857.1 2102.2 1310.32 646.754 1786.07 1099.83 442.842 272.864 1089.41 706.035 185.187 1294.62 686.246 665.149 878.532 153.623 791.882 275.758 101.159
internal_count=103909 46352 36652 57557 9700 17273 22920 19379 34637 15348 8118 19521 13670 9048 2708 9384 6079 1925 1195 5964 5709 895 5410 3305 3200 9506 812 4622 1608 515
is_linear=0
shrinkage=0.1


Tree=14
num_leaves=31
num_cat=0
split_feature=1 2 18 0 0 20 0 21 1 2 1 2 5 0 1 0 21 21 5 15 10 1 18 4 8 8 2 3 7 4
split_gain=734.626 193.578 58.6453 55.7303 45.8358 31.8179 29.9452 23.1789 23.0839 18.8056 21.2694 18.3839 17.1372 16.7326 14.7327 13.8732 13.0077 16.6428 12.4913 12.4202 12.6473 12.3159 12.0395 11.9993 12.6291 11.133 12.1608 10.9988 10.803 11.3844
threshold=-0.57013232720105889 0.21665871075553508 2.9368943412347215 -0.30626463651317581 -0.99755303246477633 -0.063364203369573671 0.20285460094411265 -0.13970135421772342 -0.57065522693803505 0.90071804394989508 0.23044960859147159 4.149999876623105 0.020978081424781841 1.5077840813133634 0.80574968335467334 1.2085463530298999 -0.13549802245074313 -0.085258972389545717 0.31582455136623833 0.17738692360478911 -0.4407292672778374 1.2905402348593189 1.0000000180025095e-35 0.13059071660971847 -0.49935554090489437 -0.40514063894726476 -0.12537095584164487 0.10120674215708614 1.0000000180025095e-35 -0.078799006626975046
decision_type=2 2 2 2 2 2 2 2 2 2 2 2 2 2 2 2 2 2 2 2 2 2 2 2 2 2 2 2 2 2
left_child=3 4 6 8 12 13 9 -5 -1 10 -3 -4 14 -6 28 22 -17 -18 -8 -14 -21 -11 25 24 -24 26 -7 -28 29 -2
right_child=1 2 11 7 5 15 18 -9 -10 21 -12 -13 19 -15 -16 16 17 -19 -20 20 -22 -23 23 -25 -26 -27 27 -29 -30 -31
leaf_value=0.029593128732461699 -0.016737651495492823 -0.04918143874450067 -0.049347854008461062 0.049778596903145657 0.0099243316484506246 0.0072979674024420006 -0.004051757108202444 0.028718737513895087 0.0080039538687626255 -0.065133712751163989 -0.017918228200668181 -0.086163248270236317 -0.061273332786396323 0.043857707449571473 0.0097064689002330298 -0.018033011786887251 0.056635493058577936 0.0033109331700918541 -0.026455314582512282 -0.11544138103327473 -0.0027116197811324822 -0.038704165156727061 0.051580225552438311 0.0064359384160080123 -0.024448091020682412 0.0052643565063008567 -0.038942626719175595 0.11296029280413694 0.028737489732424456 -0.046935959652421019
leaf_weight=1280.0191428735852 610.06875490397215 293.60203050076962 387.74147264659405 1729.7599276378751 1280.0149694383144 115.73464070260525 568.85150565207005 748.87488140165806 807.82900413870811 230.54484052956104 840.81805798411369 208.61325971782207 151.67714343965054 163.92390521615744 206.95123539865017 92.465022630989552 102.32951794564724 136.74047155678272 442.4316326379776 11.239237651228903 86.914382085204124 749.53811232745647 22.52536454051733 182.39378781616688 727.15733163058758 772.79321531951427 167.34154045581818 4.9063944965600959 42.744158014655113 156.95572669804096
leaf_count=14648 3330 1231 1606 24425 10183 832 2807 8676 7127 952 3809 992 666 1496 1122 722 773 916 1935 51 396 3105 131 957 4141 5005 939 27 218 691
internal_value=0.000759618 -0.0161969 -0.033489 0.0332767 -0.00341336 0.00211817 -0.0280063 0.0434157 0.0212399 -0.0347752 -0.0260095 -0.0622264 -0.0198711 0.0137766 -0.014105 -0.00512422 0.0138169 0.0261355 -0.0138532 -0.043337 -0.0156199 -0.0449212 -0.00827531 -0.0165672 -0.0221637 -0.000989469 -0.0177714 -0.0346157 -0.0201905 -0.0229171
internal_weight=13323.5 8757.02 3722.14 4566.48 5034.88 3768.33 3125.79 2478.63 2087.85 2114.5 1134.42 596.355 1266.55 1443.94 1016.72 2324.39 331.535 239.07 1011.28 249.831 98.1536 980.083 1992.85 932.076 749.683 1060.78 287.983 172.248 809.769 767.024
internal_count=103909 49033 16437 54876 32596 26122 13839 33101 21775 9097 5040 2598 6474 11679 5361 14443 2411 1689 4742 1113 447 4057 12032 5229 4272 6803 1798 966 4239 4021
is_linear=0
shrinkage=0.1


Tree=15
num_leaves=31
num_cat=0
split_feature=4 16 1 0 0 0 0 0 2 1 0 11 5 0 20 1 6 0 0 15 6 2 1 6 20 11 0 11 1 1
split_gain=611.193 125.479 94.6624 40.1557 34.8248 33.1486 27.6945 24.7419 21.1126 20.7879 17.8869 16.5368 15.5589 13.9043 13.8987 11.8801 11.7144 11.5626 11.2253 10.9496 14.7899 13.8229 14.4576 13.3599 12.5784 16.2333 11.8402 13.9564 10.8643 10.821
threshold=-0.14492207712277297 1.0368626234880354 -0.57064325974761487 0.64000375050560088 -1.3579366271048439 -0.35011518379876033 0.6583155796913972 -1.4815085180893992 1.7557922104428452 -0.5698221775159994 -1.382974413707148 1.0310967875895021 0.56531002593208612 0.20285460094411265 -0.063364203369573671 2.6702241553271917 0.36582085869924441 1.5195017771609376 -0.17853589292669361 0.52557208019252843 -0.068495292194754351 0.72970321065130517 -0.21944361838169307 0.87567025322698211 -0.014471189997631988 -0.49775038092459811 -0.45800293889133759 3.0393088253944738 -0.56946216453752185 -0.57050264526017624
decision_type=2 2 2 2 2 2 2 2 2 2 2 2 2 2 2 2 2 2 2 2 2 2 2 2 2 2 2 2 2 2
left_child=2 3 5 7 11 -1 10 12 15 -9 -4 -3 -2 -10 -12 18 17 29 -6 20 21 22 26 -21 -24 -26 27 -11 -22 -5
right_child=1 4 6 16 8 -7 -8 9 13 19 14 -13 -14 -15 -16 -17 -18 -19 -20 23 28 -23 24 -25 25 -27 -28 -29 -30 -31
leaf_value=0.025392524640153992 -0.036031731559682777 -0.052542042250628321 -0.017985333366328512 0.051772498026993477 -0.036839887477717354 0.046478299580946958 0.028723985728487968 0.010603639899807817 -0.055579499517575695 -0.028571497835537488 0.014114133147799466 -0.099858581879907066 -0.12837013347394877 -0.027045275771106575 -0.0075729686759587736 0.047853581743244021 -0.035260077513000754 0.023567143577513092 -0.014877021247946189 -0.003915438528935015 -0.17217076935904713 -0.035016955494157363 0.0042194744622198995 0.14026260043373226 -0.065353232180400872 -0.0097075198966579644 -0.0072808658678828785 -0.12229204171104012 -0.029813987505796682 -0.00094869973893000812
leaf_weight=1318.114266641438 302.12434141337872 204.75272119045258 275.62022645771503 40.900767274200916 451.07861012220383 1716.4392867162824 703.68106541782618 347.23394571244717 511.22214823961258 438.30762672424316 1367.6357997879386 115.54485745728016 19.420898020267487 256.43224321305752 376.9615330696106 22.608888179063797 66.795134454965591 333.34928938001394 480.71420079469681 552.85856328159571 5.4071263074874869 269.8813681602478 731.23336762189865 6.5025450438261023 59.692787677049637 430.62096417695284 339.10491143912077 16.486974559724331 628.39184726774693 808.46532804518938
leaf_count=15183 1350 882 1675 480 1908 25251 7161 3059 2207 2240 12137 527 80 1060 2502 93 330 2464 2205 2814 37 1132 4180 29 289 2123 2158 82 2902 5369
internal_value=0.00071224 -0.0182214 0.0251719 -0.0102318 -0.0393332 0.0373193 0.0116391 -0.0149666 -0.0337016 -0.0127273 0.00568808 -0.0696111 -0.0416088 -0.0460477 0.00942812 -0.0237713 0.00548329 0.00778432 -0.0255092 -0.0150563 -0.0175123 -0.0137638 -0.0109178 -0.00223938 -0.00408986 -0.0164821 -0.0214238 -0.031969 -0.0310285 0.00159006
internal_weight=13197.6 7439.13 5758.45 5396.78 2042.35 3034.55 2723.9 4147.27 1722.06 3825.72 2020.22 320.298 321.545 767.654 1744.6 954.402 1249.51 1182.72 931.793 3478.49 2919.13 2285.33 2015.45 559.361 1221.55 490.314 793.9 454.795 633.799 849.366
internal_count=103909 40000 63909 31118 8882 40434 23475 22475 7473 21045 16314 1409 1430 3267 14639 4206 8643 8313 4113 17986 15143 12204 11072 2843 6592 2412 4480 2322 2939 5849
is_linear=0
shrinkage=0.1


Tree=16
num_leaves=31
num_cat=0
split_feature=2 16 12 20 0 2 0 1 0 1 1 0 15 14 20 0 17 4 2 16 11 4 0 0 11 4 4 0 10 11
split_gain=509.676 115.15 64.7529 38.3679 37.2415 30.2153 27.0131 20.0206 18.5498 17.7807 17.0226 16.4351 15.5757 15.2074 15.0865 13.9314 13.1985 12.7688 12.766 12.378 15.4079 14.4634 12.9387 12.2658 11.9037 11.8949 11.5374 11.4399 11.3392 11.2701
threshold=-0.29638578914023483 1.0368626234880354 -0.41515119757825802 -0.04706653224559311 -1.2478810982804653 3.1239108768315655 -0.76247554779470506 0.13899899877514107 -1.4815085180893992 1.0101217047111446 1.0000000180025095e-35 1.1969282575970304 0.27334180406270542 1.6529447295859236 1.0000000180025095e-35 1.6861274121134426 0.013500814419942908 -0.15594258887207266 7.7413113758934955 0.16562901409463932 -0.5650925782956937 -0.15594258887207266 -0.98814079327521231 -0.94490249559766359 -0.52305351301960612 0.21875481060411575 -0.12288105362417369 1.0345092754538046 -0.33237817171215128 -0.2419297361942753
decision_type=2 2 2 2 2 2 2 2 2 2 2 2 2 2 2 2 2 2 2 2 2 2 2 2 2 2 2 2 2 2
left_child=2 3 4 7 -1 10 -4 16 -5 19 12 17 -3 27 24 18 -2 -6 -7 20 -10 -21 -23 -12 -11 -26 -9 -8 -24 -15
right_child=1 5 6 8 11 15 13 26 9 14 23 -13 -14 29 -16 -17 -18 -19 -20 21 -22 22 28 -25 25 -27 -28 -29 -30 -31
leaf_value=0.010829963125504584 0.00097675491016619375 -0.078608336367451348 -0.0065242800818202801 -0.044547368808756788 0.036483079496178773 -0.054920639675650654 0.014522418688918695 0.02176828127067347 -0.060923585830666975 0.090191729479396021 -0.03998877370857095 0.054841233950754742 -0.021681318452757312 -0.018580324279328972 -0.012125274238405655 0.08875327919774488 -0.018982950372399783 0.0028059903774057923 -0.11005668171215043 -0.18949710063664682 -0.011323766383273454 -0.056684828144583088 -0.018290011854935478 -0.019179077053091836 0.0031102283043267162 0.086743727200977061 -0.0038136682209586568 0.03787748446731188 -0.097076401621938868 -0.19102106085564463
leaf_weight=599.6863706856966 1097.9444438442588 122.89478575438261 647.72500804066658 197.16907797753811 2157.5605472549796 393.75864231586456 779.50256712734699 586.94328238070011 66.160159938037395 17.410087436437607 399.65328967571259 494.38715328276157 78.932703383266926 11.989326879382135 1006.5919645726681 6.3179851323366156 474.4595213830471 118.78331073373556 47.007048219442368 5.7440220862627021 1173.8760353922844 138.71386377513409 423.79322253912687 972.45285958051682 480.34465831518173 17.630140408873558 251.98105766624212 286.9312461912632 19.090440899133682 5.5420593768358222
leaf_count=5781 7906 549 4575 830 30282 1793 7770 4413 317 107 1669 7580 355 113 4675 26 2781 1242 252 29 6188 575 2031 4150 2831 94 1499 3353 92 51
internal_value=0.000665168 -0.0151193 0.0253496 -0.00812252 0.0334247 -0.0357456 0.00963287 0.00160972 -0.0147396 -0.0129849 -0.0292289 0.038315 -0.0563448 0.0192876 -0.00500117 -0.0586874 -0.00504592 0.0347258 -0.0608008 -0.0196343 -0.0139701 -0.031593 -0.0300335 -0.0252403 0.00891282 0.00607116 0.0140844 0.0208063 -0.0216861 -0.0730927
internal_weight=13081 7978.87 5102.11 5957.85 3370.42 2021.02 1731.69 2411.33 3546.52 3349.35 1573.93 2770.73 201.827 1083.97 1521.98 447.084 1572.4 2276.34 440.766 1827.38 1240.04 587.342 581.598 1372.11 515.385 497.975 838.924 1066.43 442.884 17.5314
internal_count=103909 43162 60747 34368 44885 8794 15862 16599 17769 16939 6723 39104 904 11287 7707 2071 10687 31524 2045 9232 6505 2727 2698 5819 3032 2925 5912 11123 2123 164
is_linear=0
shrinkage=0.1


Tree=17
num_leaves=31
num_cat=0
split_feature=3 2 1 0 0 2 0 1 16 0 0 1 20 0 1 15 14 13 1 12 21 21 8 0 0 12 0 11 1 14
split_gain=423.353 117.244 45.8569 37.2899 29.7129 26.1789 23.3655 19.5112 26.1368 19.8335 18.3625 15.8756 15.2951 14.8153 13.8967 13.1239 12.4692 11.7522 11.1734 11.6465 10.1832 15.621 10.0985 9.77215 9.68512 9.67021 9.55125 9.50189 15.1707 9.30434
threshold=-0.22041134200749005 1.0717328772484851 -0.56166354544695574 -1.3266386614959733 1.2211194406743471 5.1760888764146458 -0.76247554779470506 1.0101217047111446 0.25275237503397896 -1.3015129921748121 1.0153654898628302 1.5502113134602005 -0.030768861121612551 -1.4730278357197173 -0.57065223514043006 0.86383328021758721 1.6529447295859236 1.032289921199063 -0.56813347397891178 -0.015003455237000543 -0.13549802245074313 0.016740453155550932 4.0711971736945456 1.0345092754538046 -0.44910041947114326 0.099864046489206229 1.7536389167392412 1.1039179831080816 1.2905402348593189 2.0583259401110063
decision_type=2 2 2 2 2 2 2 2 2 2 2 2 2 2 2 2 2 2 2 2 2 2 2 2 2 2 2 2 2 2
left_child=3 2 6 -1 7 11 17 8 15 -10 14 26 27 -13 -5 -4 23 29 19 -18 -6 -22 -16 -8 -7 -23 -3 -9 -29 -2
right_child=1 5 4 10 20 24 16 12 9 -11 -12 13 -14 -15 22 -17 18 -19 -20 -21 21 25 -24 -25 -26 -27 -28 28 -30 -31
leaf_value=0.0034892499618395414 -0.0084089610678426251 -0.050269839274128453 -0.013643806752341248 0.032884721074842714 -0.015797490341531148 -0.091202317240001982 0.014370269687288651 0.015134573332827634 -0.061684436636521491 -0.024190304803478013 0.044921565989756045 -0.066742378074366768 -0.009893375815478082 -0.022000242189547662 0.018687050475020717 0.014718113296803682 0.018801193833215105 0.048676386945701054 -0.26632683336790314 -0.16115190466204482 0.033105759604278744 -0.021712343148294216 -0.067863973697716351 0.037228478082615972 -0.039666276811735166 0.024661911362050332 0.088984610899508265 0.083954308269791139 -0.048736408234138481 -0.13486096033452447
leaf_weight=536.55279575288296 563.01308283954859 381.15569812059402 2272.1873778253794 1727.5550519153476 110.35546910762787 104.95430225133896 703.85986342281103 467.21896284073591 176.29972045123577 706.26589627563953 817.1307229436934 79.445468053221703 1307.6414860337973 1081.2047789096832 842.01303708553314 175.77261685580015 12.652596153318886 36.690487802028656 2.3073906004428855 5.0247580707073221 277.64556248486042 118.15384481847286 13.700073450803755 254.70794469118118 55.880972817540169 72.592104226350784 4.9898849576711646 10.345384329557417 51.554534934461117 5.8795743957161894
leaf_count=4808 3944 1604 12790 24953 797 577 7102 3031 744 3256 12258 351 6303 4513 8407 988 126 250 16 42 2009 704 135 3078 273 405 21 65 324 35
internal_value=0.000621081 -0.011301 -0.00580359 0.0279897 -0.00995655 -0.0348989 0.00926015 -0.0123631 -0.0169265 -0.0316801 0.0318557 -0.0309063 -0.00408865 -0.0250628 0.0277227 -0.0116073 0.0188142 -0.00617804 -0.0593646 -0.0323502 0.0115304 0.017969 0.0173014 0.0204441 -0.0732965 -0.00406371 -0.0484704 0.0102569 -0.0265597 -0.00971586
internal_weight=12974.8 9037.8 7330.17 3936.95 5746.03 1707.63 1584.14 5167.29 3330.53 882.566 3400.4 1546.8 1836.76 1160.65 2583.27 2447.96 978.553 605.583 19.9847 17.6774 578.747 468.392 855.713 958.568 160.835 190.746 386.146 529.119 61.8999 568.893
internal_count=103909 53348 46009 50561 31416 7339 14593 27501 17778 4000 45753 6489 9723 4864 33495 13778 10364 4229 184 168 3915 3118 8542 10180 850 1109 1625 3420 389 3979
is_linear=0
shrinkage=0.1


Tree=18
num_leaves=31
num_cat=0
split_feature=1 2 2 0 0 1 0 17 0 18 0 1 4 6 11 21 10 8 1 1 17 12 12 1 19 8 17 15 0 4
split_gain=353.228 94.3352 35.8513 33.6647 27.7743 21.5055 19.5624 17.6964 13.8196 13.098 14.2495 12.4786 13.1913 12.6047 12.3015 11.7443 16.6311 11.6885 11.5718 11.714 12.5328 11.1301 12.8984 11.5092 11.9819 11.35 11.0591 11.0435 11.0113 14.2283
threshold=-0.57032247255995949 0.21665871075553508 3.8079702100259252 0.70847024734297681 -0.99755303246477633 -0.57065223514043006 -1.3579366271048439 0.12281118800771422 -0.98009366565189071 4.9234537899480761 0.81150101750673465 1.2386006339034539 0.71467783932260043 -0.068495292194754351 2.4360182635805652 -0.12480702091314033 -0.36057048948653986 0.62067070345013198 0.60154470403115257 -0.48389841514211357 -0.554317924237823 -0.42663071032829258 -0.3531649913195043 -0.34576595623888345 -1.4939397262926908 -0.42152709592467541 -0.50167505767724963 0.55097016843765201 0.6865874503476318 0.85794449206349599
decision_type=2 2 2 2 2 2 2 2 2 2 2 2 2 2 2 2 2 2 2 2 2 2 2 2 2 2 2 2 2 2
left_child=3 4 6 5 -2 8 15 18 -1 10 -4 12 -8 -13 -12 16 -3 -7 19 20 -6 25 -23 24 -24 -21 -22 -9 -14 -30
right_child=1 2 9 -5 7 17 11 27 -10 -11 14 13 28 -15 -16 -17 -18 -19 -20 21 26 22 23 -25 -26 -27 -28 -29 29 -31
leaf_value=0.014093772780986381 -0.01428497049497339 0.053699327643588868 -0.051790507826591316 0.040903602698370359 0.025487657033368555 0.01237813479962499 -0.020792650969266965 -0.007912223782887402 0.032230694537449221 -0.090480114032207404 0.07351170458890173 0.00043500541321786994 -0.067056253291145715 -0.017311220824572534 -0.080430900683777978 -0.04580905688666663 -0.046280917697670149 -0.019773787699079101 0.027162937204383116 -0.039246173629222544 -0.17357936726714748 0.036118583835340459 -0.14740287128049068 0.01007482140345306 -0.018138975211315959 -0.0011874012706274604 2.1697357021778856e-05 0.01041865568650616 -0.12040214225739572 0.030149002528141906
leaf_weight=626.62717176228762 1327.0630039945245 30.720283180475235 209.02548906207085 1027.777485370636 452.06224478036165 928.63422202318907 911.66708555817604 1572.7129148766398 1274.7693706490099 78.437148720026016 17.61046771705151 579.48257349431515 118.71963818371296 1293.9502187371254 7.360475853085517 384.97011603415012 36.294063106179237 128.7453917786479 308.64568766951561 130.25975006818771 3.7264446690678588 118.8663516715169 7.60693385452032 286.49801444262266 125.08508553355932 196.66010008752346 240.47102637588978 415.47909191995859 8.1089749038219434 27.793803319334984
leaf_count=6813 6754 129 1048 16230 4023 9552 4043 9939 19514 425 77 2737 497 5498 32 1645 154 1315 2496 911 27 837 47 2034 905 1451 1984 2640 35 117
internal_value=0.000578973 -0.0105129 -0.0227011 0.0253118 -0.00180595 0.0198958 -0.0197152 0.00248647 0.0262535 -0.0551156 -0.0432612 -0.0167373 -0.0253733 -0.011822 0.0281353 -0.0390836 -0.00044862 0.00846335 0.00947007 0.00597231 0.0156269 -0.00179914 0.00704294 -0.0012018 -0.0255494 -0.0163517 -0.00262745 -0.00408156 -0.052381 -0.00385437
internal_weight=12875.8 8889.28 3704.14 3986.55 5185.14 2958.78 3391.71 3858.07 1901.4 312.434 233.996 2939.72 1066.29 1873.43 24.9709 451.984 67.0143 1057.38 1869.88 1561.24 696.26 864.976 538.056 419.19 132.692 326.92 244.197 1988.19 154.622 35.9028
internal_count=103909 50485 16437 53424 34048 37194 14855 27294 26327 1582 1157 12927 4692 8235 109 1928 283 10867 14715 12219 6034 6185 3823 2986 952 2362 2011 12579 649 152
is_linear=0
shrinkage=0.1


Tree=19
num_leaves=31
num_cat=0
split_feature=3 2 0 0 1 2 13 1 16 0 0 0 0 14 21 21 1 9 20 1 8 15 18 12 15 17 1 15 21 12
split_gain=294.289 81.6302 32.615 28.7705 25.0545 22.4889 16.3127 15.5225 19.244 15.045 14.3577 13.935 13.0426 12.453 12.1832 15.4573 12.0941 11.2745 11.2298 10.6494 13.1348 10.5783 10.0932 9.95147 9.86292 12.1234 9.49765 9.42661 9.79294 9.36313
threshold=-0.22041134200749005 1.0717328772484851 1.2211194406743471 -1.3266386614959733 -0.56166354544695574 7.7413113758934955 0.7726600305941983 1.0101217047111446 0.16562901409463932 1.0153654898628302 -1.3502000184214831 -1.5223153938785763 -1.2756256726235591 2.2389862503381601 0.016740453155550932 -0.13549802245074313 1.5502113134602005 2.0417161452526371 -0.014471189997631988 -0.5360705452562845 4.0711971736945456 0.55097016843765201 -0.37403807328753746 -0.29007542433836792 1.0134829862624586 0.92335559640679821 -0.47551390235388658 0.81210831575163722 -0.11779346361523205 -0.29007542433836792
decision_type=2 2 2 2 2 2 2 2 2 2 2 2 2 2 2 2 2 2 2 2 2 2 2 2 2 2 2 2 2 2
left_child=3 2 4 -1 6 10 11 8 27 19 -3 -2 -10 -13 15 26 -12 21 29 23 22 -18 -21 -5 -14 -26 -4 -6 -29 -9
right_child=1 5 14 9 7 -7 -8 18 12 -11 16 13 24 -15 -16 -17 17 -19 -20 20 -22 -23 -24 -25 25 -27 -28 28 -30 -31
leaf_value=0.0024432161912112988 -0.045416317451499835 -0.049576428195158576 0.042568014908661876 0.028068394465002977 -0.010896641529192078 -0.099715105393027303 0.041367205291301438 0.033673632907230786 -0.047788155862041097 0.039819758334907342 -0.040172676546030801 0.0051752375223733556 -0.024614993930476146 -0.085716368777607257 -0.0027105825488045916 0.035002337247093264 -0.017798204517779342 -0.034600450782810203 -0.0089597182742544423 -0.0050680066033641068 -0.14381129406860618 0.010999494431328506 0.031415107021873466 0.00029732309656581979 -0.13033866729933907 0.013550512772957594 -0.020992433161481805 -0.063395831585001519 0.023027238603422064 0.0021301042563680208
leaf_weight=531.86844885349274 59.7481934055686 244.49866539239883 31.085516728460789 2015.943478833884 2191.7120315134525 43.93442365527153 113.02883299440145 111.61693591624498 212.01435545086861 762.59288670495152 326.14173205196857 1208.8949612304568 673.63408154249191 15.264309622347353 250.48167075589299 360.57333259657025 610.08822090923786 300.86503775417805 1129.8386515825987 189.92244035005569 5.6888932660222045 161.27518709003925 126.23064332455397 137.85703891515732 6.1671719551086417 115.88573949038982 96.462059177458286 14.487982556223868 138.00749850273132 599.69608010351658
leaf_count=4808 302 1138 333 29324 12323 268 984 749 902 12258 1366 11102 3074 112 1825 3173 2572 1320 5269 1555 43 675 1078 1495 31 573 677 82 793 3705
internal_value=0.000537376 -0.00927361 -0.00470846 0.0239983 -0.00694183 -0.0291076 0.00494658 -0.0101398 -0.0141918 0.0275386 -0.0272194 0.00174029 -0.0257485 0.00404189 0.0152182 0.0244185 -0.0233104 -0.0181814 -0.00276298 0.0237555 0.00678872 -0.0117772 0.00949863 0.0262909 -0.0198759 0.00627998 -0.00550167 -0.00922395 0.0148165 0.00707981
internal_weight=12785.5 9015.4 7328.6 3770.1 6590 1686.8 1396.94 5193.06 3351.91 3238.24 1642.87 1283.91 1007.7 1224.16 738.603 488.121 1398.37 1072.23 1841.15 2475.64 321.842 771.363 316.153 2153.8 795.687 122.053 127.548 2344.21 152.495 711.313
internal_count=103909 53348 46009 50561 40001 7339 12500 27501 17778 45753 7071 11516 4580 11214 6008 4183 5933 4567 9723 33495 2676 3247 2633 30819 3678 604 1010 13198 875 4454
is_linear=0
shrinkage=0.1


Tree=20
num_leaves=31
num_cat=0
split_feature=1 2 0 0 20 2 1 0 4 1 5 0 10 5 11 21 0 0 0 8 8 19 0 10 21 13 3 18 15 13
split_gain=243.923 65.1895 26.8288 26.6402 21.5601 20.3652 15.8401 12.2268 11.7244 12.4214 14.6088 11.8244 11.7102 11.5391 11.2678 13.9405 11.6317 11.0632 10.6181 9.82383 9.73146 9.63655 9.60012 9.3544 9.36644 8.64245 8.45968 11.4197 9.67986 8.48047
threshold=-0.57032247255995949 1.0717328772484851 0.70847024734297681 -1.3189137705084599 -0.063364203369573671 5.8601482096090054 -0.57065223514043006 0.088595348734416893 1.0122316565536913 1.8125548983773052 0.54262952824428179 -1.5140895713935791 -0.26042462524185522 8.6622477004782379 -0.5989629116797236 -0.14162376940895269 1.2211194406743471 -0.33405315221569803 -0.98009366565189071 0.040326437028583378 0.03422656861950215 -0.46024290036633048 -1.4374031109191301 -0.02962627083420143 -0.07873261655429134 9.2596807821986022 4.221559178907035 3.5990808241391727 0.63019379861582125 1.1153351077255242
decision_type=2 2 2 2 2 2 2 2 2 2 2 2 2 2 2 2 2 2 2 2 2 2 2 2 2 2 2 2 2 2
left_child=2 3 6 8 12 7 18 -3 9 10 -2 21 17 26 15 -6 25 19 -1 -5 22 -11 23 -8 -25 -16 27 28 29 -9
right_child=1 5 -4 4 14 -7 20 13 -10 11 -12 -13 -14 -15 16 -17 -18 -19 -20 -21 -22 -23 -24 24 -26 -27 -28 -29 -30 -31
leaf_value=0.011630982799320363 -0.018295406397382138 -0.030104409198565205 0.03601495437012938 -0.0073547692426264985 -0.11280361918399705 -0.069217595619719879 -0.0086961185752913502 -0.0098556459762626 -0.090369078760829891 -0.018156672419172015 -0.065428459761302127 0.020415880930046117 0.017594914452730172 -0.14642713207292651 -0.0073623386790741627 0.021272515110046047 0.0092092385253145816 0.0093339558564215375 0.027785000644549269 -0.064886448134868061 -0.010679556617739974 -0.14613991101827917 0.016209310206689934 -0.037323346602973408 -0.27187800821474001 0.062737341934516258 0.053830346721469295 -0.052909312926592192 0.016419528733985066 -0.056260549710516333
leaf_weight=612.93603390455246 835.05190458148718 1010.8798226416111 964.26555701717734 381.73704636096954 21.094030812382698 104.01009933650494 87.215055771172047 302.50454089045525 22.385700255632401 31.732937663793564 71.381717965006828 139.77720010280609 697.32102710753679 6.286986216902732 3811.2234169617295 12.263280525803564 497.88377824425697 612.76834882050753 1210.4718747474253 32.182398624718189 241.78501446545124 7.2222076505422583 706.990149512887 4.4387799203395844 2.7617795690894118 17.669070400297642 19.903749763965607 62.036393016576767 126.36621715128422 45.275684028863907
leaf_count=6813 3995 4379 16230 2513 102 628 586 1253 99 136 308 639 6036 27 20259 66 3311 5348 19514 208 2493 32 7737 33 18 94 84 259 523 186
internal_value=0.000498894 -0.00860945 0.0215859 -0.00446909 -0.00187231 -0.0263623 0.0167323 -0.023529 -0.018734 -0.0172563 -0.0220071 0.00683736 0.00759455 -0.0117097 -0.00561554 -0.0635127 -0.00516918 0.00080235 0.0223549 -0.0118279 0.00690449 -0.0418845 0.0122096 -0.0177404 -0.127287 -0.00703885 -0.0101866 -0.012563 -0.00728412 -0.0158969
internal_weight=12699.8 8868.96 3830.86 7191.69 6084.14 1677.26 2866.6 1573.25 1107.55 1085.17 906.434 178.732 1724.01 562.374 4360.13 33.3573 4326.78 1026.69 1823.41 413.919 1043.19 38.9551 801.406 94.4156 7.20056 3828.89 556.087 536.183 474.146 347.78
internal_count=103909 50485 53424 43146 37937 7339 37194 6711 5209 5110 4303 807 14105 2332 23832 168 23664 8069 26327 2721 10867 168 8374 637 51 20353 2305 2221 1962 1439
is_linear=0
shrinkage=0.1


Tree=21
num_leaves=31
num_cat=0
split_feature=3 6 0 2 0 9 17 0 2 19 21 6 2 0 12 12 11 11 19 1 1 0 0 12 19 8 0 15 12 6
split_gain=202.901 57.9243 23.7108 23.6594 21.5195 16.3081 19.5863 13.2982 13.1333 14.0745 12.0592 12.1847 11.3007 10.6686 10.4517 10.2552 10.0491 9.26694 9.26513 9.05653 14.9825 9.44705 10.4004 9.48638 9.0286 9.46034 8.99293 8.60045 8.66062 9.9344
threshold=-0.22041134200749005 -0.049611981286319634 -0.1988807423420442 5.1760888764146458 -0.25795550595758948 -0.017230022814642542 2.3466244280418489 -1.4086918266686113 1.0000000180025095e-35 0.37939845669974537 0.48884606065471048 3.5571004022247132 -0.29638578914023483 0.18506420922353314 -0.13043147153197204 5.2911151227586926 2.9571234541665445 -0.61320837609715084 -1.5484083711224803 -0.35493016472518907 -0.5700907744565441 -0.47662235759313309 -0.80902409454919344 -0.42355566449170495 -0.93817943963557193 1.9862025076764378 -1.366815711133343 0.23616388747764883 -0.32868706946272241 2.5940515458945423
decision_type=2 2 2 2 2 2 2 2 2 2 2 2 2 2 2 2 2 2 2 2 2 2 2 2 2 2 2 2 2 2
left_child=4 2 5 10 16 6 8 18 15 -10 13 27 -4 -3 -6 19 26 -14 -7 20 -2 22 -21 -23 -17 -26 -1 28 -12 -30
right_child=1 3 12 -5 14 7 -8 -9 9 -11 11 -13 17 -15 -16 24 -18 -19 -20 21 -22 23 -24 -25 25 -27 -28 -29 29 -31
leaf_value=0.00095140468823295141 0.0044025004103413609 -0.025146421559971467 0.016659086518759306 -0.060905378985423989 0.030100073648073322 -0.096258607349803182 -0.091642164276280955 0.019108073107244623 -0.012305615726877391 -0.041525693225446858 0.05385418012505562 -0.040086651971168619 -0.13027621865334563 -0.010686880352719362 0.00036209399427705264 -0.10182363133787234 -0.053167106308046941 0.001845207086048203 -0.007992754450024335 0.004133676966491329 -0.018351875458979299 -0.084291700828572846 0.03698098485521225 -0.0075167284470329795 -0.13831535934980049 0.047567193120158446 0.01753197967431094 0.012865431738433922 -0.023340459177128042 0.045823442928704862
leaf_weight=432.57092446088791 494.58121448010206 1527.9226111397147 654.73413118347526 127.74174003303051 1705.8361045867205 16.289943262934685 29.126485377550125 341.00292926281691 726.7114145308733 213.20510031282902 18.518652945756912 84.591401979327202 5.3231612592935553 766.11937824636698 126.98313517868519 20.128390803933144 22.909154254943132 1956.5950482934713 44.052007935941219 440.70093827694654 697.41855249553919 18.219053588807583 123.3811207190156 137.97330782562494 3.6439164727926245 11.012823387980459 1341.8187818303704 282.25564809888601 227.2214492186904 22.856432899832726
leaf_count=3867 4218 6744 7681 775 28125 72 136 1906 3274 922 121 369 28 3589 1433 109 225 12509 205 2333 3916 110 756 867 20 69 16911 1369 1153 97
internal_value=0.000460897 -0.00759542 -0.00183432 -0.0187777 0.0204153 -0.00744825 -0.0100494 0.0114509 -0.00922617 -0.0189337 -0.0169407 -0.00475012 0.00528313 -0.0203175 0.0280397 -0.00453998 0.0126402 0.00148673 -0.031821 -0.00356115 -0.00891069 0.00529194 0.0113183 -0.0164721 -0.0583498 0.00135361 0.0134899 0.000676325 -0.0121326 -0.0170191
internal_weight=12621.4 8991.33 5934.1 3057.23 3630.12 3317.45 2916.1 401.345 2886.98 939.917 2929.49 635.444 2616.65 2294.04 1832.82 1947.06 1797.3 1961.92 60.342 1912.27 1192 720.274 564.082 156.192 34.7851 14.6567 1774.39 550.852 268.597 250.078
internal_count=103909 53348 39131 14217 50561 18913 16730 2183 16594 4196 13442 3109 20218 10333 29558 12398 21003 12537 277 12200 8134 4066 3089 977 198 89 20778 2740 1371 1250
is_linear=0
shrinkage=0.1


Tree=22
num_leaves=31
num_cat=0
split_feature=1 5 0 4 0 1 0 15 3 8 8 0 15 11 8 0 11 3 2 11 10 20 6 9 12 12 0 6 10 1
split_gain=167.372 47.8911 22.8981 19.5979 19.0435 14.0073 11.1755 10.6825 17.0329 15.2457 11.8269 11.1345 10.6666 10.5043 10.1058 9.98863 10.4581 13.0433 9.22291 10.6057 8.77356 10.7614 13.5584 10.2238 11.6446 8.98698 8.72245 10.3682 8.67131 12.9276
threshold=-0.57034075576754606 0.24778305830282524 1.0248919765869078 2.8857186539346338 -0.31501482588735191 -0.57065522693803505 0.57741953698370685 0.15929875091720716 -0.17793348183481017 -0.36208644504883875 -0.36460812101304213 -1.5140895713935791 0.28918419599982453 -0.52654016418226879 -0.32816322211561805 -0.94490249559766359 -0.51040194697210206 0.13761633659081177 -0.12537095584164487 -0.58063308428513427 -0.44409551491558508 0.14850552124217367 0.80013700959324319 0.15664113401682053 -0.13306961328252112 0.93034313110129097 1.1851724792379514 0.44135410233298328 1.1637085490385013 -0.57064325974761487
decision_type=2 2 2 2 2 2 2 2 2 2 2 2 2 2 2 2 2 2 2 2 2 2 2 2 2 2 2 2 2 2
left_child=2 4 5 13 7 -1 -5 8 9 10 -2 -10 -9 -3 18 20 17 -17 -6 -20 -15 22 23 25 -25 -22 27 -16 -7 -30
right_child=1 3 -4 6 14 28 -8 12 11 -11 -12 -13 -14 15 26 16 -18 -19 19 -21 21 -23 -24 24 -26 -27 -28 -29 29 -31
leaf_value=0.019905799060789778 -0.014620758502675892 0.055463500526681468 0.034684289901441581 -0.065158709015607427 0.017969900212152969 0.0082754662430042664 0.013402518171151302 0.074547752959264538 -0.051018463025972211 0.0047365364939311802 -0.19285123452855588 -0.016003596245074688 0.0025991412413781489 -0.05169844396899817 -0.0051981353590481328 -0.2854744653892034 -0.012358952589048608 -0.036977225301037114 -0.062834243636814169 0.0039324626945302487 -0.055830899655899408 -0.038097826172361154 0.030464518205301234 -0.047024547395773428 0.016291998811488313 0.027978432668527415 0.011577299592509411 -0.15528250861394727 -0.10352944668720819 -0.0055639438743362466
leaf_weight=1850.5992447696626 582.89164797216654 20.005647286772728 696.31913976371288 128.28401781618595 663.84016443789005 1048.0104138068855 21.083095774054527 21.534165620803833 98.387999847531319 951.70789828151464 3.7470610737800589 1180.1043527275324 477.76221648603678 122.86808747053146 1355.8675109148026 3.1056217700242978 1578.3483534306288 6.6035052984952927 24.62316757440567 704.35646729916334 91.098195940256119 238.55963709950447 65.748585775494576 41.553558483719826 96.502055093646049 14.885289892554281 371.71121407672763 4.6185925006866446 16.798121020197868 67.989831373095512
leaf_count=28216 3440 116 12644 709 5906 11435 96 100 418 5677 24 5535 2406 583 9075 20 7169 35 123 3837 391 1099 280 179 408 64 2984 20 206 714
internal_value=0.000425958 -0.00701243 0.0183559 -0.018979 -0.00250041 0.0145448 -0.0540698 -0.0077788 -0.0101684 -0.00307937 -0.0157592 -0.0186982 0.00570221 -0.0166794 0.0031008 -0.0173182 -0.0129954 -0.116463 0.00944258 0.00167724 -0.0275458 -0.0221339 -0.00984046 -0.0206994 -0.00276574 -0.04406 -0.00199848 -0.00570764 0.00578689 -0.0249728
internal_weight=12549.5 8869.8 3679.72 2428.65 6441.15 2983.4 149.367 3316.14 2816.84 1538.35 586.639 1278.49 499.296 2279.28 3125.02 2259.27 1588.06 9.70913 1392.82 728.98 671.215 548.347 309.788 244.039 138.056 105.983 1732.2 1360.49 1132.8 84.788
internal_count=103909 50694 53215 11149 39545 40571 805 17600 15094 9141 3464 5953 2506 10344 21945 10228 7224 55 9866 3960 3004 2421 1322 1042 587 455 12079 9095 12355 920
is_linear=0
shrinkage=0.1


Tree=23
num_leaves=31
num_cat=0
split_feature=3 2 18 0 0 0 8 2 1 17 15 11 1 5 8 12 0 1 1 14 0 20 12 1 1 4 19 19 12 1
split_gain=140.354 40.6016 21.489 17.7295 16.1202 13.2378 11.3191 10.693 11.1656 10.621 11.732 10.4919 10.3412 11.3645 13.8039 11.9039 10.6273 11.2801 12.1087 9.79056 9.55533 9.31834 9.08534 8.71844 8.35188 12.5709 14.6101 8.32893 8.71587 8.32296
threshold=-0.22041134200749005 1.0000000180025095e-35 3.9301740655913986 -1.3266386614959733 1.5195017771609376 -0.94490249559766359 3.5280277136081182 3.2949257101301552 0.23044960859147159 1.9845247489792046 0.7042158567955944 -0.6053385039718695 0.36090993495843909 -0.22850739314106586 -0.50985619636166601 5.2911151227586926 -0.45800293889133759 -0.43220713338746958 -0.5700907744565441 1.9013711090802303 1.1969282575970304 0.7678170239534351 0.29534799712410947 2.6461125935839678 -0.035710845225798669 -0.14492207712277297 -1.3741701953632857 -0.46024290036633048 1.3389540719706552 -0.55091900298125751
decision_type=2 2 2 2 2 2 2 2 2 2 2 2 2 2 2 2 2 2 2 2 2 2 2 2 2 2 2 2 2 2
left_child=3 4 5 -1 9 7 20 8 -3 10 12 -7 13 15 -15 -2 17 18 27 24 23 -4 -22 -5 -18 -26 -27 28 -16 -12
right_child=1 2 21 6 -6 11 -8 -9 -10 -11 29 -13 -14 14 16 -17 19 -19 -20 -21 22 -23 -24 -25 25 26 -28 -29 -30 -31
leaf_value=0.00032576135478775271 0.0022319006743781473 -0.03487444644226248 -0.024650397512670383 0.018912386947347131 0.022983403458032851 -0.10089168567517054 -0.01930560557694044 -0.054115263776720449 -0.011914524988244437 -0.033351273287142644 0.032693329204881327 -0.0073251264746561967 0.0085734342353097018 0.028360225769150933 -0.044234916596307412 -0.062835968957374158 -0.00036166718404492636 -0.0015104600802126615 -0.044483687738818778 -0.10611546304085712 0.037099848211817457 -0.063862208393883346 -0.039514427520765706 -0.22456887188562594 -0.134949187985964 -0.11978293433470318 0.031088980228160246 0.0079371067866622191 0.087093569172721153 0.0041061459347096155
leaf_weight=522.53731209039688 1527.9033313952386 278.93016828596592 140.02496294677258 2460.8716716356575 298.10237330198288 12.032308608293532 70.503354109823704 85.349556282162666 880.16865120828152 99.602295204997063 168.34577275067568 3006.3383575007319 722.0945295765996 81.68897844851017 74.500127084553242 28.643190905451775 588.79972011595964 173.49839069694281 279.18728192150593 9.4287670329213125 445.90266175940633 106.85086266696453 16.034854013472795 1.4715237542986859 11.611753486096857 9.0671947598457319 21.972884215414528 100.39567159116268 5.4212398305535308 257.81198535859585
leaf_count=4808 11500 1205 647 36354 3008 50 1037 470 3782 507 1483 13977 4723 667 544 189 4994 817 1428 66 8150 637 199 13 80 49 128 850 38 1509
internal_value=0.000392724 -0.00624745 -0.0129375 0.0173225 0.000520065 -0.0112763 0.0202882 -0.0199551 -0.0174397 -0.00108965 -0.000298263 -0.00769812 -0.00213896 -0.00479523 -0.0114893 0.00103454 -0.0140447 -0.023235 -0.0314377 -0.00496733 0.0212428 -0.0416217 0.0344404 0.0187669 -0.003457 -0.0461874 -0.0129826 -0.0112385 -0.0353266 0.015399
internal_weight=12485.1 8967.77 4509.69 3517.32 4458.08 4262.82 2994.78 1244.45 1159.1 4159.97 4060.37 3018.37 3634.21 2912.12 1355.57 1556.55 1273.88 633.003 459.504 640.88 2924.28 246.876 461.938 2462.34 631.452 42.6518 31.0401 180.317 79.9214 426.158
internal_count=103909 53348 20768 50561 32580 19484 45753 5457 4987 29572 29065 14027 26073 21350 9661 11689 8994 3677 2860 5317 44716 1284 8349 36367 5251 257 177 1432 582 2992
is_linear=0
shrinkage=0.1


Tree=24
num_leaves=31
num_cat=0
split_feature=1 4 0 2 0 15 16 0 13 13 9 11 13 11 10 1 8 19 0 1 1 21 0 2 1 4 0 11 17 10
split_gain=117.92 38.7553 21.81 16.6714 16.2423 14.9144 12.1933 12.0868 11.0169 10.7685 12.4358 10.5944 10.3362 9.93245 9.39477 9.36253 9.334 9.27402 8.29127 8.13416 13.3023 8.08994 8.05713 7.64982 7.82383 7.53233 7.40308 12.2033 7.29296 10.1322
threshold=-0.57060336911288057 -0.078799006626975046 -1.3579366271048439 4.149999876623105 -0.35011518379876033 1.1219433496437758 7.1354978892418073 0.6583155796913972 0.45944070794034925 4.5759095702953436 1.1138712397548483 1.0848907879544862 9.2596807821986022 3.2922405254326734 -0.42789544725759382 -0.035710845225798669 1.0800042806520815 -0.26497106477941007 -0.43991374592664506 0.17995338376907757 -0.54283882249385795 -0.13312330262497749 -1.5718519530741961 1.7557922104428452 2.6702241553271917 -0.089819518376274707 -0.40101392513666068 2.9571234541665445 0.65647985700770839 -0.31175990406880444
decision_type=2 2 2 2 2 2 2 2 2 2 2 2 2 2 2 2 2 2 2 2 2 2 2 2 2 2 2 2 2 2
left_child=4 7 3 11 16 6 12 8 13 19 -11 15 23 -2 26 -3 22 -15 -18 20 -9 -13 -1 24 -4 -21 -7 -28 -22 -30
right_child=1 2 5 -5 -6 14 -8 9 -10 10 -12 21 -14 17 -16 -17 18 -19 -20 25 28 -23 -24 -25 -26 -27 27 -29 29 -31
leaf_value=-0.064639191403743426 -0.002239670479882275 -0.037422235365646227 -0.008813185990164096 -0.086229939055463806 0.024910817845820821 0.0018644202419881078 -0.081068144984765778 0.020391005096462925 0.017429642594886292 -0.19233069010126122 0.058476237367817797 0.071672853690949154 0.071170749628350918 -0.069187051886303211 -0.0068584900718021095 -0.0079050786833147323 -0.0077292609828554185 0.021090232452815084 -0.10491259424500506 0.030117272529219415 -0.00097593313332561087 -0.054808089573383248 0.013680403014730398 -0.019443486437647321 0.033136862466973789 -0.021870379142295282 0.049168215647505807 -0.059371358999520542 -0.023297061083405016 -0.14939555123846576
leaf_weight=13.280965574085711 3273.3839287832379 156.95489256083965 2898.2544461861253 45.908752411603928 1560.4008090943098 89.729579299688339 24.391488030552864 345.32532181963325 287.88930264860392 5.435177978128193 3.1070889756083488 5.2759866565465918 15.571009829640387 41.332196943461895 184.92477649450302 340.76360501348972 135.79295039176941 15.702156051993368 9.3856153264641744 286.17185364663601 351.30505293607712 121.84985291957855 1197.4386498779058 756.59147799760103 45.15108534693718 30.876475818455219 115.22997729480267 11.381752818822859 48.127077728509903 7.3445667773485175
leaf_count=121 22352 700 14161 329 28669 416 150 4346 1903 46 26 23 73 239 989 1473 1665 103 139 2301 2947 557 15417 3381 190 189 587 53 313 51
internal_value=0.000363285 -0.0050322 -0.0113392 -0.0280674 0.0179541 -0.00862975 -0.0105955 0.00143058 -0.00133819 0.0107266 -0.101104 -0.0237941 -0.0101328 -0.00296053 0.00969155 -0.0172133 0.00994818 -0.0443328 -0.014012 0.0116201 0.00595692 -0.0495589 0.0128213 -0.010475 -0.00816968 0.0250543 0.0238382 0.0394111 -0.00629661 -0.0399928
internal_weight=12424.3 9507.98 4811.98 670.753 2916.3 4141.23 3739.96 4696 3618.31 1077.69 8.54227 624.844 3715.57 3330.42 401.266 497.718 1355.9 57.0344 145.179 1069.15 752.102 127.126 1210.72 3700 2943.41 317.048 216.341 126.612 406.777 55.4716
internal_count=103909 57898 23082 3082 46011 20000 17955 34816 24597 10219 72 2753 17805 22694 2045 2173 17342 342 1804 10147 7657 580 15538 17732 14351 2490 1056 640 3311 364
is_linear=0
shrinkage=0.1


Tree=25
num_leaves=31
num_cat=0
split_feature=2 5 0 17 2 0 13 0 1 15 14 20 0 14 0 4 1 1 18 5 11 0 16 10 19 8 19 0 16 1
split_gain=98.3103 27.3195 21.3191 15.3988 14.146 10.9813 10.7808 12.3543 13.1738 9.7802 10.4156 10.1809 9.63109 9.32699 10.0059 11.8288 8.7772 8.6383 8.68446 8.63365 8.51187 8.45854 7.96985 7.93837 8.5797 7.72228 14.7458 10.9934 9.08994 9.08385
threshold=-0.29638578914023483 0.24778305830282524 1.0345092754538046 -0.20875639300287588 7.7413113758934955 0.64000375050560088 0.74035056513935593 1.0153654898628302 -0.57034075576754606 0.55097016843765201 1.6195313586284563 3.6199094706500339 -1.366815711133343 1.8889141739596325 -1.5223153938785763 -0.089819518376274707 0.75061583982245472 0.088866775994697958 3.43353420341306 -0.092424407014239846 -0.52942910887439187 -1.3266386614959733 7.1354978892418073 -0.37130040888714894 -0.78531802184517463 -0.24542637139683979 0.00993459452415873 0.44944179236046372 0.42699909691265814 -0.2268144104147333
decision_type=2 2 2 2 2 2 2 2 2 2 2 2 2 2 2 2 2 2 2 2 2 2 2 2 2 2 2 2 2 2
left_child=2 5 3 12 9 -2 7 13 -9 10 11 22 20 14 15 -5 -12 -7 -19 -10 -1 -11 25 -22 -25 29 27 28 -27 -3
right_child=1 4 -4 6 -6 17 -8 8 19 21 16 -13 -14 -15 -16 -17 -18 18 -20 -21 23 -23 -24 24 -26 26 -28 -29 -30 -31
leaf_value=0.019093059011390395 -0.0049824445371287815 -0.047262715117631277 0.027457341992104659 -0.017318331954132623 -0.084080398492220876 -0.0033524865184800523 0.032655476897055828 0.023028918205800813 -0.34461866913607686 -0.030862575634674812 -0.055920437286388819 -0.13117991716054841 0.015579434203471521 -0.072030807702977359 0.00030213018247585057 -0.13405920492588974 0.026666092284208676 0.013889083766274497 -0.13749969689518357 -0.077039884027639075 -0.12251136782981892 -0.00069711068507327103 -0.097141938581069245 0.061300161063780334 -0.012370886749495371 0.069647309172255908 -0.12969271493368792 0.035988469656951121 -0.018974180025851606 -0.019923999730109325
leaf_weight=146.12434503436089 4291.7307995632291 137.14223175495863 761.59732257574797 32.562438115477562 29.634927973151207 591.9700085259974 83.678546346724033 3.4996977634727955 2.8312289640307426 108.89213318377733 15.378809601068495 8.3556170314550382 2272.9587668590248 19.554286636412144 822.85131067037582 11.833846285939215 78.84660329669714 695.22385094314814 3.8100351095199576 2.1004389002919179 6.1896356195211402 635.15192902088165 13.436446227133272 16.794586531817913 269.11376030743122 12.518292531371115 8.9055817648768407 65.89742574095726 153.43138850480318 1068.201820448041
leaf_count=1384 23342 639 13952 164 237 4594 711 48 28 509 71 44 34367 131 7294 49 351 4565 16 21 36 2854 79 108 2454 56 41 294 683 4787
internal_value=0.000334928 -0.0063493 0.0122246 0.00908074 -0.01543 -0.00254996 -0.00166983 -0.00487826 -0.125355 -0.0145478 -0.0190422 -0.0211111 0.0129624 -0.00373281 -0.00219286 -0.0484357 0.0131869 0.00553645 0.0130639 -0.230655 -0.000611573 -0.00511188 -0.0204809 -0.010469 -0.00804336 -0.0197686 -0.00341766 0.00143275 -0.0122891 -0.0230346
internal_weight=12370.2 7918.53 4451.69 3690.09 2335.79 5582.73 978.912 895.233 8.43137 2306.16 1562.11 1467.89 2711.18 886.802 867.248 44.3963 94.2254 1291 699.034 4.93167 438.222 744.044 1459.53 292.098 285.908 1446.1 240.753 231.847 165.95 1205.34
internal_count=103909 43162 60747 46795 10645 32517 8446 7735 97 10408 7045 6623 38349 7638 7507 213 422 9175 4581 49 3982 3363 6579 2598 2562 6500 1074 1033 739 5426
is_linear=0
shrinkage=0.1


Tree=26
num_leaves=31
num_cat=0
split_feature=3 2 20 2 0 15 12 0 8 0 1 16 1 20 8 1 1 4 15 18 0 12 0 1 6 6 21 0 6 7
split_gain=82.3917 26.3726 12.4169 12.0562 12.0236 10.5552 10.4161 9.84971 9.65796 9.28727 9.26983 9.42032 17.7059 12.7036 9.14915 9.00989 8.28045 8.2366 8.04448 8.43974 7.71521 7.71215 7.45687 7.20121 6.84786 7.84272 6.72775 9.27206 11.2955 8.09388
threshold=-0.22041134200749005 1.9268070437414353 -0.030768861121612551 7.7413113758934955 -1.3266386614959733 0.6855264100760593 -0.42663071032829258 -0.1988807423420442 -0.49348485543544085 -1.5223153938785763 2.6702241553271917 0.16562901409463932 1.0000000180025095e-35 1.1263657886810077 3.5280277136081182 0.60154470403115257 -0.54743306013840909 1.8497905495004654 0.27334180406270542 0.78478827179525279 -0.6549012410660503 -0.29007542433836792 1.0153654898628302 2.5016930382246474 0.49800403505828744 0.25252099324863603 0.56050435192588399 -1.4086918266686113 -0.16291184673692796 1.2893829103138075
decision_type=2 2 2 2 2 2 2 2 2 2 2 2 2 2 2 2 2 2 2 2 2 2 2 2 2 2 2 2 2 2
left_child=4 2 5 8 -1 7 -4 23 -3 -8 11 16 18 -14 21 20 -11 24 19 -13 -10 22 -6 -2 25 -15 27 28 -7 -29
right_child=1 3 6 -5 14 26 9 -9 15 10 -12 12 13 17 -16 -17 -18 -19 -20 -21 -22 -23 -24 -25 -26 -27 -28 29 -30 -31
leaf_value=-0.00041429111242243048 -0.0062087521245101406 -0.11925596507046515 -0.034513206716207966 -0.080934043398350447 0.015883278944924518 -0.15510157477113737 -0.033821219451146432 0.005075397719513452 -0.12351084504412142 0.028722216487567117 0.02790745999091648 -0.018741268185332404 -0.0067810517459039295 0.071646015756759759 -0.019509049252510669 -0.016020872928932284 -0.0014560583129902222 -0.026778239323121712 -0.0098803991736580617 -0.053260531383714817 -0.0048689138265060293 0.0017824197953116518 0.028956622692566016 0.035361394747976463 0.14291973049403847 -0.062541770609271782 0.039425526604049993 0.017529233856979319 -0.0039170126636165004 -0.071289954140767692
leaf_weight=519.30761604011059 2004.7860867753625 9.4906703978776914 132.1337556168437 32.605366572737694 1938.3364686109126 7.2751124352216747 116.05069075524807 1628.9113109186292 14.607926741242411 97.884235348552465 83.208199605345726 129.07349472492933 1789.6875090077519 20.697287991642956 70.299450933933258 803.60959339141846 1278.1389977186918 11.788618221879004 163.58358062803745 156.95749871432781 8.7728768140077573 297.0208582803607 563.02988966554403 42.556408882141113 9.3930551707744581 5.5163904130458823 96.478721335530281 265.76739225536585 15.408589690923689 10.67188438028097
leaf_count=4808 12455 42 634 268 30324 42 504 14515 75 817 354 618 7879 90 1037 3759 6527 50 785 714 37 3211 11181 241 39 23 659 2086 75 60
internal_value=0.000308371 -0.0047267 -0.00294337 -0.0212777 0.0135872 0.000942542 -0.00690492 -0.000727641 -0.0189524 -0.00596033 -0.00509718 -0.00584697 -0.00978102 -0.0054278 0.0161218 -0.0178013 0.000690691 0.0456722 -0.0275679 -0.0376835 -0.0789944 0.0170169 0.0188259 -0.00534467 0.0696589 0.0434076 0.0164632 0.00905702 -0.0524049 0.0141004
internal_weight=12323 8935.06 8065.97 869.086 3387.99 4071.86 3994.11 3676.25 836.481 3861.98 3745.93 3662.72 2286.7 1837.08 2868.69 826.99 1376.02 47.3954 449.615 286.031 23.3808 2798.39 2501.37 2047.34 35.6067 26.2137 395.602 299.123 22.6837 276.439
internal_count=103909 53348 49167 4181 50561 30133 19034 27211 3913 18400 17896 17542 10198 8081 45753 3871 7344 202 2117 1332 112 44716 41505 12696 152 113 2922 2263 117 2146
is_linear=0
shrinkage=0.1


Tree=27
num_leaves=31
num_cat=0
split_feature=1 2 2 0 1 12 0 1 1 20 9 10 3 20 0 18 11 10 5 10 18 6 4 13 4 0 8 13 13 0
split_gain=68.4105 24.5843 13.266 11.2318 10.2124 13.7323 13.5293 12.2241 9.50072 11.7253 9.0195 9.08287 8.88605 8.37504 8.23982 8.86041 8.02413 10.2164 8.01131 11.5834 8.10777 8.64978 8.04423 7.99722 7.91161 7.81534 9.25853 9.38859 9.89352 8.95168
threshold=-0.57060336911288057 0.55868837735271526 7.7413113758934955 -0.35011518379876033 0.60154470403115257 -0.26654448040410256 -0.28733176944745781 -0.54283882249385795 1.6022390062344374 0.21369620573809592 1.2804195767447599 -0.44409551491558508 -0.18400174757376445 -0.079661874493554233 -0.27788437717035125 -0.2084914525614246 2.9571234541665445 7.8141518154249443 0.33850504905404266 -0.35846658667236159 0.45369503034302699 0.15810443870646237 0.0093650873674222049 5.7505309515707257 0.26283685760131442 1.4941388244988636 -0.53152241738181127 0.67454720800741186 0.65401348729431796 1.2594304472479907
decision_type=2 2 2 2 2 2 2 2 2 2 2 2 2 2 2 2 2 2 2 2 2 2 2 2 2 2 2 2 2 2
left_child=3 4 8 16 7 6 13 25 9 12 -7 -12 -3 -6 -11 -16 -1 -18 -10 20 -20 22 -22 -14 -8 26 -2 28 -28 -29
right_child=1 2 -4 -5 5 10 24 -9 18 14 11 -13 23 -15 15 -17 17 -19 19 -21 21 -23 -24 -25 -26 -27 27 29 -30 -31
leaf_value=0.0081597466361260085 0.0428099441513662 -0.074455001045777972 -0.077403203027430131 0.020003971487108755 -0.17207983945104327 -0.00052653860839655775 0.038258586306474864 -0.0068332630399486191 0.0024279689579821823 -0.050899385053115177 -0.056235789074099374 0.039843865032680947 -0.010381916354748548 0.007067669746257766 0.11073815407274512 -0.022363302354680918 -0.13992299154634036 0.024795434765171643 0.057278014356092137 -0.12908492628265369 0.03235919143209455 -0.0092708795323099263 -0.050839809646237258 0.11502921465353549 0.12985456959937244 0.027100865657439962 -0.0015931049490965018 0.028593799975331721 -0.17287890860986277 -0.16040022241203467
leaf_weight=1308.6277150548995 52.904617257416248 21.698118016123772 30.779379576444626 1477.6593577601016 2.6478556320071212 1462.1010333970189 159.90254759788513 3157.3966678678989 591.29567269980907 165.17405860871077 10.987756595015524 94.1282924041152 557.56374856829643 180.3738889247179 5.2232255637645713 117.74328789114952 8.2734316885471326 6.91058176010847 17.032719254493713 8.3954328894615156 13.374602034687994 938.067422747612 88.639948949217796 5.1315153092145911 10.020977169275282 129.61915887147188 1510.2540393285453 136.95550319552422 3.379706196486949 2.5528716407716265
leaf_count=17178 491 93 268 28669 16 8582 1243 18396 2551 777 51 467 2372 1043 22 491 85 79 71 36 57 4233 377 22 52 1744 13178 1211 25 29
internal_value=0.000282625 -0.00377709 -0.0121483 0.0140108 -0.000677049 0.00552077 0.023341 -0.00306052 -0.0113542 -0.0197996 0.00150756 0.0298007 -0.0116597 0.00447586 -0.0363086 -0.0167096 0.00732112 -0.064956 -0.00690656 -0.0120867 -0.0111575 -0.0122782 -0.039932 -0.00923823 0.0436603 0.00342871 0.00163018 0.000312329 -0.00197556 0.0251354
internal_weight=12274.8 9473.34 2560.12 2801.47 6913.22 1920.16 352.945 4993.06 2529.34 872.534 1567.22 105.116 584.393 183.022 288.141 122.967 1323.81 15.184 1656.81 1065.51 1057.11 1040.08 102.015 562.695 169.924 1835.67 1706.05 1653.14 1513.63 139.508
internal_count=103909 57898 11370 46011 46528 11454 2354 35074 11102 3777 9100 518 2487 1059 1290 513 17342 164 7325 4774 4738 4667 434 2394 1295 16678 14934 14443 13203 1240
is_linear=0
shrinkage=0.1


Tree=28
num_leaves=31
num_cat=0
split_feature=3 16 11 0 17 19 15 6 0 0 12 5 4 20 9 4 11 11 20 14 2 1 0 20 13 1 5 3 12 4
split_gain=57.144 19.4845 11.9695 11.8156 10.0524 9.83289 9.69713 10.8723 9.40251 7.83638 11.0068 10.1366 7.34311 15.4866 11.3265 12.3983 9.95388 8.47349 7.93086 8.90317 7.51538 10.2491 10.7746 8.91589 8.77709 9.02098 11.4463 12.1955 8.47214 8.18655
