{"learner":{"attributes":{"scikit_learn":"{\"_estimator_type\": \"classifier\"}"},"feature_names":[],"feature_types":[],"gradient_booster":{"model":{"cats":{"enc":[],"feature_segments":[],"sorted_idx":[]},"gbtree_model_param":{"num_parallel_tree":"1","num_trees":"250"},"iteration_indptr":[0,1,2,3,4,5,6,7,8,9,10,11,12,13,14,15,16,17,18,19,20,21,22,23,24,25,26,27,28,29,30,31,32,33,34,35,36,37,38,39,40,41,42,43,44,45,46,47,48,49,50,51,52,53,54,55,56,57,58,59,60,61,62,63,64,65,66,67,68,69,70,71,72,73,74,75,76,77,78,79,80,81,82,83,84,85,86,87,88,89,90,91,92,93,94,95,96,97,98,99,100,101,102,103,104,105,106,107,108,109,110,111,112,113,114,115,116,117,118,119,120,121,122,123,124,125,126,127,128,129,130,131,132,133,134,135,136,137,138,139,140,141,142,143,144,145,146,147,148,149,150,151,152,153,154,155,156,157,158,159,160,161,162,163,164,165,166,167,168,169,170,171,172,173,174,175,176,177,178,179,180,181,182,183,184,185,186,187,188,189,190,191,192,193,194,195,196,197,198,199,200,201,202,203,204,205,206,207,208,209,210,211,212,213,214,215,216,217,218,219,220,221,222,223,224,225,226,227,228,229,230,231,232,233,234,235,236,237,238,239,240,241,242,243,244,245,246,247,248,249,250],"tree_info":[0,0,0,0,0,0,0,0,0,0,0,0,0,0,0,0,0,0,0,0,0,0,0,0,0,0,0,0,0,0,0,0,0,0,0,0,0,0,0,0,0,0,0,0,0,0,0,0,0,0,0,0,0,0,0,0,0,0,0,0,0,0,0,0,0,0,0,0,0,0,0,0,0,0,0,0,0,0,0,0,0,0,0,0,0,0,0,0,0,0,0,0,0,0,0,0,0,0,0,0,0,0,0,0,0,0,0,0,0,0,0,0,0,0,0,0,0,0,0,0,0,0,0,0,0,0,0,0,0,0,0,0,0,0,0,0,0,0,0,0,0,0,0,0,0,0,0,0,0,0,0,0,0,0,0,0,0,0,0,0,0,0,0,0,0,0,0,0,0,0,0,0,0,0,0,0,0,0,0,0,0,0,0,0,0,0,0,0,0,0,0,0,0,0,0,0,0,0,0,0,0,0,0,0,0,0,0,0,0,0,0,0,0,0,0,0,0,0,0,0,0,0,0,0,0,0,0,0,0,0,0,0,0,0,0,0,0,0,0,0,0,0,0,0,0,0,0,0,0,0],"trees":[{"base_weights":[1.3521862E-1,5.926934E-1,-1.5107846E0,8.824659E-1,6.547954E-2,-9.9806345E-1,-2.346556E0,3.1097688E-2,5.6659356E-2,-3.418226E-2,1.5915688E-2,-1.014822E-1,-4.356919E-2,-1.1014526E-1,-1.6305818E-1],"categories":[],"categories_nodes":[],"categories_segments":[],"categories_sizes":[],"default_left":[0,0,0,0,0,0,0,0,0,0,0,0,0,0,0],"id":0,"left_children":[1,3,5,7,9,11,13,-1,-1,-1,-1,-1,-1,-1,-1],"loss_changes":[1.0427791E4,1.6529739E3,1.2405259E3,1.4616943E2,4.9322446E2,3.316443E2,1.0979883E2,0E0,0E0,0E0,0E0,0E0,0E0,0E0,0E0],"parents":[2147483647,0,0,1,1,2,2,3,3,4,4,5,5,6,6],"right_children":[2,4,6,8,10,12,14,-1,-1,-1,-1,-1,-1,-1,-1],"split_conditions":[1.5E0,3.4407436E-4,4.5E0,-7.0629036E-1,-5.608213E-1,-5.8315706E-1,7.5E0,3.1097688E-2,5.6659356E-2,-3.418226E-2,1.5915688E-2,-1.014822E-1,-4.356919E-2,-1.1014526E-1,-1.6305818E-1],"split_indices":[2,1,2,0,0,0,2,0,0,0,0,0,0,0,0],"split_type":[0,0,0,0,0,0,0,0,0,0,0,0,0,0,0],"sum_hessian":[1.3805674E4,1.0813638E4,2.9920354E3,6.9682856E3,3.8453523E3,1.8823494E3,1.109686E3,1.0413365E3,5.926949E3,9.100174E2,2.9353347E3,4.9982654E2,1.3825228E3,5.181186E2,5.9156744E2],"tree_param":{"num_deleted":"0","num_feature":"22","num_nodes":"15","size_leaf_vector":"1"}},{"base_weights":[1.2178932E-1,5.667973E-1,-1.3787788E0,7.92088E-1,-8.015702E-3,-9.295816E-1,-2.089478E0,5.3791694E-2,2.8418962E-2,-3.442179E-2,8.947031E-3,-9.409357E-2,-4.1496187E-2,-1.4754999E-1,-1.0067073E-1],"categories":[],"categories_nodes":[],"categories_segments":[],"categories_sizes":[],"default_left":[0,0,0,0,0,0,0,0,0,0,0,0,0,0,0],"id":1,"left_children":[1,3,5,7,9,11,13,-1,-1,-1,-1,-1,-1,-1,-1],"loss_changes":[9.22798E3,1.3808547E3,9.6728955E2,2.4479004E2,2.7048694E2,2.760288E2,9.706494E1,0E0,0E0,0E0,0E0,0E0,0E0,0E0,0E0],"parents":[2147483647,0,0,1,1,2,2,3,3,4,4,5,5,6,6],"right_children":[2,4,6,8,10,12,14,-1,-1,-1,-1,-1,-1,-1,-1],"split_conditions":[1.5E0,5E-1,4.5E0,0E0,-5.8846146E-1,-5.9864205E-1,-4.0051842E-1,5.3791694E-2,2.8418962E-2,-3.442179E-2,8.947031E-3,-9.409357E-2,-4.1496187E-2,-1.4754999E-1,-1.0067073E-1],"split_indices":[2,2,2,3,0,0,0,0,0,0,0,0,0,0,0],"split_type":[0,0,0,0,0,0,0,0,0,0,0,0,0,0,0],"sum_hessian":[1.3777018E4,1.0635938E4,3.1410786E3,7.6369233E3,2.9990151E3,1.9537675E3,1.1873113E3,5.7210933E3,1.9158303E3,6.41815E2,2.3572002E3,4.9890268E2,1.4548647E3,5.7183307E2,6.154782E2],"tree_param":{"num_deleted":"0","num_feature":"22","num_nodes":"15","size_leaf_vector":"1"}},{"base_weights":[1.17385864E-1,6.314942E-1,-1.0292556E0,8.337242E-1,1.9154881E-1,-5.179256E-1,-1.6642379E0,3.1402837E-2,5.396942E-2,-2.2777338E-2,2.1535955E-2,-5.209942E-2,-9.654408E-3,-8.0922306E-2,-1.2970245E-1],"categories":[],"categories_nodes":[],"categories_segments":[],"categories_sizes":[],"default_left":[0,0,0,0,0,0,0,0,0,0,0,0,0,0,0],"id":2,"left_children":[1,3,5,7,9,11,13,-1,-1,-1,-1,-1,-1,-1,-1],"loss_changes":[8.0755146E3,8.3712695E2,1.3575996E3,1.2123535E2,2.900452E2,2.938109E2,2.3357715E2,0E0,0E0,0E0,0E0,0E0,0E0,0E0,0E0],"parents":[2147483647,0,0,1,1,2,2,3,3,4,4,5,5,6,6],"right_children":[2,4,6,8,10,12,14,-1,-1,-1,-1,-1,-1,-1,-1],"split_conditions":[1E0,1.3674416E-4,3E0,-6.0419416E-1,-5.8315706E-1,-1.6736953E-1,7.5E0,3.1402837E-2,5.396942E-2,-2.2777338E-2,2.1535955E-2,-5.209942E-2,-9.654408E-3,-8.0922306E-2,-1.2970245E-1],"split_indices":[2,1,2,0,0,0,2,0,0,0,0,0,0,0,0],"split_type":[0,0,0,0,0,0,0,0,0,0,0,0,0,0,0],"sum_hessian":[1.3657592E4,9.436499E3,4.221093E3,6.450993E3,2.985506E3,2.3591975E3,1.8618953E3,1.1620005E3,5.2889927E3,6.695244E2,2.315982E3,1.1747697E3,1.184428E3,1.185925E3,6.7597015E2],"tree_param":{"num_deleted":"0","num_feature":"22","num_nodes":"15","size_leaf_vector":"1"}},{"base_weights":[1.1372502E-1,6.042665E-1,-9.3230504E-1,8.1635255E-1,1.9495422E-1,-5.260114E-1,-1.5616512E0,3.0812686E-2,5.273611E-2,-2.177603E-2,2.1543527E-2,-5.01668E-2,-1.2368079E-2,-1.0732968E-1,-6.421606E-2],"categories":[],"categories_nodes":[],"categories_segments":[],"categories_sizes":[],"default_left":[0,0,0,0,0,0,0,0,0,0,0,0,0,0,0],"id":3,"left_children":[1,3,5,7,9,11,13,-1,-1,-1,-1,-1,-1,-1,-1],"loss_changes":[6.9989473E3,8.0172266E2,1.0950239E3,1.0531592E2,2.9524548E2,2.6110724E2,1.4832666E2,0E0,0E0,0E0,0E0,0E0,0E0,0E0,0E0],"parents":[2147483647,0,0,1,1,2,2,3,3,4,4,5,5,6,6],"right_children":[2,4,6,8,10,12,14,-1,-1,-1,-1,-1,-1,-1,-1],"split_conditions":[1E0,-3.3079064E-5,3.5E0,-6.091553E-1,-5.8846146E-1,-1.7327547E-1,4.7764257E-2,3.0812686E-2,5.273611E-2,-2.177603E-2,2.1543527E-2,-5.01668E-2,-1.2368079E-2,-1.0732968E-1,-6.421606E-2],"split_indices":[2,1,2,0,0,0,0,0,0,0,0,0,0,0,0],"split_type":[0,0,0,0,0,0,0,0,0,0,0,0,0,0,0],"sum_hessian":[1.3598632E4,9.263749E3,4.334883E3,6.08728E3,3.1764688E3,2.6575352E3,1.6773477E3,1.0768784E3,5.0104014E3,7.150994E2,2.4613694E3,1.3314084E3,1.3261267E3,1.1095413E3,5.6780646E2],"tree_param":{"num_deleted":"0","num_feature":"22","num_nodes":"15","size_leaf_vector":"1"}},{"base_weights":[1.09183766E-1,5.8333015E-1,-8.590188E-1,8.15132E-1,2.2521824E-1,-3.751674E-1,-1.286976E0,3.0599574E-2,5.203564E-2,-1.3345052E-2,2.3713218E-2,-4.02794E-2,-4.7924793E-3,-6.087711E-2,-1.0647265E-1],"categories":[],"categories_nodes":[],"categories_segments":[],"categories_sizes":[],"default_left":[0,0,0,0,0,0,0,0,0,0,0,0,0,0,0],"id":4,"left_children":[1,3,5,7,9,11,13,-1,-1,-1,-1,-1,-1,-1,-1],"loss_changes":[6.227467E3,7.510513E2,9.121616E2,7.754175E1,2.7640637E2,1.8379755E2,2.7422925E2,0E0,0E0,0E0,0E0,0E0,0E0,0E0,0E0],"parents":[2147483647,0,0,1,1,2,2,3,3,4,4,5,5,6,6],"right_children":[2,4,6,8,10,12,14,-1,-1,-1,-1,-1,-1,-1,-1],"split_conditions":[1E0,-2.1748833E-4,2.5E0,-7.0629036E-1,-5.168788E-1,-1.7327547E-1,7E0,3.0599574E-2,5.203564E-2,-1.3345052E-2,2.3713218E-2,-4.02794E-2,-4.7924793E-3,-6.087711E-2,-1.0647265E-1],"split_indices":[2,1,2,0,0,0,2,0,0,0,0,0,0,0,0],"split_type":[0,0,0,0,0,0,0,0,0,0,0,0,0,0,0],"sum_hessian":[1.3524174E4,9.084374E3,4.4398E3,5.4975527E3,3.586821E3,2.1025317E3,2.337268E3,8.364108E2,4.661142E3,9.839402E2,2.6028809E3,1.0353252E3,1.0672065E3,1.5404419E3,7.968261E2],"tree_param":{"num_deleted":"0","num_feature":"22","num_nodes":"15","size_leaf_vector":"1"}},{"base_weights":[1.0004585E-1,5.592362E-1,-8.053719E-1,7.463494E-1,1.333105E-1,-3.5311893E-1,-1.2004116E0,2.4619395E-2,4.8585407E-2,-1.0779111E-2,2.3545356E-2,-3.845039E-2,-3.4931523E-3,-5.8972146E-2,-9.83005E-2],"categories":[],"categories_nodes":[],"categories_segments":[],"categories_sizes":[],"default_left":[0,0,0,0,0,0,0,0,0,0,0,0,0,0,0],"id":5,"left_children":[1,3,5,7,9,11,13,-1,-1,-1,-1,-1,-1,-1,-1],"loss_changes":[5.5888755E3,7.078386E2,7.981809E2,1.2401904E2,2.2445355E2,1.8001923E2,1.9430493E2,0E0,0E0,0E0,0E0,0E0,0E0,0E0,0E0],"parents":[2147483647,0,0,1,1,2,2,3,3,4,4,5,5,6,6],"right_children":[2,4,6,8,10,12,14,-1,-1,-1,-1,-1,-1,-1,-1],"split_conditions":[1E0,4.43572E-4,2.5E0,-6.518912E-1,-1.8474768E-1,-1.7327547E-1,7.5E0,2.4619395E-2,4.8585407E-2,-1.0779111E-2,2.3545356E-2,-3.845039E-2,-3.4931523E-3,-5.8972146E-2,-9.83005E-2],"split_indices":[2,1,2,0,0,0,2,0,0,0,0,0,0,0,0],"split_type":[0,0,0,0,0,0,0,0,0,0,0,0,0,0,0],"sum_hessian":[1.3401507E4,8.897709E3,4.503798E3,6.169844E3,2.7278647E3,2.11868E3,2.3851177E3,1.0056454E3,5.1641987E3,1.2365732E3,1.4912915E3,1.058801E3,1.0598789E3,1.6384072E3,7.467105E2],"tree_param":{"num_deleted":"0","num_feature":"22","num_nodes":"15","size_leaf_vector":"1"}},{"base_weights":[1.0231809E-1,4.8219946E-1,-8.538785E-1,6.879059E-1,3.1197203E-2,-5.23017E-1,-1.2516927E0,2.4919173E-2,4.747448E-2,-1.0595582E-2,1.44775845E-2,-6.0390644E-2,-1.9669147E-2,-9.650211E-2,-5.5022538E-2],"categories":[],"categories_nodes":[],"categories_segments":[],"categories_sizes":[],"default_left":[0,0,0,0,0,0,0,0,0,0,0,0,0,0,0],"id":6,"left_children":[1,3,5,7,9,11,13,-1,-1,-1,-1,-1,-1,-1,-1],"loss_changes":[4.824679E3,8.805613E2,4.8224146E2,1.7599927E2,1.3186012E2,1.9003607E2,1.7079126E2,0E0,0E0,0E0,0E0,0E0,0E0,0E0,0E0],"parents":[2147483647,0,0,1,1,2,2,3,3,4,4,5,5,6,6],"right_children":[2,4,6,8,10,12,14,-1,-1,-1,-1,-1,-1,-1,-1],"split_conditions":[1.1428572E0,5E-1,7.076923E0,-4.7634745E-1,-1.16130345E-1,-5.8846146E-1,-4.0051842E-1,2.4919173E-2,4.747448E-2,-1.0595582E-2,1.44775845E-2,-6.0390644E-2,-1.9669147E-2,-9.650211E-2,-5.5022538E-2],"split_indices":[4,2,3,0,0,0,0,0,0,0,0,0,0,0,0],"split_type":[0,0,0,0,0,0,0,0,0,0,0,0,0,0,0],"sum_hessian":[1.3240651E4,9.483837E3,3.7568142E3,6.504397E3,2.9794404E3,2.0776467E3,1.6791677E3,1.8182184E3,4.686178E3,1.49715E3,1.4822904E3,5.721685E2,1.5054781E3,7.7453986E2,9.0462787E2],"tree_param":{"num_deleted":"0","num_feature":"22","num_nodes":"15","size_leaf_vector":"1"}},{"base_weights":[9.138557E-2,5.14257E-1,-6.9158864E-1,7.461809E-1,2.0245497E-1,-4.1762695E-1,-1.1954556E0,2.8665898E-2,4.8415285E-2,-1.2846631E-2,2.206571E-2,-1.4864229E-2,-4.34954E-2,-8.3540976E-2,-4.976666E-2],"categories":[],"categories_nodes":[],"categories_segments":[],"categories_sizes":[],"default_left":[0,0,0,0,0,0,0,0,0,0,0,0,0,0,0],"id":7,"left_children":[1,3,5,7,9,11,13,-1,-1,-1,-1,-1,-1,-1,-1],"loss_changes":[4.3685576E3,6.154663E2,6.2716187E2,7.093994E1,2.5534578E2,1.535982E2,9.1267334E1,0E0,0E0,0E0,0E0,0E0,0E0,0E0,0E0],"parents":[2147483647,0,0,1,1,2,2,3,3,4,4,5,5,6,6],"right_children":[2,4,6,8,10,12,14,-1,-1,-1,-1,-1,-1,-1,-1],"split_conditions":[1E0,-2.5759995E-4,5.6666665E0,-5.9864205E-1,-5.168788E-1,2.5E0,-3.3199307E-2,2.8665898E-2,4.8415285E-2,-1.2846631E-2,2.206571E-2,-1.4864229E-2,-4.34954E-2,-8.3540976E-2,-4.976666E-2],"split_indices":[2,1,16,0,0,2,0,0,0,0,0,0,0,0,0],"split_type":[0,0,0,0,0,0,0,0,0,0,0,0,0,0,0],"sum_hessian":[1.3153228E4,8.54588E3,4.607347E3,4.8828555E3,3.6630244E3,3.0095574E3,1.59779E3,9.368108E2,3.9460447E3,1.03725E3,2.6257744E3,1.9634408E3,1.0461165E3,1.0006699E3,5.971201E2],"tree_param":{"num_deleted":"0","num_feature":"22","num_nodes":"15","size_leaf_vector":"1"}},{"base_weights":[8.9943625E-2,5.2652293E-1,-6.144417E-1,6.961253E-1,1.6437006E-1,-2.9188234E-1,-9.8460674E-1,4.5081466E-2,2.755038E-2,1.4399373E-2,-1.133122E-2,1.3025935E-2,-2.254874E-2,-4.427249E-2,-7.232804E-2],"categories":[],"categories_nodes":[],"categories_segments":[],"categories_sizes":[],"default_left":[0,0,0,0,0,0,0,0,0,0,0,0,0,0,0],"id":8,"left_children":[1,3,5,7,9,11,13,-1,-1,-1,-1,-1,-1,-1,-1],"loss_changes":[4.0349878E3,4.9432275E2,5.9249133E2,6.397412E1,7.070702E1,1.1768361E2,1.0713452E2,0E0,0E0,0E0,0E0,0E0,0E0,0E0,0E0],"parents":[2147483647,0,0,1,1,2,2,3,3,4,4,5,5,6,6],"right_children":[2,4,6,8,10,12,14,-1,-1,-1,-1,-1,-1,-1,-1],"split_conditions":[5.714286E-1,3.4407436E-4,4.3076925E0,-5.71141E-2,6.666667E-1,3.701469E-3,5.3333335E0,4.5081466E-2,2.755038E-2,1.4399373E-2,-1.133122E-2,1.3025935E-2,-2.254874E-2,-4.427249E-2,-7.232804E-2],"split_indices":[4,1,3,12,20,1,20,0,0,0,0,0,0,0,0],"split_type":[0,0,0,0,0,0,0,0,0,0,0,0,0,0,0],"sum_hessian":[1.3080301E4,8.0792417E3,5.001059E3,5.4879404E3,2.5913013E3,2.69293E3,2.3081294E3,4.411907E3,1.0760333E3,2.1419805E3,4.4932086E2,3.7502118E2,2.3179087E3,1.1333578E3,1.1747716E3],"tree_param":{"num_deleted":"0","num_feature":"22","num_nodes":"15","size_leaf_vector":"1"}},{"base_weights":[7.9280466E-2,5.0043327E-1,-5.7819337E-1,6.956398E-1,2.0086667E-1,-3.336985E-1,-1.0134846E0,2.328044E-2,4.528409E-2,-7.366654E-4,2.318121E-2,-4.6618965E-2,-9.955728E-3,-7.773523E-2,-4.4860337E-2],"categories":[],"categories_nodes":[],"categories_segments":[],"categories_sizes":[],"default_left":[0,0,0,0,0,0,0,0,0,0,0,0,0,0,0],"id":9,"left_children":[1,3,5,7,9,11,13,-1,-1,-1,-1,-1,-1,-1,-1],"loss_changes":[3.598702E3,4.5951282E2,5.3198584E2,8.000391E1,1.2521546E2,2.4047708E2,1.1460474E2,0E0,0E0,0E0,0E0,0E0,0E0,0E0,0E0],"parents":[2147483647,0,0,1,1,2,2,3,3,4,4,5,5,6,6],"right_children":[2,4,6,8,10,12,14,-1,-1,-1,-1,-1,-1,-1,-1],"split_conditions":[5.714286E-1,-2.1748833E-4,7.076923E0,-6.518912E-1,-1.6102478E-1,-5.8846146E-1,-4.0051842E-1,2.328044E-2,4.528409E-2,-7.366654E-4,2.318121E-2,-4.6618965E-2,-9.955728E-3,-7.773523E-2,-4.4860337E-2],"split_indices":[4,1,3,0,0,0,0,0,0,0,0,0,0,0,0],"split_type":[0,0,0,0,0,0,0,0,0,0,0,0,0,0,0],"sum_hessian":[1.2955921E4,7.9010845E3,5.054837E3,4.76578E3,3.1353047E3,3.2608872E3,1.7939496E3,7.9507556E2,3.970704E3,1.4650681E3,1.6702366E3,8.7372614E2,2.3871611E3,8.3089233E2,9.6305725E2],"tree_param":{"num_deleted":"0","num_feature":"22","num_nodes":"15","size_leaf_vector":"1"}},{"base_weights":[7.9222016E-2,4.530788E-1,-5.8294E-1,6.4389205E-1,1.1742297E-1,-3.677417E-1,-9.740776E-1,1.15377745E-2,4.1158576E-2,-6.7859935E-3,1.827133E-2,-4.5631986E-2,-1.13873035E-2,-7.703283E-2,-4.6760377E-2],"categories":[],"categories_nodes":[],"categories_segments":[],"categories_sizes":[],"default_left":[0,0,0,0,0,0,0,0,0,0,0,0,0,0,0],"id":10,"left_children":[1,3,5,7,9,11,13,-1,-1,-1,-1,-1,-1,-1,-1],"loss_changes":[3.1872673E3,5.247029E2,3.8258728E2,9.605859E1,1.3063763E2,2.0802988E2,7.6582275E1,0E0,0E0,0E0,0E0,0E0,0E0,0E0,0E0],"parents":[2147483647,0,0,1,1,2,2,3,3,4,4,5,5,6,6],"right_children":[2,4,6,8,10,12,14,-1,-1,-1,-1,-1,-1,-1,-1],"split_conditions":[6.666667E-1,1.9613019E-4,5.6666665E0,-8.301455E-1,-2.065491E-1,-5.4324853E-1,-5.608213E-1,1.15377745E-2,4.1158576E-2,-6.7859935E-3,1.827133E-2,-4.5631986E-2,-1.13873035E-2,-7.703283E-2,-4.6760377E-2],"split_indices":[20,1,16,0,0,0,0,0,0,0,0,0,0,0,0],"split_type":[0,0,0,0,0,0,0,0,0,0,0,0,0,0,0],"sum_hessian":[1.2834237E4,8.207888E3,4.6263496E3,5.219415E3,2.9884731E3,3.0110652E3,1.6152844E3,4.5645444E2,4.7629604E3,1.3400177E3,1.6484554E3,9.166576E2,2.0944077E3,5.782967E2,1.0369878E3],"tree_param":{"num_deleted":"0","num_feature":"22","num_nodes":"15","size_leaf_vector":"1"}},{"base_weights":[8.117761E-2,4.4795132E-1,-5.338424E-1,6.7798483E-1,1.9347067E-1,-3.6568666E-1,-1.0340015E0,2.5322903E-2,4.427403E-2,-3.2066402E-3,2.4020623E-2,-3.4898702E-2,-9.286047E-3,-5.1598713E-2,-8.368864E-2],"categories":[],"categories_nodes":[],"categories_segments":[],"categories_sizes":[],"default_left":[0,0,0,0,0,0,0,0,0,0,0,0,0,0,0],"id":11,"left_children":[1,3,5,7,9,11,13,-1,-1,-1,-1,-1,-1,-1,-1],"loss_changes":[2.8864248E3,4.656698E2,3.931067E2,5.7007935E1,1.9667339E2,1.6190561E2,4.8499756E1,0E0,0E0,0E0,0E0,0E0,0E0,0E0,0E0],"parents":[2147483647,0,0,1,1,2,2,3,3,4,4,5,5,6,6],"right_children":[2,4,6,8,10,12,14,-1,-1,-1,-1,-1,-1,-1,-1],"split_conditions":[1E0,-2.9406504E-4,5.5E0,-5.9864205E-1,-1.9015469E-1,-2.161989E-1,1.25E1,2.5322903E-2,4.427403E-2,-3.2066402E-3,2.4020623E-2,-3.4898702E-2,-9.286047E-3,-5.1598713E-2,-8.368864E-2],"split_indices":[2,1,2,0,0,0,2,0,0,0,0,0,0,0,0],"split_type":[0,0,0,0,0,0,0,0,0,0,0,0,0,0,0],"sum_hessian":[1.2755137E4,7.9945566E3,4.76058E3,4.179424E3,3.815133E3,3.5901707E3,1.1704094E3,8.2650183E2,3.3529219E3,1.7438038E3,2.071329E3,1.7541829E3,1.8359878E3,8.371044E2,3.3330502E2],"tree_param":{"num_deleted":"0","num_feature":"22","num_nodes":"15","size_leaf_vector":"1"}},{"base_weights":[6.5656245E-2,4.4220608E-1,-4.8419023E-1,6.374669E-1,1.9186631E-1,-1.8970627E-1,-7.7598405E-1,2.853751E-2,4.4478346E-2,1.2136879E-3,2.061252E-2,-3.6781665E-2,-6.4446975E-4,-3.9508883E-2,-7.479366E-2],"categories":[],"categories_nodes":[],"categories_segments":[],"categories_sizes":[],"default_left":[0,0,0,0,0,0,0,0,0,0,0,0,0,0,0],"id":12,"left_children":[1,3,5,7,9,11,13,-1,-1,-1,-1,-1,-1,-1,-1],"loss_changes":[2.6290667E3,3.651007E2,4.396101E2,6.269995E1,8.627028E1,1.9599889E2,1.2458057E2,0E0,0E0,0E0,0E0,0E0,0E0,0E0,0E0],"parents":[2147483647,0,0,1,1,2,2,3,3,4,4,5,5,6,6],"right_children":[2,4,6,8,10,12,14,-1,-1,-1,-1,-1,-1,-1,-1],"split_conditions":[5.714286E-1,-2.727069E-4,2.5E0,-2.065491E-1,-1.6736953E-1,-5.608213E-1,1.05E1,2.853751E-2,4.4478346E-2,1.2136879E-3,2.061252E-2,-3.6781665E-2,-6.4446975E-4,-3.9508883E-2,-7.479366E-2],"split_indices":[4,1,2,0,0,0,2,0,0,0,0,0,0,0,0],"split_type":[0,0,0,0,0,0,0,0,0,0,0,0,0,0,0],"sum_hessian":[1.265759E4,7.5160967E3,5.1414937E3,4.202946E3,3.3131504E3,2.5770823E3,2.5644114E3,1.6900682E3,2.5128777E3,1.5680195E3,1.7451309E3,7.4968726E2,1.827395E3,2.092122E3,4.722894E2],"tree_param":{"num_deleted":"0","num_feature":"22","num_nodes":"15","size_leaf_vector":"1"}},{"base_weights":[6.78681E-2,4.0888008E-1,-4.816613E-1,5.889468E-1,1.1762399E-1,-3.5099527E-1,-9.847846E-1,2.651077E-2,4.2061657E-2,-1.2877183E-2,1.68255E-2,-3.1351194E-2,-7.969833E-3,-4.8079267E-2,-7.733994E-2],"categories":[],"categories_nodes":[],"categories_segments":[],"categories_sizes":[],"default_left":[0,0,0,0,0,0,0,0,0,0,0,0,0,0,0],"id":13,"left_children":[1,3,5,7,9,11,13,-1,-1,-1,-1,-1,-1,-1,-1],"loss_changes":[2.356303E3,4.0479285E2,3.0829773E2,7.158838E1,1.6305763E2,1.4221304E2,3.1950256E1,0E0,0E0,0E0,0E0,0E0,0E0,0E0,0E0],"parents":[2147483647,0,0,1,1,2,2,3,3,4,4,5,5,6,6],"right_children":[2,4,6,8,10,12,14,-1,-1,-1,-1,-1,-1,-1,-1],"split_conditions":[1E0,0E0,6.5E0,-1.5510114E-1,-4.7634745E-1,-1.16130345E-1,1.3E1,2.651077E-2,4.2061657E-2,-1.2877183E-2,1.68255E-2,-3.1351194E-2,-7.969833E-3,-4.8079267E-2,-7.733994E-2],"split_indices":[2,3,2,0,0,0,2,0,0,0,0,0,0,0,0],"split_type":[0,0,0,0,0,0,0,0,0,0,0,0,0,0,0],"sum_hessian":[1.2533287E4,7.7382397E3,4.7950474E3,4.767127E3,2.9711128E3,3.8350007E3,9.600467E2,2.1081062E3,2.6590205E3,9.729703E2,1.9981426E3,2.1288105E3,1.7061901E3,6.4626843E2,3.1377826E2],"tree_param":{"num_deleted":"0","num_feature":"22","num_nodes":"15","size_leaf_vector":"1"}},{"base_weights":[6.46012E-2,3.56694E-1,-5.0468713E-1,5.6898355E-1,8.000357E-2,-8.3366394E-1,-3.399611E-1,1.1723705E-2,3.6922865E-2,-4.8054485E-3,1.490931E-2,-3.7461784E-2,-6.4439334E-2,-5.132229E-3,-3.1696323E-2],"categories":[],"categories_nodes":[],"categories_segments":[],"categories_sizes":[],"default_left":[0,0,0,0,0,0,0,0,0,0,0,0,0,0,0],"id":14,"left_children":[1,3,5,7,9,11,13,-1,-1,-1,-1,-1,-1,-1,-1],"loss_changes":[2.0739758E3,4.8257495E2,2.2235681E2,7.753357E1,9.776943E1,5.5078247E1,1.352236E2,0E0,0E0,0E0,0E0,0E0,0E0,0E0,0E0],"parents":[2147483647,0,0,1,1,2,2,3,3,4,4,5,5,6,6],"right_children":[2,4,6,8,10,12,14,-1,-1,-1,-1,-1,-1,-1,-1],"split_conditions":[1E0,1.8232554E-6,-5.608213E-1,-8.0180824E-1,-1.2686297E-1,4.3333335E0,2.5E0,1.1723705E-2,3.6922865E-2,-4.8054485E-3,1.490931E-2,-3.7461784E-2,-6.4439334E-2,-5.132229E-3,-3.1696323E-2],"split_indices":[4,1,0,0,0,20,2,0,0,0,0,0,0,0,0],"split_type":[0,0,0,0,0,0,0,0,0,0,0,0,0,0,0],"sum_hessian":[1.2431652E4,8.222198E3,4.2094546E3,4.6385493E3,3.583649E3,1.3753777E3,2.8340767E3,5.2633386E2,4.112216E3,1.8399172E3,1.7437316E3,7.7582605E2,5.995517E2,1.2200634E3,1.6140133E3],"tree_param":{"num_deleted":"0","num_feature":"22","num_nodes":"15","size_leaf_vector":"1"}},{"base_weights":[6.4199686E-2,3.7722108E-1,-4.2219207E-1,5.470339E-1,1.2867106E-1,-2.5725293E-1,-7.8827393E-1,2.212345E-2,3.9027374E-2,-2.9924748E-2,1.1537293E-2,-3.860249E-2,-1.1220843E-2,-3.946604E-2,-7.0101425E-2],"categories":[],"categories_nodes":[],"categories_segments":[],"categories_sizes":[],"default_left":[0,0,0,0,0,0,0,0,0,0,0,0,0,0,0],"id":15,"left_children":[1,3,5,7,9,11,13,-1,-1,-1,-1,-1,-1,-1,-1],"loss_changes":[1.8816145E3,3.152583E2,2.87102E2,7.640088E1,1.24563E2,8.809926E1,5.6789795E1,0E0,0E0,0E0,0E0,0E0,0E0,0E0,0E0],"parents":[2147483647,0,0,1,1,2,2,3,3,4,4,5,5,6,6],"right_children":[2,4,6,8,10,12,14,-1,-1,-1,-1,-1,-1,-1,-1],"split_conditions":[1E0,-2.3226965E-2,4.5E0,-2.7561936E-1,-8.50167E-1,-8.0180824E-1,1.25E1,2.212345E-2,3.9027374E-2,-2.9924748E-2,1.1537293E-2,-3.860249E-2,-1.1220843E-2,-3.946604E-2,-7.0101425E-2],"split_indices":[2,12,2,0,0,0,2,0,0,0,0,0,0,0,0],"split_type":[0,0,0,0,0,0,0,0,0,0,0,0,0,0,0],"sum_hessian":[1.2318008E4,7.4987017E3,4.8193057E3,4.438331E3,3.0603708E3,3.347753E3,1.4715529E3,1.6663553E3,2.7719758E3,2.676996E2,2.7926711E3,4.879466E2,2.8598064E3,1.1380358E3,3.3351706E2],"tree_param":{"num_deleted":"0","num_feature":"22","num_nodes":"15","size_leaf_vector":"1"}},{"base_weights":[5.6712553E-2,4.819843E-1,-2.757526E-1,2.3419292E-1,5.8779824E-1,-4.3303855E-2,-5.91754E-1,2.249445E-2,-5.053008E-3,3.9508395E-2,2.4385525E-2,-8.144013E-3,1.3612648E-2,-5.2621096E-2,-2.6501542E-2],"categories":[],"categories_nodes":[],"categories_segments":[],"categories_sizes":[],"default_left":[0,0,0,0,0,0,0,0,0,0,0,0,0,0,0],"id":16,"left_children":[1,3,5,7,9,11,13,-1,-1,-1,-1,-1,-1,-1,-1],"loss_changes":[1.7353237E3,1.3761389E2,5.048333E2,7.4735855E1,4.174695E1,1.00223526E2,1.15763855E2,0E0,0E0,0E0,0E0,0E0,0E0,0E0,0E0],"parents":[2147483647,0,0,1,1,2,2,3,3,4,4,5,5,6,6],"right_children":[2,4,6,8,10,12,14,-1,-1,-1,-1,-1,-1,-1,-1],"split_conditions":[8.978492E-3,-4.7634745E-1,2.6666667E0,-2.1274826E-2,-6.1938554E-2,3.9593944E-1,-5.608213E-1,2.249445E-2,-5.053008E-3,3.9508395E-2,2.4385525E-2,-8.144013E-3,1.3612648E-2,-5.2621096E-2,-2.6501542E-2],"split_indices":[1,0,16,12,12,0,0,0,0,0,0,0,0,0,0],"split_type":[0,0,0,0,0,0,0,0,0,0,0,0,0,0,0],"sum_hessian":[1.2233224E4,5.3648306E3,6.8683926E3,1.6274471E3,3.7373835E3,3.9722986E3,2.8960942E3,1.1283763E3,4.9907077E2,2.6475835E3,1.0897999E3,2.9699314E3,1.00236707E3,9.6262E2,1.9334741E3],"tree_param":{"num_deleted":"0","num_feature":"22","num_nodes":"15","size_leaf_vector":"1"}},{"base_weights":[5.6691617E-2,3.4187478E-1,-3.868498E-1,5.1525325E-1,8.9261875E-2,-2.7678055E-1,-7.817717E-1,5.6850133E-3,3.3333898E-2,-5.3518084E-3,1.5217981E-2,-4.4907432E-2,-1.1882563E-2,-5.4986272E-2,-2.5778972E-2],"categories":[],"categories_nodes":[],"categories_segments":[],"categories_sizes":[],"default_left":[0,0,0,0,0,0,0,0,0,0,0,0,0,0,0],"id":17,"left_children":[1,3,5,7,9,11,13,-1,-1,-1,-1,-1,-1,-1,-1],"loss_changes":[1.5392883E3,3.228546E2,2.0162646E2,7.263489E1,8.981724E1,1.3562906E2,3.9386475E1,0E0,0E0,0E0,0E0,0E0,0E0,0E0,0E0],"parents":[2147483647,0,0,1,1,2,2,3,3,4,4,5,5,6,6],"right_children":[2,4,6,8,10,12,14,-1,-1,-1,-1,-1,-1,-1,-1],"split_conditions":[6.666667E-1,0E0,6E0,-8.347244E-1,-1.7873202E-1,-8.2042134E-1,5.3588822E-2,5.6850133E-3,3.3333898E-2,-5.3518084E-3,1.5217981E-2,-4.4907432E-2,-1.1882563E-2,-5.4986272E-2,-2.5778972E-2],"split_indices":[20,3,2,0,0,0,0,0,0,0,0,0,0,0,0],"split_type":[0,0,0,0,0,0,0,0,0,0,0,0,0,0,0],"sum_hessian":[1.2128642E4,7.3863135E3,4.742328E3,4.3654062E3,3.0209075E3,3.73726E3,1.00506805E3,3.8991467E2,3.9754915E3,1.4498549E3,1.5710525E3,5.084701E2,3.2287898E3,7.017844E2,3.032836E2],"tree_param":{"num_deleted":"0","num_feature":"22","num_nodes":"15","size_leaf_vector":"1"}},{"base_weights":[4.6500888E-2,3.451095E-1,-3.4591186E-1,5.597347E-1,1.7939557E-1,-1.8041055E-1,-6.2581104E-1,1.8743979E-2,3.650805E-2,5.510098E-3,2.4135372E-2,-1.9435782E-2,3.1591959E-3,-3.1597532E-2,-6.281981E-2],"categories":[],"categories_nodes":[],"categories_segments":[],"categories_sizes":[],"default_left":[0,0,0,0,0,0,0,0,0,0,0,0,0,0,0],"id":18,"left_children":[1,3,5,7,9,11,13,-1,-1,-1,-1,-1,-1,-1,-1],"loss_changes":[1.4163064E3,2.4136859E2,2.3887378E2,3.1177673E1,7.497301E1,1.1141081E2,6.803906E1,0E0,0E0,0E0,0E0,0E0,0E0,0E0,0E0],"parents":[2147483647,0,0,1,1,2,2,3,3,4,4,5,5,6,6],"right_children":[2,4,6,8,10,12,14,-1,-1,-1,-1,-1,-1,-1,-1],"split_conditions":[5.714286E-1,-3.4355343E-4,3.5E0,-7.0629036E-1,3.9056426E-1,7.2032094E-2,1.25E1,1.8743979E-2,3.650805E-2,5.510098E-3,2.4135372E-2,-1.9435782E-2,3.1591959E-3,-3.1597532E-2,-6.281981E-2],"split_indices":[4,1,2,0,0,0,2,0,0,0,0,0,0,0,0],"split_type":[0,0,0,0,0,0,0,0,0,0,0,0,0,0,0],"sum_hessian":[1.2046444E4,6.843673E3,5.202771E3,2.9584429E3,3.8852302E3,3.292447E3,1.9103239E3,5.1473303E2,2.4437097E3,2.812819E3,1.0724113E3,2.0354955E3,1.2569514E3,1.5845562E3,3.2576776E2],"tree_param":{"num_deleted":"0","num_feature":"22","num_nodes":"15","size_leaf_vector":"1"}},{"base_weights":[4.7430173E-2,4.297912E-1,-2.3629405E-1,2.4883215E-1,5.459718E-1,-2.6205968E-2,-4.8902962E-1,2.3027275E-2,2.6840859E-3,3.692024E-2,2.411954E-2,-6.5881233E-3,1.4069021E-2,-5.4925263E-2,-2.4176238E-2],"categories":[],"categories_nodes":[],"categories_segments":[],"categories_sizes":[],"default_left":[0,0,0,0,0,0,0,0,0,0,0,0,0,0,0],"id":19,"left_children":[1,3,5,7,9,11,13,-1,-1,-1,-1,-1,-1,-1,-1],"loss_changes":[1.3000348E3,1.0380145E2,3.644642E2,5.5305016E1,2.488031E1,8.275681E1,1.0580463E2,0E0,0E0,0E0,0E0,0E0,0E0,0E0,0E0],"parents":[2147483647,0,0,1,1,2,2,3,3,4,4,5,5,6,6],"right_children":[2,4,6,8,10,12,14,-1,-1,-1,-1,-1,-1,-1,-1],"split_conditions":[8.978492E-3,-2.6451874E-1,2.3333333E0,-3.2636273E-4,3.267974E-3,4.1295666E-1,-8.2042134E-1,2.3027275E-2,2.6840859E-3,3.692024E-2,2.411954E-2,-6.5881233E-3,1.4069021E-2,-5.4925263E-2,-2.4176238E-2],"split_indices":[1,0,16,1,21,0,0,0,0,0,0,0,0,0,0],"split_type":[0,0,0,0,0,0,0,0,0,0,0,0,0,0,0],"sum_hessian":[1.1943027E4,5.0843413E3,6.858686E3,2.0158943E3,3.068447E3,3.7595588E3,3.0991272E3,1.1999443E3,8.159499E2,2.0219192E3,1.046528E3,2.8583694E3,9.011894E2,4.8630692E2,2.6128203E3],"tree_param":{"num_deleted":"0","num_feature":"22","num_nodes":"15","size_leaf_vector":"1"}},{"base_weights":[4.6457686E-2,3.1037906E-1,-3.1880254E-1,4.5976546E-1,8.75154E-2,-1.7737496E-1,-5.819383E-1,7.300848E-3,3.0367494E-2,-3.533627E-4,2.115703E-2,-2.1836765E-2,-3.9461793E-4,-4.374347E-2,-2.043884E-2],"categories":[],"categories_nodes":[],"categories_segments":[],"categories_sizes":[],"default_left":[0,0,0,0,0,0,0,0,0,0,0,0,0,0,0],"id":20,"left_children":[1,3,5,7,9,11,13,-1,-1,-1,-1,-1,-1,-1,-1],"loss_changes":[1.1464756E3,2.2850378E2,1.828175E2,6.280957E1,6.967262E1,1.0396772E2,5.5468323E1,0E0,0E0,0E0,0E0,0E0,0E0,0E0,0E0],"parents":[2147483647,0,0,1,1,2,2,3,3,4,4,5,5,6,6],"right_children":[2,4,6,8,10,12,14,-1,-1,-1,-1,-1,-1,-1,-1],"split_conditions":[5.3846157E-1,0E0,5.6666665E0,-8.0180824E-1,4.0090412E-1,-2.469141E-1,-1.0114076E-1,7.300848E-3,3.0367494E-2,-3.533627E-4,2.115703E-2,-2.1836765E-2,-3.9461793E-4,-4.374347E-2,-2.043884E-2],"split_indices":[3,3,16,0,0,0,0,0,0,0,0,0,0,0,0],"split_type":[0,0,0,0,0,0,0,0,0,0,0,0,0,0,0],"sum_hessian":[1.1852461E4,6.88407E3,4.9683906E3,4.1060327E3,2.7780369E3,3.255786E3,1.712605E3,5.0648273E2,3.59955E3,2.0659226E3,7.121144E2,1.5424353E3,1.7133505E3,1.0362255E3,6.763795E2],"tree_param":{"num_deleted":"0","num_feature":"22","num_nodes":"15","size_leaf_vector":"1"}},{"base_weights":[4.2011563E-2,4.0180248E-1,-2.1591665E-1,1.866441E-1,4.9768224E-1,-4.7162075E-2,-4.6229622E-1,-8.238099E-3,1.7499423E-2,2.5869356E-2,3.8157456E-2,-7.622819E-3,1.1344561E-2,-4.303585E-2,-1.9700395E-2],"categories":[],"categories_nodes":[],"categories_segments":[],"categories_sizes":[],"default_left":[0,0,0,0,0,0,0,0,0,0,0,0,0,0,0],"id":21,"left_children":[1,3,5,7,9,11,13,-1,-1,-1,-1,-1,-1,-1,-1],"loss_changes":[1.0994229E3,9.950629E1,2.8592978E2,5.402718E1,2.4786621E1,7.8163605E1,8.988074E1,0E0,0E0,0E0,0E0,0E0,0E0,0E0,0E0],"parents":[2147483647,0,0,1,1,2,2,3,3,4,4,5,5,6,6],"right_children":[2,4,6,8,10,12,14,-1,-1,-1,-1,-1,-1,-1,-1],"split_conditions":[8.978492E-3,-4.7634745E-1,3.0769231E0,-2.6738128E-1,6.2236494E-1,3.846831E-1,-5.608213E-1,-8.238099E-3,1.7499423E-2,2.5869356E-2,3.8157456E-2,-7.622819E-3,1.1344561E-2,-4.303585E-2,-1.9700395E-2],"split_indices":[1,0,3,19,0,0,0,0,0,0,0,0,0,0,0],"split_type":[0,0,0,0,0,0,0,0,0,0,0,0,0,0,0],"sum_hessian":[1.18065E4,4.926757E3,6.879743E3,1.5400903E3,3.3866665E3,4.099636E3,2.780107E3,3.731913E2,1.166899E3,2.3470571E3,1.0396096E3,3.0737214E3,1.0259148E3,9.249785E2,1.8551284E3],"tree_param":{"num_deleted":"0","num_feature":"22","num_nodes":"15","size_leaf_vector":"1"}},{"base_weights":[4.0489618E-2,3.8043118E-1,-1.9786763E-1,4.7220582E-1,1.7801927E-1,-1.5920885E-2,-4.2217767E-1,2.9133517E-2,8.669831E-3,1.2092854E-2,-1.061229E-2,-8.232713E-3,1.5239487E-2,-2.1700677E-2,-5.6854956E-2],"categories":[],"categories_nodes":[],"categories_segments":[],"categories_sizes":[],"default_left":[0,0,0,0,0,0,0,0,0,0,0,0,0,0,0],"id":22,"left_children":[1,3,5,7,9,11,13,-1,-1,-1,-1,-1,-1,-1,-1],"loss_changes":[9.521106E2,8.7636536E1,2.8129712E2,1.2480347E1,1.3649872E1,1.2618149E2,9.00542E1,0E0,0E0,0E0,0E0,0E0,0E0,0E0,0E0],"parents":[2147483647,0,0,1,1,2,2,3,3,4,4,5,5,6,6],"right_children":[2,4,6,8,10,12,14,-1,-1,-1,-1,-1,-1,-1,-1],"split_conditions":[8.978492E-3,-5.71141E-2,2E0,1.4285715E-1,7.5757575E-1,1.8036734E0,1.3E1,2.9133517E-2,8.669831E-3,1.2092854E-2,-1.061229E-2,-8.232713E-3,1.5239487E-2,-2.1700677E-2,-5.6854956E-2],"split_indices":[1,12,2,4,14,1,2,0,0,0,0,0,0,0,0],"split_type":[0,0,0,0,0,0,0,0,0,0,0,0,0,0,0],"sum_hessian":[1.1709624E4,4.823168E3,6.886456E3,3.296788E3,1.5263801E3,3.816566E3,3.0698901E3,3.155528E3,1.4126007E2,1.442224E3,8.415602E1,2.6425957E3,1.1739703E3,2.784885E3,2.8500513E2],"tree_param":{"num_deleted":"0","num_feature":"22","num_nodes":"15","size_leaf_vector":"1"}},{"base_weights":[3.262713E-2,3.2726014E-1,-2.1870854E-1,4.6147385E-1,1.8589914E-1,-1.013003E-1,-4.889641E-1,1.3691745E-2,3.1434983E-2,-1.2900283E-2,1.3529567E-2,-2.1648243E-2,-4.373822E-4,-2.4154712E-2,-5.2461725E-2],"categories":[],"categories_nodes":[],"categories_segments":[],"categories_sizes":[],"default_left":[0,0,0,0,0,0,0,0,0,0,0,0,0,0,0],"id":23,"left_children":[1,3,5,7,9,11,13,-1,-1,-1,-1,-1,-1,-1,-1],"loss_changes":[8.633215E2,9.946588E1,1.9801437E2,3.671167E1,4.3061745E1,1.07241165E2,5.4849762E1,0E0,0E0,0E0,0E0,0E0,0E0,0E0,0E0],"parents":[2147483647,0,0,1,1,2,2,3,3,4,4,5,5,6,6],"right_children":[2,4,6,8,10,12,14,-1,-1,-1,-1,-1,-1,-1,-1],"split_conditions":[2.857143E-1,-3.383441E-4,3.5E0,-5.938189E-1,-8.445547E-1,-5.9864205E-1,1.25E1,1.3691745E-2,3.1434983E-2,-1.2900283E-2,1.3529567E-2,-2.1648243E-2,-4.373822E-4,-2.4154712E-2,-5.2461725E-2],"split_indices":[4,1,2,0,0,0,2,0,0,0,0,0,0,0,0],"split_type":[0,0,0,0,0,0,0,0,0,0,0,0,0,0,0],"sum_hessian":[1.1617551E4,5.3471685E3,6.270382E3,2.716065E3,2.6311035E3,4.393076E3,1.8773057E3,5.9654553E2,2.1195193E3,2.2625961E2,2.404844E3,1.1503348E3,3.2427415E3,1.5690868E3,3.082189E2],"tree_param":{"num_deleted":"0","num_feature":"22","num_nodes":"15","size_leaf_vector":"1"}},{"base_weights":[3.84544E-2,3.4644607E-1,-1.7233172E-1,1.9062895E-1,4.7111458E-1,1.030909E-2,-3.434404E-1,-1.3931552E-2,1.441972E-2,3.2053147E-2,2.0702172E-2,-5.154923E-3,1.2061602E-2,-4.4119798E-2,-1.6309986E-2],"categories":[],"categories_nodes":[],"categories_segments":[],"categories_sizes":[],"default_left":[0,0,0,0,0,0,0,0,0,0,0,0,0,0,0],"id":24,"left_children":[1,3,5,7,9,11,13,-1,-1,-1,-1,-1,-1,-1,-1],"loss_changes":[7.527507E2,8.905945E1,2.1549847E2,4.5908676E1,1.6120483E1,6.1860897E1,9.481082E1,0E0,0E0,0E0,0E0,0E0,0E0,0E0,0E0],"parents":[2147483647,0,0,1,1,2,2,3,3,4,4,5,5,6,6],"right_children":[2,4,6,8,10,12,14,-1,-1,-1,-1,-1,-1,-1,-1],"split_conditions":[8.978492E-3,-1.9015469E-1,1.4615384E0,-8.983276E-1,2.415459E-3,1.8876734E0,-8.253082E-1,-1.3931552E-2,1.441972E-2,3.2053147E-2,2.0702172E-2,-5.154923E-3,1.2061602E-2,-4.4119798E-2,-1.6309986E-2],"split_indices":[1,0,3,0,21,1,0,0,0,0,0,0,0,0,0],"split_type":[0,0,0,0,0,0,0,0,0,0,0,0,0,0,0],"sum_hessian":[1.1553909E4,4.6912E3,6.8627095E3,2.111163E3,2.580037E3,3.325758E3,3.5369512E3,2.1221133E2,1.8989517E3,1.6709966E3,9.090405E2,2.214303E3,1.1114552E3,5.1563934E2,3.0213118E3],"tree_param":{"num_deleted":"0","num_feature":"22","num_nodes":"15","size_leaf_vector":"1"}},{"base_weights":[3.45601E-2,3.136205E-1,-1.9826669E-1,4.3819922E-1,1.8167083E-1,-1.16759695E-1,-5.59456E-1,1.8007815E-2,3.2102972E-2,-9.500631E-3,1.3494264E-2,-1.5409295E-2,2.1317755E-3,-4.0052705E-2,-1.5218009E-2],"categories":[],"categories_nodes":[],"categories_segments":[],"categories_sizes":[],"default_left":[0,0,0,0,0,0,0,0,0,0,0,0,0,0,0],"id":25,"left_children":[1,3,5,7,9,11,13,-1,-1,-1,-1,-1,-1,-1,-1],"loss_changes":[7.4733496E2,8.3790344E1,1.825875E2,3.1697205E1,3.868789E1,1.1009746E2,3.360034E1,0E0,0E0,0E0,0E0,0E0,0E0,0E0,0E0],"parents":[2147483647,0,0,1,1,2,2,3,3,4,4,5,5,6,6],"right_children":[2,4,6,8,10,12,14,-1,-1,-1,-1,-1,-1,-1,-1],"split_conditions":[2.857143E-1,-3.3521853E-4,5.5E0,-2.065491E-1,-8.2042134E-1,-1.7327547E-1,1.1596049E-1,1.8007815E-2,3.2102972E-2,-9.500631E-3,1.3494264E-2,-1.5409295E-2,2.1317755E-3,-4.0052705E-2,-1.5218009E-2],"split_indices":[4,1,2,0,0,0,0,0,0,0,0,0,0,0,0],"split_type":[0,0,0,0,0,0,0,0,0,0,0,0,0,0,0],"sum_hessian":[1.146137E4,5.211887E3,6.2494834E3,2.6530466E3,2.5588406E3,5.122712E3,1.1267716E3,1.1318271E3,1.5212194E3,2.80042E2,2.2787986E3,2.6647522E3,2.4579595E3,8.1263165E2,3.1413995E2],"tree_param":{"num_deleted":"0","num_feature":"22","num_nodes":"15","size_leaf_vector":"1"}},{"base_weights":[3.145335E-2,2.7835864E-1,-2.0978838E-1,1.4730715E-2,3.4545627E-1,-1.5175387E-1,-6.164694E-1,1.1787006E-2,-7.7479924E-3,2.745782E-2,1.2628406E-2,-1.7082442E-2,3.1604883E-5,-2.5863612E-2,-5.0183546E-2],"categories":[],"categories_nodes":[],"categories_segments":[],"categories_sizes":[],"default_left":[0,0,0,0,0,0,0,0,0,0,0,0,0,0,0],"id":26,"left_children":[1,3,5,7,9,11,13,-1,-1,-1,-1,-1,-1,-1,-1],"loss_changes":[6.813784E2,9.9546265E1,1.3389436E2,3.1186634E1,6.558502E1,1.03364746E2,2.062564E1,0E0,0E0,0E0,0E0,0E0,0E0,0E0,0E0],"parents":[2147483647,0,0,1,1,2,2,3,3,4,4,5,5,6,6],"right_children":[2,4,6,8,10,12,14,-1,-1,-1,-1,-1,-1,-1,-1],"split_conditions":[3.3333334E-1,-6.518912E-1,7.5E0,-3.3678132E-4,-2.8885575E-4,2.126958E0,1.25E1,1.1787006E-2,-7.7479924E-3,2.745782E-2,1.2628406E-2,-1.7082442E-2,3.1604883E-5,-2.5863612E-2,-5.0183546E-2],"split_indices":[20,0,2,1,1,1,2,0,0,0,0,0,0,0,0],"split_type":[0,0,0,0,0,0,0,0,0,0,0,0,0,0,0],"sum_hessian":[1.1398701E4,5.6337534E3,5.7649473E3,1.1509487E3,4.4828047E3,5.071196E3,6.9375183E2,5.0840527E2,6.4254346E2,2.4180947E3,2.0647102E3,2.7016272E3,2.3695684E3,4.110004E2,2.827514E2],"tree_param":{"num_deleted":"0","num_feature":"22","num_nodes":"15","size_leaf_vector":"1"}},{"base_weights":[2.680164E-2,2.0407191E-1,-2.6998103E-1,3.4484494E-1,5.2390475E-2,-6.1601526E-1,-1.9555539E-1,2.0167944E-3,2.2924395E-2,-1.3957599E-3,1.664215E-2,-9.968553E-3,-4.0615734E-2,-7.831118E-3,-3.096666E-2],"categories":[],"categories_nodes":[],"categories_segments":[],"categories_sizes":[],"default_left":[0,0,0,0,0,0,0,0,0,0,0,0,0,0,0],"id":27,"left_children":[1,3,5,7,9,11,13,-1,-1,-1,-1,-1,-1,-1,-1],"loss_changes":[5.987184E2,1.5139536E2,1.0635391E2,4.20679E1,5.9222305E1,1.7225708E1,7.1667114E1,0E0,0E0,0E0,0E0,0E0,0E0,0E0,0E0],"parents":[2147483647,0,0,1,1,2,2,3,3,4,4,5,5,6,6],"right_children":[2,4,6,8,10,12,14,-1,-1,-1,-1,-1,-1,-1,-1],"split_conditions":[1E0,0E0,-8.0180824E-1,-8.253082E-1,3.9593944E-1,1.1538461E0,7.5E0,2.0167944E-3,2.2924395E-2,-1.3957599E-3,1.664215E-2,-9.968553E-3,-4.0615734E-2,-7.831118E-3,-3.096666E-2],"split_indices":[4,3,0,0,0,3,2,0,0,0,0,0,0,0,0],"split_type":[0,0,0,0,0,0,0,0,0,0,0,0,0,0,0],"sum_hessian":[1.1340463E4,7.105761E3,4.234701E3,3.6687717E3,3.4369893E3,7.214446E2,3.5132568E3,3.9889514E2,3.2698767E3,2.5821738E3,8.5481537E2,9.688389E1,6.2456067E2,2.9466758E3,5.665811E2],"tree_param":{"num_deleted":"0","num_feature":"22","num_nodes":"15","size_leaf_vector":"1"}},{"base_weights":[3.1405095E-2,3.0315635E-1,-1.5479326E-1,1.3837531E-1,4.1943792E-1,-1.0664513E-2,-3.2643652E-1,-1.4057792E-2,1.1735988E-2,2.0750308E-2,3.284424E-2,-4.608644E-3,1.0888091E-2,-1.655152E-2,-4.8237633E-2],"categories":[],"categories_nodes":[],"categories_segments":[],"categories_sizes":[],"default_left":[0,0,0,0,0,0,0,0,0,0,0,0,0,0,0],"id":28,"left_children":[1,3,5,7,9,11,13,-1,-1,-1,-1,-1,-1,-1,-1],"loss_changes":[5.725434E2,8.6438416E1,1.6566008E2,4.2183647E1,2.0598877E1,4.685011E1,6.8392944E1,0E0,0E0,0E0,0E0,0E0,0E0,0E0,0E0],"parents":[2147483647,0,0,1,1,2,2,3,3,4,4,5,5,6,6],"right_children":[2,4,6,8,10,12,14,-1,-1,-1,-1,-1,-1,-1,-1],"split_conditions":[5E-1,-2.6451874E-1,2E0,-8.9369553E-1,6.2236494E-1,3.846831E-1,1.3E1,-1.4057792E-2,1.1735988E-2,2.0750308E-2,3.284424E-2,-4.608644E-3,1.0888091E-2,-1.655152E-2,-4.8237633E-2],"split_indices":[2,0,2,0,0,0,2,0,0,0,0,0,0,0,0],"split_type":[0,0,0,0,0,0,0,0,0,0,0,0,0,0,0],"sum_hessian":[1.12736875E4,4.58086E3,6.692828E3,1.9168776E3,2.6639822E3,3.6527146E3,3.0401135E3,2.4459596E2,1.6722816E3,1.7432327E3,9.207496E2,2.7300422E3,9.226725E2,2.7793782E3,2.607353E2],"tree_param":{"num_deleted":"0","num_feature":"22","num_nodes":"15","size_leaf_vector":"1"}},{"base_weights":[3.0246682E-2,2.8955078E-1,-1.36501E-1,1.4154294E-1,4.1408873E-1,3.2975413E-2,-2.710065E-1,-1.3468199E-2,1.1153537E-2,2.0474263E-2,3.1195628E-2,-4.9310746E-3,1.3180513E-2,-3.1464E-2,-1.0657584E-2],"categories":[],"categories_nodes":[],"categories_segments":[],"categories_sizes":[],"default_left":[0,0,0,0,0,0,0,0,0,0,0,0,0,0,0],"id":29,"left_children":[1,3,5,7,9,11,13,-1,-1,-1,-1,-1,-1,-1,-1],"loss_changes":[4.8635794E2,7.942282E1,1.5642737E2,3.4003883E1,1.3916473E1,6.5920425E1,8.7849304E1,0E0,0E0,0E0,0E0,0E0,0E0,0E0,0E0],"parents":[2147483647,0,0,1,1,2,2,3,3,4,4,5,5,6,6],"right_children":[2,4,6,8,10,12,14,-1,-1,-1,-1,-1,-1,-1,-1],"split_conditions":[8.978492E-3,-1.9015469E-1,1.1428572E0,-8.983276E-1,6.1649793E-1,1.3606776E0,-6.2690496E-1,-1.3468199E-2,1.1153537E-2,2.0474263E-2,3.1195628E-2,-4.9310746E-3,1.3180513E-2,-3.1464E-2,-1.0657584E-2],"split_indices":[1,0,4,0,0,1,0,0,0,0,0,0,0,0,0],"split_type":[0,0,0,0,0,0,0,0,0,0,0,0,0,0,0],"sum_hessian":[1.1206478E4,4.3825615E3,6.8239165E3,2.0257764E3,2.356785E3,3.0228276E3,3.8010886E3,2.0771748E2,1.818059E3,1.4515684E3,9.0521674E2,1.8732261E3,1.1496017E3,9.9582446E2,2.8052642E3],"tree_param":{"num_deleted":"0","num_feature":"22","num_nodes":"15","size_leaf_vector":"1"}},{"base_weights":[2.9291712E-2,2.5574836E-1,-1.4984767E-1,3.70405E-1,1.4829354E-1,-2.5534314E-1,4.4513285E-2,1.4482072E-2,2.8115457E-2,-9.155056E-3,1.1335087E-2,-9.831012E-3,-2.97474E-2,6.8239933E-3,-1.0675011E-2],"categories":[],"categories_nodes":[],"categories_segments":[],"categories_sizes":[],"default_left":[0,0,0,0,0,0,0,0,0,0,0,0,0,0,0],"id":30,"left_children":[1,3,5,7,9,11,13,-1,-1,-1,-1,-1,-1,-1,-1],"loss_changes":[4.5443533E2,5.9343414E1,1.2864192E2,2.712973E1,3.2295464E1,8.70123E1,3.442046E1,0E0,0E0,0E0,0E0,0E0,0E0,0E0,0E0],"parents":[2147483647,0,0,1,1,2,2,3,3,4,4,5,5,6,6],"right_children":[2,4,6,8,10,12,14,-1,-1,-1,-1,-1,-1,-1,-1],"split_conditions":[2.857143E-1,-3.4355343E-4,9.451647E-2,-1.9510521E-1,-8.2042134E-1,4E0,2.1E1,1.4482072E-2,2.8115457E-2,-9.155056E-3,1.1335087E-2,-9.831012E-3,-2.97474E-2,6.8239933E-3,-1.0675011E-2],"split_indices":[4,1,0,0,0,2,6,0,0,0,0,0,0,0,0],"split_type":[0,0,0,0,0,0,0,0,0,0,0,0,0,0,0],"sum_hessian":[1.1160504E4,4.927942E3,6.2325625E3,2.3558992E3,2.5720425E3,4.0390906E3,2.1934722E3,1.0523021E3,1.303597E3,2.9648087E2,2.2755618E3,2.9531638E3,1.0859266E3,1.6837583E3,5.0971378E2],"tree_param":{"num_deleted":"0","num_feature":"22","num_nodes":"15","size_leaf_vector":"1"}},{"base_weights":[2.2422206E-2,2.797536E-1,-1.2649262E-1,3.4734902E-1,1.5565045E-1,-4.2446073E-2,-3.402248E-1,2.120833E-2,3.2988775E-3,1.0410653E-2,-9.453894E-3,-8.164494E-3,7.06524E-3,-1.6740285E-2,-4.4735543E-2],"categories":[],"categories_nodes":[],"categories_segments":[],"categories_sizes":[],"default_left":[0,0,0,0,0,0,0,0,0,0,0,0,0,0,0],"id":31,"left_children":[1,3,5,7,9,11,13,-1,-1,-1,-1,-1,-1,-1,-1],"loss_changes":[4.2679944E2,3.2668E1,1.2600806E2,3.8966064E0,8.8488655E0,7.665348E1,4.4056152E1,0E0,0E0,0E0,0E0,0E0,0E0,0E0,0E0],"parents":[2147483647,0,0,1,1,2,2,3,3,4,4,5,5,6,6],"right_children":[2,4,6,8,10,12,14,-1,-1,-1,-1,-1,-1,-1,-1],"split_conditions":[2.2496367E-3,-1.7921147E-3,7.3333335E0,3.772462E0,8.095238E-1,2.126958E0,1.3E1,2.120833E-2,3.2988775E-3,1.0410653E-2,-9.453894E-3,-8.164494E-3,7.06524E-3,-1.6740285E-2,-4.4735543E-2],"split_indices":[1,21,5,11,14,1,2,0,0,0,0,0,0,0,0],"split_type":[0,0,0,0,0,0,0,0,0,0,0,0,0,0,0],"sum_hessian":[1.109517E4,4.0630989E3,7.032071E3,2.6018892E3,1.4612097E3,5.0678687E3,1.9642025E3,2.5410703E3,6.081891E1,1.3938422E3,6.736753E1,3.2043452E3,1.8635233E3,1.7379617E3,2.262408E2],"tree_param":{"num_deleted":"0","num_feature":"22","num_nodes":"15","size_leaf_vector":"1"}},{"base_weights":[2.2046309E-2,2.3332384E-1,-1.4207187E-1,1.2377434E-1,3.3553612E-1,-8.038101E-2,-4.087674E-1,1.1417697E-2,-1.8048884E-3,2.5465438E-2,1.2938823E-2,-1.0241626E-2,4.3248693E-3,-1.9000225E-2,-4.486903E-2],"categories":[],"categories_nodes":[],"categories_segments":[],"categories_sizes":[],"default_left":[0,0,0,0,0,0,0,0,0,0,0,0,0,0,0],"id":32,"left_children":[1,3,5,7,9,11,13,-1,-1,-1,-1,-1,-1,-1,-1],"loss_changes":[3.8362347E2,5.287784E1,1.0125917E2,2.4544899E1,2.4023865E1,7.033246E1,3.0462952E1,0E0,0E0,0E0,0E0,0E0,0E0,0E0,0E0],"parents":[2147483647,0,0,1,1,2,2,3,3,4,4,5,5,6,6],"right_children":[2,4,6,8,10,12,14,-1,-1,-1,-1,-1,-1,-1,-1],"split_conditions":[2.857143E-1,-1.5510114E-1,7.6666665E0,0E0,-3.0917203E-4,2.46142E0,1.35E1,1.1417697E-2,-1.8048884E-3,2.5465438E-2,1.2938823E-2,-1.0241626E-2,4.3248693E-3,-1.9000225E-2,-4.486903E-2],"split_indices":[4,0,16,3,1,1,2,0,0,0,0,0,0,0,0],"split_type":[0,0,0,0,0,0,0,0,0,0,0,0,0,0,0],"sum_hessian":[1.1021815E4,4.8175728E3,6.2042427E3,2.3513914E3,2.4661814E3,5.062893E3,1.1413492E3,1.6428547E3,7.085366E2,1.3822289E3,1.0839525E3,3.182104E3,1.8807893E3,9.3028326E2,2.1106596E2],"tree_param":{"num_deleted":"0","num_feature":"22","num_nodes":"15","size_leaf_vector":"1"}},{"base_weights":[1.8853819E-2,1.7601694E-1,-1.7368925E-1,1.08837284E-1,3.5831E-1,-5.1181126E-1,-1.2165477E-1,1.2837197E-2,-1.1053492E-3,2.529608E-2,1.2615536E-2,-1.5523363E-2,-3.7566114E-2,-1.0963172E-2,4.5972187E-3],"categories":[],"categories_nodes":[],"categories_segments":[],"categories_sizes":[],"default_left":[0,0,0,0,0,0,0,0,0,0,0,0,0,0,0],"id":33,"left_children":[1,3,5,7,9,11,13,-1,-1,-1,-1,-1,-1,-1,-1],"loss_changes":[3.3424356E2,7.324892E1,8.542433E1,6.0173267E1,1.2825485E1,1.4763489E1,5.280127E1,0E0,0E0,0E0,0E0,0E0,0E0,0E0,0E0],"parents":[2147483647,0,0,1,1,2,2,3,3,4,4,5,5,6,6],"right_children":[2,4,6,8,10,12,14,-1,-1,-1,-1,-1,-1,-1,-1],"split_conditions":[5.3846157E-1,4.0090412E-1,-8.347244E-1,0E0,4.479556E-2,2.142857E0,4E-1,1.2837197E-2,-1.1053492E-3,2.529608E-2,1.2615536E-2,-1.5523363E-2,-3.7566114E-2,-1.0963172E-2,4.5972187E-3],"split_indices":[3,0,0,3,1,4,15,0,0,0,0,0,0,0,0],"split_type":[0,0,0,0,0,0,0,0,0,0,0,0,0,0,0],"sum_hessian":[1.1005196E4,6.0631035E3,4.9420933E3,4.4577393E3,1.6053643E3,6.329862E2,4.309107E3,2.438107E3,2.0196321E3,1.0939823E3,5.1138187E2,2.1994893E2,4.1303726E2,3.2995303E3,1.0095767E3],"tree_param":{"num_deleted":"0","num_feature":"22","num_nodes":"15","size_leaf_vector":"1"}},{"base_weights":[2.070875E-2,1.4799248E-1,-2.0004316E-1,3.0859903E-1,6.965486E-2,-5.728285E-1,-1.4150268E-1,6.6815065E-3,2.2066802E-2,1.2613955E-3,1.9613395E-2,-4.622269E-2,-2.3498971E-2,-6.029874E-3,-3.1149533E-2],"categories":[],"categories_nodes":[],"categories_segments":[],"categories_sizes":[],"default_left":[0,0,0,0,0,0,0,0,0,0,0,0,0,0,0],"id":34,"left_children":[1,3,5,7,9,11,13,-1,-1,-1,-1,-1,-1,-1,-1],"loss_changes":[3.0878912E2,8.691913E1,8.534398E1,2.5269012E1,5.8519676E1,1.2002991E1,5.2557434E1,0E0,0E0,0E0,0E0,0E0,0E0,0E0,0E0],"parents":[2147483647,0,0,1,1,2,2,3,3,4,4,5,5,6,6],"right_children":[2,4,6,8,10,12,14,-1,-1,-1,-1,-1,-1,-1,-1],"split_conditions":[1.1428572E0,-3.383441E-4,-8.347244E-1,-5.938189E-1,6.57875E-1,1.95673E0,1.05E1,6.6815065E-3,2.2066802E-2,1.2613955E-3,1.9613395E-2,-4.622269E-2,-2.3498971E-2,-6.029874E-3,-3.1149533E-2],"split_indices":[4,1,0,0,0,1,2,0,0,0,0,0,0,0,0],"split_type":[0,0,0,0,0,0,0,0,0,0,0,0,0,0,0],"sum_hessian":[1.095045E4,6.952701E3,3.9977485E3,2.2559785E3,4.6967227E3,5.164179E2,3.4813308E3,5.378714E2,1.718107E3,3.9714265E3,7.252964E2,2.1329271E2,3.031252E2,3.1655906E3,3.1574014E2],"tree_param":{"num_deleted":"0","num_feature":"22","num_nodes":"15","size_leaf_vector":"1"}},{"base_weights":[2.0612266E-2,2.4056298E-1,-1.0160131E-1,-2.3515686E-1,2.675359E-1,-3.7753496E-1,-5.138031E-2,8.3700876E-4,-3.0054005E-2,1.0311915E-2,2.0850962E-2,-1.2379866E-2,-3.264725E-2,1.7712262E-3,-1.2116802E-2],"categories":[],"categories_nodes":[],"categories_segments":[],"categories_sizes":[],"default_left":[0,0,0,0,0,0,0,0,0,0,0,0,0,0,0],"id":35,"left_children":[1,3,5,7,9,11,13,-1,-1,-1,-1,-1,-1,-1,-1],"loss_changes":[2.9416336E2,5.1451538E1,9.661144E1,1.5085079E1,2.6680023E1,2.770198E1,7.306408E1,0E0,0E0,0E0,0E0,0E0,0E0,0E0,0E0],"parents":[2147483647,0,0,1,1,2,2,3,3,4,4,5,5,6,6],"right_children":[2,4,6,8,10,12,14,-1,-1,-1,-1,-1,-1,-1,-1],"split_conditions":[2.2496367E-3,-8.983276E-1,-8.0180824E-1,-3.310511E-4,-1.5510114E-1,2.142857E0,2.5E0,8.3700876E-4,-3.0054005E-2,1.0311915E-2,2.0850962E-2,-1.2379866E-2,-3.264725E-2,1.7712262E-3,-1.2116802E-2],"split_indices":[1,0,0,1,0,4,2,0,0,0,0,0,0,0,0],"split_type":[0,0,0,0,0,0,0,0,0,0,0,0,0,0,0],"sum_hessian":[1.089983E4,3.889185E3,7.010645E3,1.9840942E2,3.6907756E3,1.0563557E3,5.9542896E3,1.102492E2,8.8160225E1,1.7149124E3,1.9758633E3,5.459974E2,5.103584E2,3.8793271E3,2.0749622E3],"tree_param":{"num_deleted":"0","num_feature":"22","num_nodes":"15","size_leaf_vector":"1"}},{"base_weights":[2.0196768E-2,2.2718365E-1,-9.3415216E-2,1.0622677E-1,3.3576098E-1,3.7171547E-3,-2.2315666E-1,-1.126443E-2,8.638458E-3,1.7119417E-2,2.7432015E-2,-5.4492415E-3,1.4130824E-2,-3.6471345E-2,-8.485739E-3],"categories":[],"categories_nodes":[],"categories_segments":[],"categories_sizes":[],"default_left":[0,0,0,0,0,0,0,0,0,0,0,0,0,0,0],"id":36,"left_children":[1,3,5,7,9,11,13,-1,-1,-1,-1,-1,-1,-1,-1],"loss_changes":[2.5603256E2,4.9522766E1,8.876547E1,2.11247E1,9.020142E0,8.894133E1,9.224184E1,0E0,0E0,0E0,0E0,0E0,0E0,0E0,0E0],"parents":[2147483647,0,0,1,1,2,2,3,3,4,4,5,5,6,6],"right_children":[2,4,6,8,10,12,14,-1,-1,-1,-1,-1,-1,-1,-1],"split_conditions":[2.2496367E-3,-1.7873202E-1,2E0,-8.983276E-1,7.204271E-1,1.8036734E0,1.5077851E0,-1.126443E-2,8.638458E-3,1.7119417E-2,2.7432015E-2,-5.4492415E-3,1.4130824E-2,-3.6471345E-2,-8.485739E-3],"split_indices":[1,0,2,0,0,1,1,0,0,0,0,0,0,0,0],"split_type":[0,0,0,0,0,0,0,0,0,0,0,0,0,0,0],"sum_hessian":[1.0843764E4,3.838785E3,7.004979E3,1.8389464E3,1.9998384E3,4.012612E3,2.992367E3,1.9720505E2,1.6417413E3,1.4661339E3,5.3370447E2,2.8557493E3,1.1568628E3,4.9962094E2,2.492746E3],"tree_param":{"num_deleted":"0","num_feature":"22","num_nodes":"15","size_leaf_vector":"1"}},{"base_weights":[2.1545053E-2,2.4611038E-1,-7.505479E-2,2.8474315E-3,2.856648E-1,-1.3699046E-1,1.3791332E-1,4.673418E-3,-1.2292122E-2,1.449509E-2,2.4982076E-2,-6.2297205E-3,-3.3627555E-2,2.0646644E-3,1.5283552E-2],"categories":[],"categories_nodes":[],"categories_segments":[],"categories_sizes":[],"default_left":[0,0,0,0,0,0,0,0,0,0,0,0,0,0,0],"id":37,"left_children":[1,3,5,7,9,11,13,-1,-1,-1,-1,-1,-1,-1,-1],"loss_changes":[2.3470087E2,3.10103E1,1.000932E2,7.6571574E0,1.3436722E1,8.060778E1,2.020462E1,0E0,0E0,0E0,0E0,0E0,0E0,0E0,0E0],"parents":[2147483647,0,0,1,1,2,2,3,3,4,4,5,5,6,6],"right_children":[2,4,6,8,10,12,14,-1,-1,-1,-1,-1,-1,-1,-1],"split_conditions":[0E0,-8.0180824E-1,4.0090412E-1,2.7732402E-1,6.1649793E-1,7E0,7.345179E-1,4.673418E-3,-1.2292122E-2,1.449509E-2,2.4982076E-2,-6.2297205E-3,-3.3627555E-2,2.0646644E-3,1.5283552E-2],"split_indices":[3,0,0,11,0,18,0,0,0,0,0,0,0,0,0],"split_type":[0,0,0,0,0,0,0,0,0,0,0,0,0,0,0],"sum_hessian":[1.0774294E4,3.234488E3,7.539806E3,4.5890518E2,2.775583E3,5.8502573E3,1.6895488E3,3.498333E2,1.09071846E2,2.1239075E3,6.516754E2,5.4506807E3,3.9957678E2,9.1407837E2,7.7547046E2],"tree_param":{"num_deleted":"0","num_feature":"22","num_nodes":"15","size_leaf_vector":"1"}},{"base_weights":[1.9446246E-2,1.6463996E-1,-1.08874075E-1,-5.191682E-2,2.2599731E-1,-2.0787331E-1,4.5534554E-3,5.978562E-3,-9.247794E-3,1.5682273E-2,2.2852998E-3,-2.1872653E-2,-4.658559E-3,-3.2348621E-3,9.586171E-3],"categories":[],"categories_nodes":[],"categories_segments":[],"categories_sizes":[],"default_left":[0,0,0,0,0,0,0,0,0,0,0,0,0,0,0],"id":38,"left_children":[1,3,5,7,9,11,13,-1,-1,-1,-1,-1,-1,-1,-1],"loss_changes":[2.0174121E2,6.792476E1,6.472993E1,1.7936434E1,2.5868652E1,6.1681763E1,2.4709162E1,0E0,0E0,0E0,0E0,0E0,0E0,0E0,0E0],"parents":[2147483647,0,0,1,1,2,2,3,3,4,4,5,5,6,6],"right_children":[2,4,6,8,10,12,14,-1,-1,-1,-1,-1,-1,-1,-1],"split_conditions":[3.3333334E-1,-6.518912E-1,-1.7327547E-1,-7.692308E-2,6.2383497E-1,1.8036734E0,6.6441786E-1,5.978562E-3,-9.247794E-3,1.5682273E-2,2.2852998E-3,-2.1872653E-2,-4.658559E-3,-3.2348621E-3,9.586171E-3],"split_indices":[20,0,0,3,17,1,0,0,0,0,0,0,0,0,0],"split_type":[0,0,0,0,0,0,0,0,0,0,0,0,0,0,0],"sum_hessian":[1.0785843E4,5.061226E3,5.724616E3,1.1144891E3,3.9467373E3,3.0525352E3,2.6720813E3,4.4514963E2,6.693395E2,3.3104111E3,6.36326E2,1.3657905E3,1.6867446E3,1.9457526E3,7.263287E2],"tree_param":{"num_deleted":"0","num_feature":"22","num_nodes":"15","size_leaf_vector":"1"}},{"base_weights":[2.1579295E-2,1.1403056E-1,-1.9728623E-1,6.94396E-2,3.1866872E-1,-4.979333E-1,-1.4393751E-1,-1.5655717E-2,5.6804186E-3,2.5028972E-2,1.1275637E-2,-2.289075E-2,-4.2934038E-2,-1.1046054E-2,9.024623E-3],"categories":[],"categories_nodes":[],"categories_segments":[],"categories_sizes":[],"default_left":[0,0,0,0,0,0,0,0,0,0,0,0,0,0,0],"id":39,"left_children":[1,3,5,7,9,11,13,-1,-1,-1,-1,-1,-1,-1,-1],"loss_changes":[2.1796916E2,6.830363E1,4.9213676E1,5.243451E1,1.5156754E1,5.3756332E0,3.3059982E1,0E0,0E0,0E0,0E0,0E0,0E0,0E0,0E0],"parents":[2147483647,0,0,1,1,2,2,3,3,4,4,5,5,6,6],"right_children":[2,4,6,8,10,12,14,-1,-1,-1,-1,-1,-1,-1,-1],"split_conditions":[2.3333333E0,6.2236494E-1,-8.253082E-1,-8.9369553E-1,1.1856109E-2,2.8833137E0,6.25E-1,-1.5655717E-2,5.6804186E-3,2.5028972E-2,1.1275637E-2,-2.289075E-2,-4.2934038E-2,-1.1046054E-2,9.024623E-3],"split_indices":[16,0,0,0,1,11,15,0,0,0,0,0,0,0,0],"split_type":[0,0,0,0,0,0,0,0,0,0,0,0,0,0,0],"sum_hessian":[1.073409E4,7.5563506E3,3.177739E3,6.230408E3,1.3259421E3,4.5095615E2,2.7267827E3,4.260505E2,5.804358E3,7.2692505E2,5.99017E2,3.32659E2,1.1829717E2,2.4089702E3,3.178125E2],"tree_param":{"num_deleted":"0","num_feature":"22","num_nodes":"15","size_leaf_vector":"1"}},{"base_weights":[2.0037798E-2,1.9572821E-1,-7.027392E-2,-1.5008351E-1,2.1650605E-1,-3.880182E-2,-4.4481078E-1,3.3982506E-4,-2.308527E-2,1.0155834E-2,2.0472499E-2,-7.465082E-3,5.640312E-3,-2.9537112E-2,1.4251777E-3],"categories":[],"categories_nodes":[],"categories_segments":[],"categories_sizes":[],"default_left":[0,0,0,0,0,0,0,0,0,0,0,0,0,0,0],"id":40,"left_children":[1,3,5,7,9,11,13,-1,-1,-1,-1,-1,-1,-1,-1],"loss_changes":[1.7030402E2,2.6903458E1,8.2667206E1,8.304709E0,1.8652786E1,7.484021E1,1.2819252E1,0E0,0E0,0E0,0E0,0E0,0E0,0E0,0E0],"parents":[2147483647,0,0,1,1,2,2,3,3,4,4,5,5,6,6],"right_children":[2,4,6,8,10,12,14,-1,-1,-1,-1,-1,-1,-1,-1],"split_conditions":[1.397395E-3,-8.983276E-1,6.6666665E0,-2.9562783E-4,4.259717E-1,2.46142E0,6.6441786E-1,3.3982506E-4,-2.308527E-2,1.0155834E-2,2.0472499E-2,-7.465082E-3,5.640312E-3,-2.9537112E-2,1.4251777E-3],"split_indices":[1,0,18,1,0,1,0,0,0,0,0,0,0,0,0],"split_type":[0,0,0,0,0,0,0,0,0,0,0,0,0,0,0],"sum_hessian":[1.0688043E4,3.6245845E3,7.063458E3,1.9565451E2,3.42893E3,6.538753E3,5.2470544E2,1.2677323E2,6.888128E1,2.526832E3,9.020978E2,3.9810784E3,2.5576743E3,4.7745215E2,4.7253284E1],"tree_param":{"num_deleted":"0","num_feature":"22","num_nodes":"15","size_leaf_vector":"1"}},{"base_weights":[2.1319175E-2,1.06602356E-1,-1.9819362E-1,-2.693709E-1,1.284502E-1,-3.018423E-1,-4.8636783E-2,-5.6107286E-3,-2.2096982E-2,1.1243819E-2,1.5895338E-4,-1.5143015E-2,-3.50774E-2,-1.0925403E-3,-2.4279095E-2],"categories":[],"categories_nodes":[],"categories_segments":[],"categories_sizes":[],"default_left":[0,0,0,0,0,0,0,0,0,0,0,0,0,0,0],"id":41,"left_children":[1,3,5,7,9,11,13,-1,-1,-1,-1,-1,-1,-1,-1],"loss_changes":[2.002588E2,6.3862923E1,4.57341E1,6.2810097E0,5.3936356E1,2.0818573E1,1.2997821E1,0E0,0E0,0E0,0E0,0E0,0E0,0E0,0E0],"parents":[2147483647,0,0,1,1,2,2,3,3,4,4,5,5,6,6],"right_children":[2,4,6,8,10,12,14,-1,-1,-1,-1,-1,-1,-1,-1],"split_conditions":[2E0,-8.983276E-1,-3.3199307E-2,-2.4023857E-2,6.99342E-1,1.1E1,9E0,-5.6107286E-3,-2.2096982E-2,1.1243819E-2,1.5895338E-4,-1.5143015E-2,-3.50774E-2,-1.0925403E-3,-2.4279095E-2],"split_indices":[2,0,0,12,17,2,18,0,0,0,0,0,0,0,0],"split_type":[0,0,0,0,0,0,0,0,0,0,0,0,0,0,0],"sum_hessian":[1.0659479E4,7.687602E3,2.9718767E3,4.07236E2,7.280366E3,1.7393727E3,1.2325039E3,1.6424251E2,2.4299348E2,4.9453657E3,2.3350005E3,1.5156672E3,2.2370546E2,1.1574141E3,7.508976E1],"tree_param":{"num_deleted":"0","num_feature":"22","num_nodes":"15","size_leaf_vector":"1"}},{"base_weights":[1.419149E-2,1.0410025E-1,-1.5530692E-1,1.6184904E-1,-2.322321E-2,-3.9845446E-1,-6.573499E-2,5.500521E-4,1.2747281E-2,-5.387363E-3,1.0300653E-2,-2.9165905E-2,-2.662964E-4,1.7694603E-3,-2.2253126E-2],"categories":[],"categories_nodes":[],"categories_segments":[],"categories_sizes":[],"default_left":[0,0,0,0,0,0,0,0,0,0,0,0,0,0,0],"id":42,"left_children":[1,3,5,7,9,11,13,-1,-1,-1,-1,-1,-1,-1,-1],"loss_changes":[1.6246956E2,5.1464348E1,7.944397E1,3.6851562E1,2.8600561E1,3.3559494E1,7.9767334E1,0E0,0E0,0E0,0E0,0E0,0E0,0E0,0E0],"parents":[2147483647,0,0,1,1,2,2,3,3,4,4,5,5,6,6],"right_children":[2,4,6,8,10,12,14,-1,-1,-1,-1,-1,-1,-1,-1],"split_conditions":[1.5E0,5.673775E-1,1.8036734E0,-5.9864205E-1,1.5077851E0,4.1295666E-1,7.5E0,5.500521E-4,1.2747281E-2,-5.387363E-3,1.0300653E-2,-2.9165905E-2,-2.662964E-4,1.7694603E-3,-2.2253126E-2],"split_indices":[2,12,1,0,1,0,2,0,0,0,0,0,0,0,0],"split_type":[0,0,0,0,0,0,0,0,0,0,0,0,0,0,0],"sum_hessian":[1.0623299E4,6.950233E3,3.673066E3,4.783198E3,2.167035E3,9.672593E2,2.7058066E3,1.201514E3,3.581684E3,1.6272E3,5.398349E2,7.8535486E2,1.8190442E2,2.0735269E3,6.3227985E2],"tree_param":{"num_deleted":"0","num_feature":"22","num_nodes":"15","size_leaf_vector":"1"}},{"base_weights":[7.7816327E-3,8.197444E-2,-1.8178433E-1,2.2281845E-1,3.122533E-2,-5.2129257E-1,-1.0936988E-1,8.1932265E-3,1.772591E-2,-6.1257055E-4,1.5263525E-2,-3.9047096E-2,-9.249066E-3,-3.1685869E-3,-3.4240894E-2],"categories":[],"categories_nodes":[],"categories_segments":[],"categories_sizes":[],"default_left":[0,0,0,0,0,0,0,0,0,0,0,0,0,0,0],"id":43,"left_children":[1,3,5,7,9,11,13,-1,-1,-1,-1,-1,-1,-1,-1],"loss_changes":[1.4928566E2,5.4187603E1,7.159632E1,1.1377892E1,5.2466557E1,2.1761826E1,6.367251E1,0E0,0E0,0E0,0E0,0E0,0E0,0E0,0E0],"parents":[2147483647,0,0,1,1,2,2,3,3,4,4,5,5,6,6],"right_children":[2,4,6,8,10,12,14,-1,-1,-1,-1,-1,-1,-1,-1],"split_conditions":[2E0,-3.4355343E-4,1.5077851E0,-1.9015469E-1,2.46142E0,1.10833034E-1,1.25E1,8.1932265E-3,1.772591E-2,-6.1257055E-4,1.5263525E-2,-3.9047096E-2,-9.249066E-3,-3.1685869E-3,-3.4240894E-2],"split_indices":[2,1,1,0,1,0,2,0,0,0,0,0,0,0,0],"split_type":[0,0,0,0,0,0,0,0,0,0,0,0,0,0,0],"sum_hessian":[1.0580317E4,7.616125E3,2.964192E3,1.9941749E3,5.62195E3,4.9687177E2,2.46732E3,9.4403925E2,1.0501357E3,4.7539077E3,8.680426E2,3.5388116E2,1.4299062E2,2.2196343E3,2.4768573E2],"tree_param":{"num_deleted":"0","num_feature":"22","num_nodes":"15","size_leaf_vector":"1"}},{"base_weights":[1.00131985E-2,1.3142928E-1,-9.3589224E-2,1.6766596E-1,-4.6816703E-2,-6.5178275E-2,-3.7876016E-1,1.049097E-2,-7.002785E-3,-6.8488587E-3,1.2670314E-2,-1.1558564E-2,2.0505162E-3,-8.446261E-3,-3.058219E-2],"categories":[],"categories_nodes":[],"categories_segments":[],"categories_sizes":[],"default_left":[0,0,0,0,0,0,0,0,0,0,0,0,0,0,0],"id":44,"left_children":[1,3,5,7,9,11,13,-1,-1,-1,-1,-1,-1,-1,-1],"loss_changes":[1.3359822E2,3.1877693E1,4.5452835E1,8.790512E0,1.4933478E1,6.657888E1,1.3851929E1,0E0,0E0,0E0,0E0,0E0,0E0,0E0,0E0],"parents":[2147483647,0,0,1,1,2,2,3,3,4,4,5,5,6,6],"right_children":[2,4,6,8,10,12,14,-1,-1,-1,-1,-1,-1,-1,-1],"split_conditions":[3.3333334E-1,5.959018E-1,6.6666665E0,1.0611732E1,3.5714287E-1,1.5077851E0,9.666667E0,1.049097E-2,-7.002785E-3,-6.8488587E-3,1.2670314E-2,-1.1558564E-2,2.0505162E-3,-8.446261E-3,-3.058219E-2],"split_indices":[20,17,18,8,15,1,20,0,0,0,0,0,0,0,0],"split_type":[0,0,0,0,0,0,0,0,0,0,0,0,0,0,0],"sum_hessian":[1.0578169E4,4.8723433E3,5.7058257E3,4.0548137E3,8.1752966E2,5.2144043E3,4.9142166E2,3.965854E3,8.895968E1,6.602436E2,1.5728604E2,2.2802588E3,2.9341455E3,1.9185779E2,2.9956387E2],"tree_param":{"num_deleted":"0","num_feature":"22","num_nodes":"15","size_leaf_vector":"1"}},{"base_weights":[1.1590251E-2,1.6123784E-1,-6.736282E-2,6.653056E-2,2.4831127E-1,-2.9172468E-1,-2.6700012E-2,-1.0200563E-2,6.0045333E-3,1.2174799E-2,2.1633761E-2,-8.185496E-3,-2.7273761E-2,1.8276375E-3,-9.115069E-3],"categories":[],"categories_nodes":[],"categories_segments":[],"categories_sizes":[],"default_left":[0,0,0,0,0,0,0,0,0,0,0,0,0,0,0],"id":45,"left_children":[1,3,5,7,9,11,13,-1,-1,-1,-1,-1,-1,-1,-1],"loss_changes":[1.2527515E2,2.9563026E1,6.2780815E1,1.4453583E1,7.633606E0,2.4924469E1,4.241069E1,0E0,0E0,0E0,0E0,0E0,0E0,0E0,0E0],"parents":[2147483647,0,0,1,1,2,2,3,3,4,4,5,5,6,6],"right_children":[2,4,6,8,10,12,14,-1,-1,-1,-1,-1,-1,-1,-1],"split_conditions":[2.837767E-3,-1.9015469E-1,-8.0180824E-1,-8.983276E-1,7.136259E-1,2.142857E0,9E0,-1.0200563E-2,6.0045333E-3,1.2174799E-2,2.1633761E-2,-8.185496E-3,-2.7273761E-2,1.8276375E-3,-9.115069E-3],"split_indices":[1,0,0,0,0,4,6,0,0,0,0,0,0,0,0],"split_type":[0,0,0,0,0,0,0,0,0,0,0,0,0,0,0],"sum_hessian":[1.0556605E4,3.6431687E3,6.913437E3,1.7674882E3,1.8756804E3,1.0380111E3,5.875426E3,2.0571713E2,1.561771E3,1.3818711E3,4.9380942E2,5.532601E2,4.8475104E2,4.0388713E3,1.8365546E3],"tree_param":{"num_deleted":"0","num_feature":"22","num_nodes":"15","size_leaf_vector":"1"}},{"base_weights":[8.880993E-3,1.6753282E-1,-5.5408668E-2,-1.1810701E-2,1.9940421E-1,-4.0388986E-1,-3.1067483E-2,3.7976261E-3,-9.8189665E-3,1.27105415E-2,-1.0700603E-2,-1.8764033E-4,-2.7749462E-2,-3.637084E-3,1.2669824E-2],"categories":[],"categories_nodes":[],"categories_segments":[],"categories_sizes":[],"default_left":[0,0,0,0,0,0,0,0,0,0,0,0,0,0,0],"id":46,"left_children":[1,3,5,7,9,11,13,-1,-1,-1,-1,-1,-1,-1,-1],"loss_changes":[1.0740345E2,1.7597412E1,6.2790707E1,5.6958838E0,1.2935127E1,1.0877617E1,5.034846E1,0E0,0E0,0E0,0E0,0E0,0E0,0E0,0E0],"parents":[2147483647,0,0,1,1,2,2,3,3,4,4,5,5,6,6],"right_children":[2,4,6,8,10,12,14,-1,-1,-1,-1,-1,-1,-1,-1],"split_conditions":[0E0,-8.0180824E-1,-8.9369553E-1,-3.310511E-4,3.772462E0,1.5384616E-1,7.345179E-1,3.7976261E-3,-9.8189665E-3,1.27105415E-2,-1.0700603E-2,-1.8764033E-4,-2.7749462E-2,-3.637084E-3,1.2669824E-2],"split_indices":[3,0,0,1,11,3,0,0,0,0,0,0,0,0,0],"split_type":[0,0,0,0,0,0,0,0,0,0,0,0,0,0,0],"sum_hessian":[1.0480895E4,3.0176003E3,7.463294E3,4.5250763E2,2.5650925E3,4.642276E2,6.9990664E3,3.0615186E2,1.4635576E2,2.4943906E3,7.0702E1,6.408615E1,4.0014145E2,6.2551084E3,7.43958E2],"tree_param":{"num_deleted":"0","num_feature":"22","num_nodes":"15","size_leaf_vector":"1"}},{"base_weights":[1.5273247E-3,6.3672155E-2,-1.5671216E-1,3.3963475E-2,2.7152985E-1,-4.297798E-1,-9.1740824E-2,3.6186164E-3,-1.0324328E-2,2.1256607E-2,9.965512E-3,-3.7596963E-2,-1.1913997E-2,-2.4787483E-3,-3.307142E-2],"categories":[],"categories_nodes":[],"categories_segments":[],"categories_sizes":[],"default_left":[0,0,0,0,0,0,0,0,0,0,0,0,0,0,0],"id":47,"left_children":[1,3,5,7,9,11,13,-1,-1,-1,-1,-1,-1,-1,-1],"loss_changes":[1.0314332E2,4.6083443E1,5.1130928E1,3.6063877E1,6.469887E0,2.216008E1,5.493141E1,0E0,0E0,0E0,0E0,0E0,0E0,0E0,0E0],"parents":[2147483647,0,0,1,1,2,2,3,3,4,4,5,5,6,6],"right_children":[2,4,6,8,10,12,14,-1,-1,-1,-1,-1,-1,-1,-1],"split_conditions":[2E0,7.204271E-1,1.6569227E0,4E0,8.978492E-3,-2.809202E-1,1.3E1,3.6186164E-3,-1.0324328E-2,2.1256607E-2,9.965512E-3,-3.7596963E-2,-1.1913997E-2,-2.4787483E-3,-3.307142E-2],"split_indices":[2,0,1,5,1,0,2,0,0,0,0,0,0,0,0],"split_type":[0,0,0,0,0,0,0,0,0,0,0,0,0,0,0],"sum_hessian":[1.0457855E4,7.5220283E3,2.9358274E3,6.605934E3,9.1609393E2,5.397262E2,2.3961013E3,5.873819E3,7.321153E2,4.815175E2,4.3457648E2,2.7072516E2,2.69001E2,2.1807239E3,2.1537746E2],"tree_param":{"num_deleted":"0","num_feature":"22","num_nodes":"15","size_leaf_vector":"1"}},{"base_weights":[7.770895E-3,6.099419E-2,-1.6502836E-1,-1.9346659E-1,8.653212E-2,-3.0251342E-1,-9.002625E-2,7.7777886E-4,-1.5955018E-2,3.3995274E-3,1.6480356E-2,-2.2129169E-2,-3.2304702E-3,4.0458525E-3,-1.2644156E-2],"categories":[],"categories_nodes":[],"categories_segments":[],"categories_sizes":[],"default_left":[0,0,0,0,0,0,0,0,0,0,0,0,0,0,0],"id":48,"left_children":[1,3,5,7,9,11,13,-1,-1,-1,-1,-1,-1,-1,-1],"loss_changes":[9.645826E1,5.240555E1,2.4513947E1,1.1313606E1,4.0466965E1,1.33276825E1,3.1411453E1,0E0,0E0,0E0,0E0,0E0,0E0,0E0,0E0],"parents":[2147483647,0,0,1,1,2,2,3,3,4,4,5,5,6,6],"right_children":[2,4,6,8,10,12,14,-1,-1,-1,-1,-1,-1,-1,-1],"split_conditions":[7E0,-8.6106944E-1,2.3808103E0,-3.3209295E-4,7.136259E-1,3.846831E-1,4.3333335E0,7.7777886E-4,-1.5955018E-2,3.3995274E-3,1.6480356E-2,-2.2129169E-2,-3.2304702E-3,4.0458525E-3,-1.2644156E-2],"split_indices":[6,0,1,1,0,0,20,0,0,0,0,0,0,0,0],"split_type":[0,0,0,0,0,0,0,0,0,0,0,0,0,0,0],"sum_hessian":[1.0457498E4,8.0093066E3,2.4481912E3,7.14941E2,7.2943657E3,8.3802356E2,1.6101676E3,1.8641533E2,5.2852563E2,6.3219E3,9.7246594E2,6.508076E2,1.8721596E2,6.989633E2,9.112043E2],"tree_param":{"num_deleted":"0","num_feature":"22","num_nodes":"15","size_leaf_vector":"1"}},{"base_weights":[1.0848851E-2,1.2704949E-1,-6.122992E-2,-1.6085117E-1,1.534214E-1,-1.7199586E-1,1.1138838E-2,-4.5664274E-4,-2.2026138E-2,6.574027E-3,1.644862E-2,-4.9159895E-3,-2.170878E-2,6.7577716E-3,-8.281248E-3],"categories":[],"categories_nodes":[],"categories_segments":[],"categories_sizes":[],"default_left":[0,0,0,0,0,0,0,0,0,0,0,0,0,0,0],"id":49,"left_children":[1,3,5,7,9,11,13,-1,-1,-1,-1,-1,-1,-1,-1],"loss_changes":[8.773374E1,3.0945679E1,5.1955975E1,1.0417489E1,1.8543533E1,4.2696014E1,5.960567E1,0E0,0E0,0E0,0E0,0E0,0E0,0E0,0E0],"parents":[2147483647,0,0,1,1,2,2,3,3,4,4,5,5,6,6],"right_children":[2,4,6,8,10,12,14,-1,-1,-1,-1,-1,-1,-1,-1],"split_conditions":[3.0659603E-2,-8.784547E-1,1.2942152E0,-2.9164546E-3,4.259717E-1,1.6666666E0,3.3333333E0,-4.5664274E-4,-2.2026138E-2,6.574027E-3,1.644862E-2,-4.9159895E-3,-2.170878E-2,6.7577716E-3,-8.281248E-3],"split_indices":[1,0,1,12,0,16,20,0,0,0,0,0,0,0,0],"split_type":[0,0,0,0,0,0,0,0,0,0,0,0,0,0,0],"sum_hessian":[1.0428488E4,3.991797E3,6.4366914E3,3.2322824E2,3.6685688E3,2.538147E3,3.8985442E3,2.0012549E2,1.2310275E2,2.725077E3,9.4349194E2,1.7443873E3,7.937597E2,2.326891E3,1.571653E3],"tree_param":{"num_deleted":"0","num_feature":"22","num_nodes":"15","size_leaf_vector":"1"}},{"base_weights":[7.211215E-3,6.337176E-2,-1.2344908E-1,-3.06155E-3,1.3373318E-1,-2.6631805E-1,-3.1911895E-2,-2.3942601E-3,9.783229E-3,1.2922128E-2,2.7579993E-3,-2.0103233E-2,-1.1794665E-3,2.0858916E-3,-2.574022E-2],"categories":[],"categories_nodes":[],"categories_segments":[],"categories_sizes":[],"default_left":[0,0,0,0,0,0,0,0,0,0,0,0,0,0,0],"id":50,"left_children":[1,3,5,7,9,11,13,-1,-1,-1,-1,-1,-1,-1,-1],"loss_changes":[7.664166E1,3.4327843E1,4.056005E1,2.3106565E1,2.5046436E1,2.016613E1,5.2034065E1,0E0,0E0,0E0,0E0,0E0,0E0,0E0,0E0],"parents":[2147483647,0,0,1,1,2,2,3,3,4,4,5,5,6,6],"right_children":[2,4,6,8,10,12,14,-1,-1,-1,-1,-1,-1,-1,-1],"split_conditions":[2.3333333E0,-1.6736953E-1,2.5275016E0,1.8036734E0,5E-1,3.793858E-1,1.15E1,-2.3942601E-3,9.783229E-3,1.2922128E-2,2.7579993E-3,-2.0103233E-2,-1.1794665E-3,2.0858916E-3,-2.574022E-2],"split_indices":[16,0,1,1,2,0,2,0,0,0,0,0,0,0,0],"split_type":[0,0,0,0,0,0,0,0,0,0,0,0,0,0,0],"sum_hessian":[1.041142E4,7.2941807E3,3.1172395E3,3.754347E3,3.5398335E3,1.1981243E3,1.9191152E3,3.0901885E3,6.641585E2,1.8130044E3,1.7268291E3,9.282353E2,2.6988898E2,1.6566699E3,2.6244525E2],"tree_param":{"num_deleted":"0","num_feature":"22","num_nodes":"15","size_leaf_vector":"1"}},{"base_weights":[1.2154436E-2,6.1243676E-2,-1.473481E-1,-2.3718497E-1,7.931903E-2,-1.1596463E-1,-5.443892E-1,-4.0142233E-3,-2.2608247E-2,3.1246012E-3,1.5070456E-2,-1.647689E-2,4.5642548E-5,-3.958658E-2,-1.4230183E-2],"categories":[],"categories_nodes":[],"categories_segments":[],"categories_sizes":[],"default_left":[0,0,0,0,0,0,0,0,0,0,0,0,0,0,0],"id":51,"left_children":[1,3,5,7,9,11,13,-1,-1,-1,-1,-1,-1,-1,-1],"loss_changes":[8.156154E1,4.3237198E1,2.8601337E1,9.924198E0,3.4724693E1,4.283315E1,2.0600662E0,0E0,0E0,0E0,0E0,0E0,0E0,0E0,0E0],"parents":[2147483647,0,0,1,1,2,2,3,3,4,4,5,5,6,6],"right_children":[2,4,6,8,10,12,14,-1,-1,-1,-1,-1,-1,-1,-1],"split_conditions":[2.5E0,-8.983276E-1,1.5E1,2.5396827E-1,2.5275016E0,3.4651253E0,-2.9187933E-1,-4.0142233E-3,-2.2608247E-2,3.1246012E-3,1.5070456E-2,-1.647689E-2,4.5642548E-5,-3.958658E-2,-1.4230183E-2],"split_indices":[2,0,2,21,1,1,0,0,0,0,0,0,0,0,0],"split_type":[0,0,0,0,0,0,0,0,0,0,0,0,0,0,0],"sum_hessian":[1.0384679E4,7.9550015E3,2.4296777E3,4.3730032E2,7.517701E3,2.2779788E3,1.5169911E2,2.135717E2,2.2372862E2,6.516578E3,1.00112305E3,9.5774677E2,1.3202319E3,9.122853E1,6.047059E1],"tree_param":{"num_deleted":"0","num_feature":"22","num_nodes":"15","size_leaf_vector":"1"}},{"base_weights":[1.5742892E-4,1.16819106E-1,-6.5855294E-2,7.919787E-2,2.8189412E-1,-1.5435466E-1,4.874424E-3,-7.6960763E-3,6.1892397E-3,7.5039202E-3,1.8640079E-2,-5.138127E-3,-1.954111E-2,7.688802E-3,-9.378116E-3],"categories":[],"categories_nodes":[],"categories_segments":[],"categories_sizes":[],"default_left":[0,0,0,0,0,0,0,0,0,0,0,0,0,0,0],"id":52,"left_children":[1,3,5,7,9,11,13,-1,-1,-1,-1,-1,-1,-1,-1],"loss_changes":[8.003567E1,2.25349E1,4.1649147E1,1.5615862E1,1.8777313E0,3.377275E1,7.381913E1,0E0,0E0,0E0,0E0,0E0,0E0,0E0,0E0],"parents":[2147483647,0,0,1,1,2,2,3,3,4,4,5,5,6,6],"right_children":[2,4,6,8,10,12,14,-1,-1,-1,-1,-1,-1,-1,-1],"split_conditions":[1.1856109E-2,6.1649793E-1,1.5077851E0,-8.784547E-1,-3.5339028E-1,1.5E0,3.5E0,-7.6960763E-3,6.1892397E-3,7.5039202E-3,1.8640079E-2,-5.138127E-3,-1.954111E-2,7.688802E-3,-9.378116E-3],"split_indices":[1,0,1,0,8,2,2,0,0,0,0,0,0,0,0],"split_type":[0,0,0,0,0,0,0,0,0,0,0,0,0,0,0],"sum_hessian":[1.0346087E4,3.738659E3,6.6074287E3,3.0737847E3,6.6487415E2,2.9308027E3,3.6766257E3,3.048533E2,2.7689314E3,1.2504012E2,5.3983405E2,2.117375E3,8.1342773E2,2.0891145E3,1.5875114E3],"tree_param":{"num_deleted":"0","num_feature":"22","num_nodes":"15","size_leaf_vector":"1"}},{"base_weights":[2.593747E-3,1.1077713E-1,-5.78963E-2,7.7632956E-2,2.602548E-1,-4.564887E-2,-3.3721738E-2,5.304281E-3,-1.7073441E-2,1.647725E-2,6.732414E-3,-7.8044073E-3,3.0138374E-3],"categories":[],"categories_nodes":[],"categories_segments":[],"categories_sizes":[],"default_left":[0,0,0,0,0,0,0,0,0,0,0,0,0],"id":53,"left_children":[1,3,5,7,9,11,-1,-1,-1,-1,-1,-1,-1],"loss_changes":[6.831658E1,1.7820457E1,4.015549E1,1.24041E1,4.1340637E-1,5.323241E1,0E0,0E0,0E0,0E0,0E0,0E0,0E0],"parents":[2147483647,0,0,1,1,2,2,3,3,4,4,5,5],"right_children":[2,4,6,8,10,12,-1,-1,-1,-1,-1,-1,-1],"split_conditions":[1.1856109E-2,6.2236494E-1,1.55E1,8.095238E-1,3.3843088E0,2.126958E0,-3.3721738E-2,5.304281E-3,-1.7073441E-2,1.647725E-2,6.732414E-3,-7.8044073E-3,3.0138374E-3],"split_indices":[1,0,2,14,10,1,0,0,0,0,0,0,0],"split_type":[0,0,0,0,0,0,0,0,0,0,0,0,0],"sum_hessian":[1.0391863E4,3.7267195E3,6.665144E3,3.0807024E3,6.4601715E2,6.530291E3,1.3485274E2,3.0090898E3,7.161258E1,5.6713135E2,7.8885796E1,3.4743372E3,3.055954E3],"tree_param":{"num_deleted":"0","num_feature":"22","num_nodes":"13","size_leaf_vector":"1"}},{"base_weights":[7.6119853E-3,4.9767338E-2,-1.2865807E-1,-1.6815227E-1,7.194414E-2,-1.034422E-1,-3.404858E-2,7.0659374E-4,-1.3871825E-2,2.836018E-3,1.3879321E-2,-1.5362007E-2,-3.8289485E-4],"categories":[],"categories_nodes":[],"categories_segments":[],"categories_sizes":[],"default_left":[0,0,0,0,0,0,0,0,0,0,0,0,0],"id":54,"left_children":[1,3,5,7,9,11,-1,-1,-1,-1,-1,-1,-1],"loss_changes":[5.9476482E1,3.842569E1,2.5199802E1,8.59387E0,2.7849697E1,3.4331024E1,0E0,0E0,0E0,0E0,0E0,0E0,0E0],"parents":[2147483647,0,0,1,1,2,2,3,3,4,4,5,5],"right_children":[2,4,6,8,10,12,-1,-1,-1,-1,-1,-1,-1],"split_conditions":[7E0,-8.6106944E-1,1.65E1,-3.3209295E-4,7.136259E-1,2.5275016E0,-3.404858E-2,7.0659374E-4,-1.3871825E-2,2.836018E-3,1.3879321E-2,-1.5362007E-2,-3.8289485E-4],"split_indices":[6,0,2,1,0,1,0,0,0,0,0,0,0],"split_type":[0,0,0,0,0,0,0,0,0,0,0,0,0],"sum_hessian":[1.0325058E4,7.9009277E3,2.4241301E3,7.134542E2,7.1874736E3,2.3179282E3,1.06201935E2,1.8522568E2,5.282286E2,6.251701E3,9.3577234E2,8.8443207E2,1.4334962E3],"tree_param":{"num_deleted":"0","num_feature":"22","num_nodes":"13","size_leaf_vector":"1"}},{"base_weights":[4.8129186E-3,5.5416077E-2,-1.2298746E-1,3.3108015E-2,2.2363071E-1,-1.9017303E-1,1.2251523E-2,8.217771E-3,-4.219396E-5,1.5680378E-2,1.3984956E-3,-3.0285908E-2,-9.57895E-3,2.2199713E-3,-1.783563E-2],"categories":[],"categories_nodes":[],"categories_segments":[],"categories_sizes":[],"default_left":[0,0,0,0,0,0,0,0,0,0,0,0,0,0,0],"id":55,"left_children":[1,3,5,7,9,11,13,-1,-1,-1,-1,-1,-1,-1,-1],"loss_changes":[6.685475E1,2.7428635E1,2.6845135E1,2.3234737E1,6.088032E0,1.6578964E1,7.514322E0,0E0,0E0,0E0,0E0,0E0,0E0,0E0,0E0],"parents":[2147483647,0,0,1,1,2,2,3,3,4,4,5,5,6,6],"right_children":[2,4,6,8,10,12,14,-1,-1,-1,-1,-1,-1,-1,-1],"split_conditions":[2E0,7.272602E-1,1.10833034E-1,-7.692308E-2,1.6111112E0,1.9245198E-1,9E0,8.217771E-3,-4.219396E-5,1.5680378E-2,1.3984956E-3,-3.0285908E-2,-9.57895E-3,2.2199713E-3,-1.783563E-2],"split_indices":[2,0,0,3,21,12,18,0,0,0,0,0,0,0,0],"split_type":[0,0,0,0,0,0,0,0,0,0,0,0,0,0,0],"sum_hessian":[1.0307038E4,7.3972246E3,2.9098137E3,6.5574756E3,8.397494E2,1.9435465E3,9.662671E2,1.602816E3,4.9546597E3,6.973883E2,1.4236105E2,1.4151683E2,1.8020297E3,9.1402356E2,5.2243538E1],"tree_param":{"num_deleted":"0","num_feature":"22","num_nodes":"15","size_leaf_vector":"1"}},{"base_weights":[8.592547E-3,5.831809E-2,-1.0582361E-1,2.8227815E-2,2.0721945E-1,-4.5560893E-1,-7.771408E-2,-1.1696945E-2,2.4884043E-3,7.658532E-3,1.4110368E-2,-3.3115894E-2,-1.5071162E-2,-1.1883411E-2,-3.459749E-5],"categories":[],"categories_nodes":[],"categories_segments":[],"categories_sizes":[],"default_left":[0,0,0,0,0,0,0,0,0,0,0,0,0,0,0],"id":56,"left_children":[1,3,5,7,9,11,13,-1,-1,-1,-1,-1,-1,-1,-1],"loss_changes":[5.870621E1,3.1917252E1,2.9463734E1,1.7804737E1,1.7106934E0,8.6504745E-1,2.6880693E1,0E0,0E0,0E0,0E0,0E0,0E0,0E0,0E0],"parents":[2147483647,0,0,1,1,2,2,3,3,4,4,5,5,6,6],"right_children":[2,4,6,8,10,12,14,-1,-1,-1,-1,-1,-1,-1,-1],"split_conditions":[2.3333333E0,6.2236494E-1,-8.9369553E-1,-9.081401E-1,7.204271E-1,1.6216215E-1,2.5275016E0,-1.1696945E-2,2.4884043E-3,7.658532E-3,1.4110368E-2,-3.3115894E-2,-1.5071162E-2,-1.1883411E-2,-3.459749E-5],"split_indices":[16,0,0,0,0,15,1,0,0,0,0,0,0,0,0],"split_type":[0,0,0,0,0,0,0,0,0,0,0,0,0,0,0],"sum_hessian":[1.0285169E4,7.182279E3,3.1028901E3,6.000245E3,1.1820338E3,2.0553548E2,2.8973545E3,3.165635E2,5.6836816E3,3.4551758E2,8.365162E2,1.1327179E2,9.2263695E1,1.1144214E3,1.7829332E3],"tree_param":{"num_deleted":"0","num_feature":"22","num_nodes":"15","size_leaf_vector":"1"}},{"base_weights":[1.6474182E-2,5.5528164E-2,-1.0992829E-1,-5.0384644E-2,9.330182E-2,-4.0092498E-1,-6.8834454E-2,-1.4038305E-3,-1.9510275E-2,4.292171E-3,1.3164681E-2,-3.406762E-2,-8.913576E-3,-2.1516937E-3,-2.7638882E-2],"categories":[],"categories_nodes":[],"categories_segments":[],"categories_sizes":[],"default_left":[0,0,0,0,0,0,0,0,0,0,0,0,0,0,0],"id":57,"left_children":[1,3,5,7,9,11,13,-1,-1,-1,-1,-1,-1,-1,-1],"loss_changes":[5.0807182E1,3.1629097E1,2.7997877E1,1.4889988E1,1.5359863E1,9.941181E0,2.699622E1,0E0,0E0,0E0,0E0,0E0,0E0,0E0,0E0],"parents":[2147483647,0,0,1,1,2,2,3,3,4,4,5,5,6,6],"right_children":[2,4,6,8,10,12,14,-1,-1,-1,-1,-1,-1,-1,-1],"split_conditions":[2.5E0,-5.9864205E-1,1.3606776E0,4.3076925E0,2.46142E0,-2.7561936E-1,1.5E1,-1.4038305E-3,-1.9510275E-2,4.292171E-3,1.3164681E-2,-3.406762E-2,-8.913576E-3,-2.1516937E-3,-2.7638882E-2],"split_indices":[2,0,1,3,1,0,2,0,0,0,0,0,0,0,0],"split_type":[0,0,0,0,0,0,0,0,0,0,0,0,0,0,0],"sum_hessian":[1.0258395E4,7.851636E3,2.406758E3,2.0553972E3,5.796239E3,2.7313724E2,2.1336208E3,1.89466E3,1.607371E2,4.976589E3,8.1965015E2,1.4698666E2,1.2615059E2,1.9904945E3,1.4312637E2],"tree_param":{"num_deleted":"0","num_feature":"22","num_nodes":"15","size_leaf_vector":"1"}},{"base_weights":[8.894982E-3,4.057473E-2,-1.4710714E-1,1.6478905E-2,1.8321387E-1,-2.2817987E-1,2.0957569E-2,-6.0321996E-4,8.363707E-3,6.159429E-3,1.43772615E-2,-2.4239624E-2,-8.548382E-3,3.702056E-3,-1.3333774E-2],"categories":[],"categories_nodes":[],"categories_segments":[],"categories_sizes":[],"default_left":[0,0,0,0,0,0,0,0,0,0,0,0,0,0,0],"id":58,"left_children":[1,3,5,7,9,11,13,-1,-1,-1,-1,-1,-1,-1,-1],"loss_changes":[5.065873E1,2.9088713E1,2.3858257E1,2.4072361E1,4.7369003E0,1.5961174E1,5.829501E0,0E0,0E0,0E0,0E0,0E0,0E0,0E0,0E0],"parents":[2147483647,0,0,1,1,2,2,3,3,4,4,5,5,6,6],"right_children":[2,4,6,8,10,12,14,-1,-1,-1,-1,-1,-1,-1,-1],"split_conditions":[3.5E0,6.57875E-1,1.1596049E-1,2.46142E0,4.901961E-2,3.3859017E0,8.333333E0,-6.0321996E-4,8.363707E-3,6.159429E-3,1.43772615E-2,-2.4239624E-2,-8.548382E-3,3.702056E-3,-1.3333774E-2],"split_indices":[2,0,0,1,21,1,18,0,0,0,0,0,0,0,0],"split_type":[0,0,0,0,0,0,0,0,0,0,0,0,0,0,0],"sum_hessian":[1.022783E4,8.519053E3,1.7087773E3,7.313E3,1.2060531E3,1.1519058E3,5.568716E2,6.0230903E3,1.2899097E3,5.2722876E2,6.788243E2,3.4934317E2,8.025626E2,4.9326764E2,6.3603928E1],"tree_param":{"num_deleted":"0","num_feature":"22","num_nodes":"15","size_leaf_vector":"1"}},{"base_weights":[6.497501E-3,1.1613191E-1,-3.6239583E-2,5.7781152E-2,1.7577697E-1,-6.6961266E-2,1.05119266E-1,4.170684E-3,-1.3691417E-2,1.1171774E-2,-5.4908716E-3,-5.422351E-3,8.626311E-3,9.923987E-3,-9.017913E-3],"categories":[],"categories_nodes":[],"categories_segments":[],"categories_sizes":[],"default_left":[0,0,0,0,0,0,0,0,0,0,0,0,0,0,0],"id":59,"left_children":[1,3,5,7,9,11,13,-1,-1,-1,-1,-1,-1,-1,-1],"loss_changes":[4.8204906E1,9.611485E0,3.2178658E1,5.18251E0,4.3608017E0,3.0229172E1,2.0845358E1,0E0,0E0,0E0,0E0,0E0,0E0,0E0,0E0],"parents":[2147483647,0,0,1,1,2,2,3,3,4,4,5,5,6,6],"right_children":[2,4,6,8,10,12,14,-1,-1,-1,-1,-1,-1,-1,-1],"split_conditions":[0E0,-1.5510114E-1,3.5714287E-1,9.560346E0,3.772462E0,7.345179E-1,9.666667E0,4.170684E-3,-1.3691417E-2,1.1171774E-2,-5.4908716E-3,-5.422351E-3,8.626311E-3,9.923987E-3,-9.017913E-3],"split_indices":[3,0,15,8,11,0,16,0,0,0,0,0,0,0,0],"split_type":[0,0,0,0,0,0,0,0,0,0,0,0,0,0,0],"sum_hessian":[1.0233186E4,2.8671284E3,7.3660576E3,1.4776674E3,1.389461E3,6.0654473E3,1.3006104E3,1.4373444E3,4.0322956E1,1.3467717E3,4.2689266E1,5.4735366E3,5.919104E2,1.0611377E3,2.3947267E2],"tree_param":{"num_deleted":"0","num_feature":"22","num_nodes":"15","size_leaf_vector":"1"}},{"base_weights":[8.572028E-3,9.9390134E-2,-3.6446173E-2,-1.1258674E-1,1.14208356E-1,-2.0830029E-1,-9.816456E-3,3.7048785E-3,-1.4284259E-2,6.181269E-3,2.2964252E-2,-2.132417E-2,-6.152504E-3,-3.8092923E-3,3.8020075E-3],"categories":[],"categories_nodes":[],"categories_segments":[],"categories_sizes":[],"default_left":[0,0,0,0,0,0,0,0,0,0,0,0,0,0,0],"id":60,"left_children":[1,3,5,7,9,11,13,-1,-1,-1,-1,-1,-1,-1,-1],"loss_changes":[4.1987736E1,1.0955296E1,3.1095749E1,5.461557E0,8.3302E0,1.3020008E1,2.3483532E1,0E0,0E0,0E0,0E0,0E0,0E0,0E0,0E0],"parents":[2147483647,0,0,1,1,2,2,3,3,4,4,5,5,6,6],"right_children":[2,4,6,8,10,12,14,-1,-1,-1,-1,-1,-1,-1,-1],"split_conditions":[2.2496367E-3,-8.983276E-1,-8.2042134E-1,-2.1470243E-1,5.033557E-1,8.138353E-1,2.46142E0,3.7048785E-3,-1.4284259E-2,6.181269E-3,2.2964252E-2,-2.132417E-2,-6.152504E-3,-3.8092923E-3,3.8020075E-3],"split_indices":[1,0,0,11,15,1,1,0,0,0,0,0,0,0,0],"split_type":[0,0,0,0,0,0,0,0,0,0,0,0,0,0,0],"sum_hessian":[1.0216682E4,3.3853186E3,6.8313633E3,2.0815717E2,3.1771616E3,8.9319037E2,5.938173E3,8.803703E1,1.2012013E2,3.080233E3,9.692862E1,3.4987442E2,5.433159E2,3.4351714E3,2.5030015E3],"tree_param":{"num_deleted":"0","num_feature":"22","num_nodes":"15","size_leaf_vector":"1"}},{"base_weights":[4.607598E-3,8.252299E-2,-4.206647E-2,-3.1138571E-2,1.183246E-1,-1.3209568E-1,2.5486771E-2,-3.3985002E-3,1.954798E-2,6.3333656E-3,2.0265486E-2,-4.6180054E-3,-1.7496103E-2,5.5126585E-3,-9.630142E-3],"categories":[],"categories_nodes":[],"categories_segments":[],"categories_sizes":[],"default_left":[0,0,0,0,0,0,0,0,0,0,0,0,0,0,0],"id":61,"left_children":[1,3,5,7,9,11,13,-1,-1,-1,-1,-1,-1,-1,-1],"loss_changes":[3.7312305E1,1.5815926E1,3.9114143E1,8.571809E0,7.071171E0,2.3402714E1,4.5523926E1,0E0,0E0,0E0,0E0,0E0,0E0,0E0,0E0],"parents":[2147483647,0,0,1,1,2,2,3,3,4,4,5,5,6,6],"right_children":[2,4,6,8,10,12,14,-1,-1,-1,-1,-1,-1,-1,-1],"split_conditions":[3.0659603E-2,-6.518912E-1,1.5077851E0,3.2098764E-1,2.9841666E0,3.3333333E0,5.5E0,-3.3985002E-3,1.954798E-2,6.3333656E-3,2.0265486E-2,-4.6180054E-3,-1.7496103E-2,5.5126585E-3,-9.630142E-3],"split_indices":[1,0,1,15,13,5,2,0,0,0,0,0,0,0,0],"split_type":[0,0,0,0,0,0,0,0,0,0,0,0,0,0,0],"sum_hessian":[1.0209922E4,3.8271426E3,6.38278E3,9.106668E2,2.9164758E3,2.7343564E3,3.6484233E3,8.68258E2,4.2408848E1,2.788401E3,1.2807492E2,2.0587317E3,6.756247E2,2.7000923E3,9.4833093E2],"tree_param":{"num_deleted":"0","num_feature":"22","num_nodes":"15","size_leaf_vector":"1"}},{"base_weights":[1.0780531E-3,3.6763724E-2,-1.1366492E-1,7.706393E-2,-3.2537084E-2,-3.5647073E-1,-7.413889E-2,-5.94442E-3,5.819723E-3,-5.583319E-3,9.516572E-3,-2.9672163E-2,-9.2213E-3,-2.8045438E-3,-2.6940463E-2],"categories":[],"categories_nodes":[],"categories_segments":[],"categories_sizes":[],"default_left":[0,0,0,0,0,0,0,0,0,0,0,0,0,0,0],"id":62,"left_children":[1,3,5,7,9,11,13,-1,-1,-1,-1,-1,-1,-1,-1],"loss_changes":[4.174442E1,2.186996E1,2.2230701E1,1.7550444E1,3.345053E1,7.05645E0,2.0721943E1,0E0,0E0,0E0,0E0,0E0,0E0,0E0,0E0],"parents":[2147483647,0,0,1,1,2,2,3,3,4,4,5,5,6,6],"right_children":[2,4,6,8,10,12,14,-1,-1,-1,-1,-1,-1,-1,-1],"split_conditions":[2.5E0,6.987483E-1,1.5077851E0,-8.558571E-1,2.4431819E-1,-2.7561936E-1,1.6E1,-5.94442E-3,5.819723E-3,-5.583319E-3,9.516572E-3,-2.9672163E-2,-9.2213E-3,-2.8045438E-3,-2.6940463E-2],"split_indices":[2,17,1,0,15,0,2,0,0,0,0,0,0,0,0],"split_type":[0,0,0,0,0,0,0,0,0,0,0,0,0,0,0],"sum_hessian":[1.0173164E4,7.7768345E3,2.3963298E3,4.9250063E3,2.8518284E3,3.0948865E2,2.086841E3,4.8747964E2,4.4375264E3,2.1778137E3,6.7401465E2,1.6407263E2,1.4541602E2,1.9681635E3,1.1867762E2],"tree_param":{"num_deleted":"0","num_feature":"22","num_nodes":"15","size_leaf_vector":"1"}},{"base_weights":[-2.3600725E-3,2.7419735E-2,-1.4443426E-1,1.1688857E-1,2.6794365E-3,-1.135779E-1,-2.856157E-2,7.5174845E-3,-6.6182804E-3,-1.3746114E-3,9.4393445E-3,-1.7948586E-2,-4.2391247E-3],"categories":[],"categories_nodes":[],"categories_segments":[],"categories_sizes":[],"default_left":[0,0,0,0,0,0,0,0,0,0,0,0,0],"id":63,"left_children":[1,3,5,7,9,11,-1,-1,-1,-1,-1,-1,-1],"loss_changes":[4.32866E1,1.8535473E1,1.6478615E1,3.7602882E0,2.645762E1,1.2365482E1,0E0,0E0,0E0,0E0,0E0,0E0,0E0],"parents":[2147483647,0,0,1,1,2,2,3,3,4,4,5,5],"right_children":[2,4,6,8,10,12,-1,-1,-1,-1,-1,-1,-1],"split_conditions":[8.333333E0,-3.4251157E-4,1.5E1,9.560346E0,1.8223235E-1,7.674918E-1,-2.856157E-2,7.5174845E-3,-6.6182804E-3,-1.3746114E-3,9.4393445E-3,-1.7948586E-2,-4.2391247E-3],"split_indices":[5,1,2,8,15,1,0,0,0,0,0,0,0],"split_type":[0,0,0,0,0,0,0,0,0,0,0,0,0],"sum_hessian":[1.0164582E4,8.410731E3,1.7538505E3,1.7970634E3,6.6136685E3,1.6318633E3,1.2198718E2,1.7458639E3,5.1199467E1,5.683722E3,9.2994635E2,2.7976907E2,1.3520942E3],"tree_param":{"num_deleted":"0","num_feature":"22","num_nodes":"13","size_leaf_vector":"1"}},{"base_weights":[4.7682286E-3,-2.802677E-2,1.1074585E-1,6.059255E-3,-1.4816709E-1,1.3112928E-1,-3.6749996E-2,-1.2671006E-3,8.130719E-3,-2.3673289E-2,-5.9283823E-3,9.641087E-3,-0E0,-8.272245E-3,8.209494E-3],"categories":[],"categories_nodes":[],"categories_segments":[],"categories_sizes":[],"default_left":[0,0,0,0,0,0,0,0,0,0,0,0,0,0,0],"id":64,"left_children":[1,3,5,7,9,11,13,-1,-1,-1,-1,-1,-1,-1,-1],"loss_changes":[3.5583916E1,3.2084602E1,7.4692974E0,2.1581863E1,1.9769882E1,8.135559E0,5.7073145E0,0E0,0E0,0E0,0E0,0E0,0E0,0E0,0E0],"parents":[2147483647,0,0,1,1,2,2,3,3,4,4,5,5,6,6],"right_children":[2,4,6,8,10,12,14,-1,-1,-1,-1,-1,-1,-1,-1],"split_conditions":[3.846831E-1,2.6666667E0,3.1796966E0,2.46142E0,-8.395865E-1,2.3444445E0,2.2777777E0,-1.2671006E-3,8.130719E-3,-2.3673289E-2,-5.9283823E-3,9.641087E-3,-0E0,-8.272245E-3,8.209494E-3],"split_indices":[0,20,11,1,0,21,21,0,0,0,0,0,0,0,0],"split_type":[0,0,0,0,0,0,0,0,0,0,0,0,0,0,0],"sum_hessian":[1.0176735E4,7.775779E3,2.4009565E3,6.0655405E3,1.7102382E3,2.1173455E3,2.8361093E2,5.0205312E3,1.0450093E3,2.5871545E2,1.4515228E3,1.7184847E3,3.988608E2,1.8544823E2,9.81627E1],"tree_param":{"num_deleted":"0","num_feature":"22","num_nodes":"15","size_leaf_vector":"1"}},{"base_weights":[9.715672E-3,8.70838E-2,-2.658732E-2,1.0377914E-1,-7.07825E-2,-8.645993E-2,3.589903E-2,8.288441E-3,2.2340016E-3,6.114133E-4,-1.45331165E-2,-2.0729664E-3,-1.3431752E-2,8.480487E-3,-3.8434297E-3],"categories":[],"categories_nodes":[],"categories_segments":[],"categories_sizes":[],"default_left":[0,0,0,0,0,0,0,0,0,0,0,0,0,0,0],"id":65,"left_children":[1,3,5,7,9,11,13,-1,-1,-1,-1,-1,-1,-1,-1],"loss_changes":[2.8605753E1,8.756281E0,2.5974495E1,6.4824333E0,4.687152E0,2.4866472E1,3.5971535E1,0E0,0E0,0E0,0E0,0E0,0E0,0E0,0E0],"parents":[2147483647,0,0,1,1,2,2,3,3,4,4,5,5,6,6],"right_children":[2,4,6,8,10,12,14,-1,-1,-1,-1,-1,-1,-1,-1],"split_conditions":[1.397395E-3,5.1888304E0,1.8036734E0,-5.71141E-2,0E0,1.5E0,3E0,8.288441E-3,2.2340016E-3,6.114133E-4,-1.45331165E-2,-2.0729664E-3,-1.3431752E-2,8.480487E-3,-3.8434297E-3],"split_indices":[1,10,1,12,4,2,2,0,0,0,0,0,0,0,0],"split_type":[0,0,0,0,0,0,0,0,0,0,0,0,0,0,0],"sum_hessian":[1.0126688E4,3.2340095E3,6.892679E3,2.9366296E3,2.9738004E2,3.524212E3,3.3684673E3,1.912531E3,1.0240985E3,2.107953E2,8.658473E1,2.5813057E3,9.429063E2,1.6400863E3,1.7283811E3],"tree_param":{"num_deleted":"0","num_feature":"22","num_nodes":"15","size_leaf_vector":"1"}},{"base_weights":[6.76293E-3,-2.3710406E-1,1.9262007E-2,3.1603687E-2,-3.022852E-1,2.525574E-2,-2.62551E-2,1.0631448E-2,-8.066719E-3,-2.0377632E-2,-4.584752E-3,4.5631435E-3,-1.0092366E-3],"categories":[],"categories_nodes":[],"categories_segments":[],"categories_sizes":[],"default_left":[0,0,0,0,0,0,0,0,0,0,0,0,0],"id":66,"left_children":[1,3,5,7,9,11,-1,-1,-1,-1,-1,-1,-1],"loss_changes":[3.0836586E1,9.094013E0,2.6329067E1,3.2104778E0,2.451664E0,2.0562447E1,0E0,0E0,0E0,0E0,0E0,0E0,0E0],"parents":[2147483647,0,0,1,1,2,2,3,3,4,4,5,5],"right_children":[2,4,6,8,10,12,-1,-1,-1,-1,-1,-1,-1],"split_conditions":[-9.081401E-1,-3.2323715E-4,1.6E1,-1.4935818E-1,2.5925925E-1,3.3333334E-1,-2.62551E-2,1.0631448E-2,-8.066719E-3,-2.0377632E-2,-4.584752E-3,4.5631435E-3,-1.0092366E-3],"split_indices":[0,1,2,11,15,20,0,0,0,0,0,0,0],"split_type":[0,0,0,0,0,0,0,0,0,0,0,0,0],"sum_hessian":[1.0138119E4,4.7285907E2,9.66526E3,9.13269E1,3.8153217E2,9.560906E3,1.04353745E2,5.1155514E1,4.0171387E1,3.149619E2,6.657027E1,4.3350435E3,5.2258623E3],"tree_param":{"num_deleted":"0","num_feature":"22","num_nodes":"13","size_leaf_vector":"1"}},{"base_weights":[-6.011569E-3,-2.8980288E-1,4.6128356E-3,-1.3805863E-2,-2.6004847E-2,7.039742E-2,-3.3823848E-2,-6.2321723E-3,7.7336826E-3,2.5899769E-3,1.1723562E-2,-7.756037E-3,1.6595818E-3],"categories":[],"categories_nodes":[],"categories_segments":[],"categories_sizes":[],"default_left":[0,0,0,0,0,0,0,0,0,0,0,0,0],"id":67,"left_children":[1,3,5,7,-1,9,11,-1,-1,-1,-1,-1,-1],"loss_changes":[3.0965021E1,1.4121578E1,2.4904102E1,2.1689284E0,0E0,1.1969444E1,3.655433E1,0E0,0E0,0E0,0E0,0E0,0E0],"parents":[2147483647,0,0,1,1,2,2,3,3,5,5,6,6],"right_children":[2,4,6,8,-1,10,12,-1,-1,-1,-1,-1,-1],"split_conditions":[-9.1785365E-1,1.7195767E-1,3.0659603E-2,1.7932716E-1,-2.6004847E-2,6.2236494E-1,1.2244564E0,-6.2321723E-3,7.7336826E-3,2.5899769E-3,1.1723562E-2,-7.756037E-3,1.6595818E-3],"split_indices":[0,21,1,12,0,0,1,0,0,0,0,0,0],"split_type":[0,0,0,0,0,0,0,0,0,0,0,0,0],"sum_hessian":[1.014648E4,3.505816E2,9.795898E3,1.2987303E2,2.2070857E2,3.616178E3,6.1797207E3,8.725385E1,4.2619183E1,2.997958E3,6.1821985E2,2.4189304E3,3.7607903E3],"tree_param":{"num_deleted":"0","num_feature":"22","num_nodes":"13","size_leaf_vector":"1"}},{"base_weights":[-2.4917985E-3,1.2107262E-2,-2.099739E-1,-1.0630693E-3,1.8964185E-1,-3.010919E-1,-3.1860292E-2,4.417921E-3,-2.1464522E-3,2.2049323E-2,7.8067775E-3,-1.2980699E-2,-2.9774297E-2,7.644662E-3,-1.0377653E-2],"categories":[],"categories_nodes":[],"categories_segments":[],"categories_sizes":[],"default_left":[0,0,0,0,0,0,0,0,0,0,0,0,0,0,0],"id":68,"left_children":[1,3,5,7,9,11,13,-1,-1,-1,-1,-1,-1,-1,-1],"loss_changes":[3.1015629E1,2.241475E1,1.0402559E1,2.2992514E1,5.551676E0,4.4063225E0,6.193468E0,0E0,0E0,0E0,0E0,0E0,0E0,0E0,0E0],"parents":[2147483647,0,0,1,1,2,2,3,3,4,4,5,5,6,6],"right_children":[2,4,6,8,10,12,14,-1,-1,-1,-1,-1,-1,-1,-1],"split_conditions":[7E0,5.555556E-1,1.6493496E-2,0E0,3.0659603E-2,1.5E1,2.3732026E0,4.417921E-3,-2.1464522E-3,2.2049323E-2,7.8067775E-3,-1.2980699E-2,-2.9774297E-2,7.644662E-3,-1.0377653E-2],"split_indices":[2,15,0,3,1,2,17,0,0,0,0,0,0,0,0],"split_type":[0,0,0,0,0,0,0,0,0,0,0,0,0,0,0],"sum_hessian":[1.0137303E4,9.483994E3,6.533089E2,8.84228E3,6.4171344E2,4.1935504E2,2.3395386E2,2.7891208E3,6.0531597E3,1.307686E2,5.1094485E2,3.253577E2,9.399735E1,1.0748281E2,1.2647104E2],"tree_param":{"num_deleted":"0","num_feature":"22","num_nodes":"15","size_leaf_vector":"1"}},{"base_weights":[1.024021E-2,-1.3018742E-1,2.9671941E-2,-5.3131316E-2,-2.9870304E-1,8.873051E-2,-7.56332E-3,-6.5998593E-3,8.746768E-3,-2.3756469E-2,-7.847029E-3,6.3846437E-3,-1.1042817E-3,-4.7132983E-3,4.4301027E-3],"categories":[],"categories_nodes":[],"categories_segments":[],"categories_sizes":[],"default_left":[0,0,0,0,0,0,0,0,0,0,0,0,0,0,0],"id":69,"left_children":[1,3,5,7,9,11,13,-1,-1,-1,-1,-1,-1,-1,-1],"loss_changes":[2.7656025E1,1.5308472E1,1.9739038E1,1.0157026E1,4.6047173E0,6.692848E0,3.182714E1,0E0,0E0,0E0,0E0,0E0,0E0,0E0,0E0],"parents":[2147483647,0,0,1,1,2,2,3,3,4,4,5,5,6,6],"right_children":[2,4,6,8,10,12,14,-1,-1,-1,-1,-1,-1,-1,-1],"split_conditions":[-8.347244E-1,2.142857E0,4.952613E-2,1.1587754E0,1.6216215E-1,2.1599374E0,2.46142E0,-6.5998593E-3,8.746768E-3,-2.3756469E-2,-7.847029E-3,6.3846437E-3,-1.1042817E-3,-4.7132983E-3,4.4301027E-3],"split_indices":[0,4,1,1,15,8,1,0,0,0,0,0,0,0,0],"split_type":[0,0,0,0,0,0,0,0,0,0,0,0,0,0,0],"sum_hessian":[1.0123567E4,1.2104596E3,8.913107E3,8.527622E2,3.5769742E2,3.4462437E3,5.4668643E3,6.740316E2,1.7873062E2,2.0555284E2,1.5214459E2,2.9662078E3,4.8003583E2,2.9270334E3,2.5398306E3],"tree_param":{"num_deleted":"0","num_feature":"22","num_nodes":"15","size_leaf_vector":"1"}},{"base_weights":[-4.88647E-3,1.5347421E-2,-1.390038E-1,4.3979086E-2,-4.796801E-2,-1.0817201E-1,-4.4940287E-1,5.0454023E-3,-2.054529E-3,-3.2283835E-2,-9.193979E-4,-9.987127E-3,-7.034491E-4,-1.0655188E-2,-3.238941E-2],"categories":[],"categories_nodes":[],"categories_segments":[],"categories_sizes":[],"default_left":[0,0,0,0,0,0,0,0,0,0,0,0,0,0,0],"id":70,"left_children":[1,3,5,7,9,11,13,-1,-1,-1,-1,-1,-1,-1,-1],"loss_changes":[2.7593655E1,1.5979375E1,1.1230867E1,1.917297E1,4.3070087E1,6.7650633E0,9.8501205E-2,0E0,0E0,0E0,0E0,0E0,0E0,0E0,0E0],"parents":[2147483647,0,0,1,1,2,2,3,3,4,4,5,5,6,6],"right_children":[2,4,6,8,10,12,14,-1,-1,-1,-1,-1,-1,-1,-1],"split_conditions":[2.8833137E0,1.5E0,9.666667E0,3.7922704E-1,-6.503973E-2,3.3859017E0,1.3E1,5.0454023E-3,-2.054529E-3,-3.2283835E-2,-9.193979E-4,-9.987127E-3,-7.034491E-4,-1.0655188E-2,-3.238941E-2],"split_indices":[11,2,18,21,12,1,2,0,0,0,0,0,0,0,0],"split_type":[0,0,0,0,0,0,0,0,0,0,0,0,0,0,0],"sum_hessian":[1.0086931E4,8.773546E3,1.3133842E3,6.056609E3,2.7169373E3,1.2221774E3,9.1206764E1,4.0110645E3,2.0455444E3,1.4842018E2,2.568517E3,7.4631824E2,4.758592E2,4.0324753E1,5.0882015E1],"tree_param":{"num_deleted":"0","num_feature":"22","num_nodes":"15","size_leaf_vector":"1"}},{"base_weights":[5.5260013E-4,-2.1191658E-1,1.1353277E-2,6.913726E-4,-2.579367E-1,1.6440826E-2,-3.9200056E-1,-1.8539853E-2,8.4042246E-4,1.4791677E-4,8.671206E-3,-4.2035724E-3,-3.188167E-2],"categories":[],"categories_nodes":[],"categories_segments":[],"categories_sizes":[],"default_left":[0,0,0,0,0,0,0,0,0,0,0,0,0],"id":71,"left_children":[1,3,5,-1,7,9,11,-1,-1,-1,-1,-1,-1],"loss_changes":[2.3006231E1,5.290159E0,1.9508797E1,0E0,6.026205E0,1.690216E1,3.9603806E0,0E0,0E0,0E0,0E0,0E0,0E0],"parents":[2147483647,0,0,1,1,2,2,4,4,5,5,6,6],"right_children":[2,4,6,-1,8,10,12,-1,-1,-1,-1,-1,-1],"split_conditions":[-9.081401E-1,-7.692308E-2,1.6E1,6.913726E-4,1.0707297E0,7.672112E-1,8.666667E0,-1.8539853E-2,8.4042246E-4,1.4791677E-4,8.671206E-3,-4.2035724E-3,-3.188167E-2],"split_indices":[0,3,2,0,8,0,18,0,0,0,0,0,0],"split_type":[0,0,0,0,0,0,0,0,0,0,0,0,0],"sum_hessian":[1.0071759E4,4.647268E2,9.607031E3,7.82185E1,3.8650833E2,9.508761E3,9.8271095E1,3.262103E2,6.0298004E1,8.598695E3,9.1006573E2,4.0935314E1,5.7335785E1],"tree_param":{"num_deleted":"0","num_feature":"22","num_nodes":"13","size_leaf_vector":"1"}},{"base_weights":[5.4328865E-3,-7.907818E-2,3.7929002E-2,-3.6575608E-2,-3.0393386E-1,2.0869415E-2,1.6262391E-1,-4.269724E-3,9.810922E-3,-5.206947E-3,-2.0099513E-2,1.7585689E-3,-1.1821564E-2,4.587242E-3,1.2291526E-2],"categories":[],"categories_nodes":[],"categories_segments":[],"categories_sizes":[],"default_left":[0,0,0,0,0,0,0,0,0,0,0,0,0,0,0],"id":72,"left_children":[1,3,5,7,9,11,13,-1,-1,-1,-1,-1,-1,-1,-1],"loss_changes":[2.7743576E1,2.6212845E1,1.5306597E1,1.6630274E1,1.9569855E0,1.1834496E1,2.5723228E0,0E0,0E0,0E0,0E0,0E0,0E0,0E0,0E0],"parents":[2147483647,0,0,1,1,2,2,3,3,4,4,5,5,6,6],"right_children":[2,4,6,8,10,12,14,-1,-1,-1,-1,-1,-1,-1,-1],"split_conditions":[-5.8846146E-1,4.3333335E0,7.9106855E-1,1.541E0,3.8461537E0,7.3333335E0,-1.633987E-2,-4.269724E-3,9.810922E-3,-5.206947E-3,-2.0099513E-2,1.7585689E-3,-1.1821564E-2,4.587242E-3,1.2291526E-2],"split_indices":[0,20,0,13,3,18,21,0,0,0,0,0,0,0,0],"split_type":[0,0,0,0,0,0,0,0,0,0,0,0,0,0,0],"sum_hessian":[1.0075373E4,2.7816997E3,7.2936733E3,2.3627834E3,4.1891647E2,6.443501E3,8.501725E2,2.0298082E3,3.3297507E2,6.594246E1,3.52974E2,6.224305E3,2.1919606E2,3.0591315E2,5.4425934E2],"tree_param":{"num_deleted":"0","num_feature":"22","num_nodes":"15","size_leaf_vector":"1"}},{"base_weights":[-0E0,1.8474832E-2,-1.2278041E-1,6.7335567E-3,2.3170619E-1,-2.4731459E-1,-3.271365E-2,2.248589E-3,-4.6346695E-3,2.0268258E-2,8.51824E-3,-9.320018E-3,-2.9581195E-2,-4.3756766E-3,6.5226005E-3],"categories":[],"categories_nodes":[],"categories_segments":[],"categories_sizes":[],"default_left":[0,0,0,0,0,0,0,0,0,0,0,0,0,0,0],"id":73,"left_children":[1,3,5,7,9,11,13,-1,-1,-1,-1,-1,-1,-1,-1],"loss_changes":[2.3009539E1,2.169595E1,1.4450037E1,2.155164E1,2.8725128E0,1.023914E1,4.662196E0,0E0,0E0,0E0,0E0,0E0,0E0,0E0,0E0],"parents":[2147483647,0,0,1,1,2,2,3,3,4,4,5,5,6,6],"right_children":[2,4,6,8,10,12,14,-1,-1,-1,-1,-1,-1,-1,-1],"split_conditions":[2.8833137E0,6.666667E-1,-3.6743942E-1,1.3034188E0,-4.3085107E-1,2.4547844E0,5.864362E-1,2.248589E-3,-4.6346695E-3,2.0268258E-2,8.51824E-3,-9.320018E-3,-2.9581195E-2,-4.3756766E-3,6.5226005E-3],"split_indices":[11,15,0,21,10,17,10,0,0,0,0,0,0,0,0],"split_type":[0,0,0,0,0,0,0,0,0,0,0,0,0,0,0],"sum_hessian":[1.0061263E4,8.753573E3,1.3076887E3,8.320727E3,4.3284744E2,5.2951465E2,7.7817413E2,6.1077617E3,2.2129646E3,1.6789973E2,2.6494772E2,4.1199588E2,1.1751877E2,6.189353E2,1.592388E2],"tree_param":{"num_deleted":"0","num_feature":"22","num_nodes":"15","size_leaf_vector":"1"}},{"base_weights":[1.5127594E-3,-1.4907295E-2,1.553361E-1,1.4372504E-2,-9.0178266E-2,1.9228086E-1,4.6806943E-2,-9.412679E-3,1.4472445E-3,-1.2296406E-2,-1.1125492E-3,1.39098E-2,-8.09774E-3,-4.5601362E-3,1.4075518E-2],"categories":[],"categories_nodes":[],"categories_segments":[],"categories_sizes":[],"default_left":[0,0,0,0,0,0,0,0,0,0,0,0,0,0,0],"id":74,"left_children":[1,3,5,7,9,11,13,-1,-1,-1,-1,-1,-1,-1,-1],"loss_changes":[2.5603535E1,2.0167791E1,3.5030785E0,1.0898459E1,2.0763857E1,9.995253E0,7.0124483E0,0E0,0E0,0E0,0E0,0E0,0E0,0E0,0E0],"parents":[2147483647,0,0,1,1,2,2,3,3,4,4,5,5,6,6],"right_children":[2,4,6,8,10,12,14,-1,-1,-1,-1,-1,-1,-1,-1],"split_conditions":[7.502258E-1,4E0,1.5444444E0,-9.081401E-1,1.03125E0,2.9665499E0,1.3460523E0,-9.412679E-3,1.4472445E-3,-1.2296406E-2,-1.1125492E-3,1.39098E-2,-8.09774E-3,-4.5601362E-3,1.4075518E-2],"split_indices":[0,6,21,0,13,11,12,0,0,0,0,0,0,0,0],"split_type":[0,0,0,0,0,0,0,0,0,0,0,0,0,0,0],"sum_hessian":[1.0042918E4,9.08472E3,9.581983E2,6.5425977E3,2.5421218E3,6.9646454E2,2.6173376E2,3.3058908E2,6.212009E3,9.5731274E2,1.5848091E3,6.292976E2,6.716693E1,1.6222237E2,9.951138E1],"tree_param":{"num_deleted":"0","num_feature":"22","num_nodes":"15","size_leaf_vector":"1"}},{"base_weights":[-5.61218E-3,-1.1612078E-3,-2.9073803E-2,-2.108168E-1,6.697505E-3,-1.431244E-3,-1.8481886E-2,-2.604872E-4,7.982972E-3],"categories":[],"categories_nodes":[],"categories_segments":[],"categories_sizes":[],"default_left":[0,0,0,0,0,0,0,0,0],"id":75,"left_children":[1,3,-1,5,7,-1,-1,-1,-1],"loss_changes":[2.092549E1,1.667333E1,0E0,6.1686077E0,1.3576129E1,0E0,0E0,0E0,0E0],"parents":[2147483647,0,0,1,1,3,3,4,4],"right_children":[2,4,-1,6,8,-1,-1,-1,-1],"split_conditions":[1.85E1,-9.1785365E-1,-2.9073803E-2,1.5384616E-1,5.033557E-1,-1.431244E-3,-1.8481886E-2,-2.604872E-4,7.982972E-3],"split_indices":[2,0,0,3,15,0,0,0,0],"split_type":[0,0,0,0,0,0,0,0,0],"sum_hessian":[1.0029012E4,9.958602E3,7.041054E1,3.4573648E2,9.612865E3,1.3031305E2,2.1542342E2,8.850982E3,7.618826E2],"tree_param":{"num_deleted":"0","num_feature":"22","num_nodes":"9","size_leaf_vector":"1"}},{"base_weights":[6.0038366E-3,-1.1165764E-2,1.2395087E-1,3.9082203E-2,-9.1143824E-2,2.0658824E-1,2.8647583E-2,3.3984866E-3,-8.235498E-3,-1.3328835E-2,-1.9806842E-3,3.1477688E-3,1.41839525E-2,5.484382E-3,-5.351153E-3],"categories":[],"categories_nodes":[],"categories_segments":[],"categories_sizes":[],"default_left":[0,0,0,0,0,0,0,0,0,0,0,0,0,0,0],"id":76,"left_children":[1,3,5,7,9,11,13,-1,-1,-1,-1,-1,-1,-1,-1],"loss_changes":[2.0506756E1,3.5447594E1,9.7823925E0,1.6809769E1,2.5531256E1,2.5896072E0,4.7985787E0,0E0,0E0,0E0,0E0,0E0,0E0,0E0,0E0],"parents":[2147483647,0,0,1,1,2,2,3,3,4,4,5,5,6,6],"right_children":[2,4,6,8,10,12,14,-1,-1,-1,-1,-1,-1,-1,-1],"split_conditions":[3.5714287E-1,6.1538464E-1,2.5E0,1.5E0,6.8669194E-1,-1.3478948E0,-4.4281918E-1,3.3984866E-3,-8.235498E-3,-1.3328835E-2,-1.9806842E-3,3.1477688E-3,1.41839525E-2,5.484382E-3,-5.351153E-3],"split_indices":[15,3,2,2,1,19,10,0,0,0,0,0,0,0,0],"split_type":[0,0,0,0,0,0,0,0,0,0,0,0,0,0,0],"sum_hessian":[1.0036913E4,8.769903E3,1.2670103E3,5.3846206E3,3.3852825E3,6.604705E2,6.065398E2,4.914502E3,4.7011847E2,1.0178629E3,2.3674197E3,1.2142648E2,5.39044E2,4.0422128E2,2.0231853E2],"tree_param":{"num_deleted":"0","num_feature":"22","num_nodes":"15","size_leaf_vector":"1"}},{"base_weights":[3.209679E-4,-1.7949304E-2,1.0108782E-1,-7.124169E-3,-2.4049933E-1,1.6925621E-1,5.6316916E-2,-8.6448435E-3,1.8508063E-4,-2.1804694E-2,-9.6652815E-3,7.1864426E-3,1.839562E-2,-5.366351E-3,6.189028E-3],"categories":[],"categories_nodes":[],"categories_segments":[],"categories_sizes":[],"default_left":[0,0,0,0,0,0,0,0,0,0,0,0,0,0,0],"id":77,"left_children":[1,3,5,7,9,11,13,-1,-1,-1,-1,-1,-1,-1,-1],"loss_changes":[1.862195E1,2.0234571E1,4.3263416E0,1.15393505E1,2.112543E0,2.8974667E0,6.865852E0,0E0,0E0,0E0,0E0,0E0,0E0,0E0,0E0],"parents":[2147483647,0,0,1,1,2,2,3,3,4,4,5,5,6,6],"right_children":[2,4,6,8,10,12,14,-1,-1,-1,-1,-1,-1,-1,-1],"split_conditions":[6.2236494E-1,7.099961E0,5E-1,-8.983276E-1,1.0010743E0,0E0,4.901961E-2,-8.6448435E-3,1.8508063E-4,-2.1804694E-2,-9.6652815E-3,7.1864426E-3,1.839562E-2,-5.366351E-3,6.189028E-3],"split_indices":[0,11,2,0,1,20,21,0,0,0,0,0,0,0,0],"split_type":[0,0,0,0,0,0,0,0,0,0,0,0,0,0,0],"sum_hessian":[1.0030051E4,8.496114E3,1.5339366E3,8.125989E3,3.7012552E2,5.771776E2,9.56759E2,5.5230054E2,7.5736885E3,1.1225654E2,2.57869E2,4.5718073E2,1.1999687E2,2.2304578E2,7.337132E2],"tree_param":{"num_deleted":"0","num_feature":"22","num_nodes":"15","size_leaf_vector":"1"}},{"base_weights":[-2.0203823E-3,-1.6405316E-1,9.0935435E-3,-7.594452E-2,-3.65244E-1,-4.552326E-3,1.2187533E-1,-7.966209E-3,4.953027E-3,-7.4768346E-3,-2.479557E-2,1.0692801E-4,-1.49484705E-2,1.0041816E-2,-0E0],"categories":[],"categories_nodes":[],"categories_segments":[],"categories_sizes":[],"default_left":[0,0,0,0,0,0,0,0,0,0,0,0,0,0,0],"id":78,"left_children":[1,3,5,7,9,11,13,-1,-1,-1,-1,-1,-1,-1,-1],"loss_changes":[1.8306644E1,1.057522E1,1.4641785E1,4.616542E0,6.285286E-1,1.3307656E1,5.7651024E0,0E0,0E0,0E0,0E0,0E0,0E0,0E0,0E0],"parents":[2147483647,0,0,1,1,2,2,3,3,4,4,5,5,6,6],"right_children":[2,4,6,8,10,12,14,-1,-1,-1,-1,-1,-1,-1,-1],"split_conditions":[-8.9369553E-1,1.5194792E0,7.345179E-1,8.138353E-1,4.1538463E0,3.6923077E1,1.5444444E0,-7.966209E-3,4.953027E-3,-7.4768346E-3,-2.479557E-2,1.0692801E-4,-1.49484705E-2,1.0041816E-2,-0E0],"split_indices":[0,17,0,1,3,3,21,0,0,0,0,0,0,0,0],"split_type":[0,0,0,0,0,0,0,0,0,0,0,0,0,0,0],"sum_hessian":[1.0043108E4,6.327558E2,9.410353E3,4.6266028E2,1.7009552E2,8.403865E3,1.0064875E3,3.4759247E2,1.150678E2,4.3720783E1,1.2637473E2,8.207081E3,1.9678447E2,7.3014996E2,2.7633752E2],"tree_param":{"num_deleted":"0","num_feature":"22","num_nodes":"15","size_leaf_vector":"1"}},{"base_weights":[-2.5100939E-3,2.6287553E-3,-3.69425E-1,-1.8756172E-2,7.685949E-2,-4.3864697E-3,-2.9834883E-2,-2.559905E-3,4.3628905E-3,5.952111E-3,-3.789307E-4],"categories":[],"categories_nodes":[],"categories_segments":[],"categories_sizes":[],"default_left":[0,0,0,0,0,0,0,0,0,0,0],"id":79,"left_children":[1,3,5,7,9,-1,-1,-1,-1,-1,-1],"loss_changes":[1.9332932E1,1.5845103E1,4.066633E0,1.6898643E1,4.258003E0,0E0,0E0,0E0,0E0,0E0,0E0],"parents":[2147483647,0,0,1,1,2,2,3,3,4,4],"right_children":[2,4,6,8,10,-1,-1,-1,-1,-1,-1],"split_conditions":[1.5E1,4.0090412E-1,8.333333E0,3.3859017E0,2.3444445E0,-4.3864697E-3,-2.9834883E-2,-2.559905E-3,4.3628905E-3,5.952111E-3,-3.789307E-4],"split_indices":[2,0,18,1,21,0,0,0,0,0,0],"split_type":[0,0,0,0,0,0,0,0,0,0,0],"sum_hessian":[1.0028533E4,9.906912E3,1.2162058E2,7.692326E3,2.214586E3,4.8485226E1,7.313536E1,6.115457E3,1.576869E3,1.7521066E3,4.6247943E2],"tree_param":{"num_deleted":"0","num_feature":"22","num_nodes":"11","size_leaf_vector":"1"}},{"base_weights":[-2.353654E-3,1.4109719E-2,-1.1257775E-1,2.755589E-3,1.8398109E-1,-2.4598885E-1,-3.1258017E-2,2.4231146E-3,-2.9433193E-3,1.2645274E-2,4.8131763E-4,-2.0480532E-2,-4.0713516E-3,-4.2996514E-3,4.6466E-3],"categories":[],"categories_nodes":[],"categories_segments":[],"categories_sizes":[],"default_left":[0,0,0,0,0,0,0,0,0,0,0,0,0,0,0],"id":80,"left_children":[1,3,5,7,9,11,13,-1,-1,-1,-1,-1,-1,-1,-1],"loss_changes":[1.834374E1,1.6665009E1,1.382925E1,1.6057898E1,2.300356E0,7.454172E0,3.812901E0,0E0,0E0,0E0,0E0,0E0,0E0,0E0,0E0],"parents":[2147483647,0,0,1,1,2,2,3,3,4,4,5,5,6,6],"right_children":[2,4,6,8,10,12,14,-1,-1,-1,-1,-1,-1,