{"learner":{"attributes":{"scikit_learn":"{\"_estimator_type\": \"classifier\"}"},"feature_names":[],"feature_types":[],"gradient_booster":{"model":{"gbtree_model_param":{"num_parallel_tree":"1","num_trees":"150"},"iteration_indptr":[0,1,2,3,4,5,6,7,8,9,10,11,12,13,14,15,16,17,18,19,20,21,22,23,24,25,26,27,28,29,30,31,32,33,34,35,36,37,38,39,40,41,42,43,44,45,46,47,48,49,50,51,52,53,54,55,56,57,58,59,60,61,62,63,64,65,66,67,68,69,70,71,72,73,74,75,76,77,78,79,80,81,82,83,84,85,86,87,88,89,90,91,92,93,94,95,96,97,98,99,100,101,102,103,104,105,106,107,108,109,110,111,112,113,114,115,116,117,118,119,120,121,122,123,124,125,126,127,128,129,130,131,132,133,134,135,136,137,138,139,140,141,142,143,144,145,146,147,148,149,150],"tree_info":[0,0,0,0,0,0,0,0,0,0,0,0,0,0,0,0,0,0,0,0,0,0,0,0,0,0,0,0,0,0,0,0,0,0,0,0,0,0,0,0,0,0,0,0,0,0,0,0,0,0,0,0,0,0,0,0,0,0,0,0,0,0,0,0,0,0,0,0,0,0,0,0,0,0,0,0,0,0,0,0,0,0,0,0,0,0,0,0,0,0,0,0,0,0,0,0,0,0,0,0,0,0,0,0,0,0,0,0,0,0,0,0,0,0,0,0,0,0,0,0,0,0,0,0,0,0,0,0,0,0,0,0,0,0,0,0,0,0,0,0,0,0,0,0,0,0,0,0,0,0],"trees":[{"base_weights":[7.4745405E-1,8.8642E-1,-6.629779E-1,1.0194744E0,6.201375E-1,-2.7331743E-1,-2.072358E0,8.8689667E-1,1.0418671E0,2.0136231E-1,7.116213E-1,-8.8416636E-1,-5.557829E-2,-1.6800112E0,-4.1653285E0,3.3818305E-2,2.3399577E-2,3.83175E-2,3.4536865E-2,1.5573702E-2,-1.5187053E-2,2.973277E-2,1.9714296E-2,-8.075408E-2,-2.306722E-2,3.5053883E-3,-1.0824974E-2,-9.516979E-2,-4.4391833E-2,-1.892391E-1,-9.436468E-2],"categories":[],"categories_nodes":[],"categories_segments":[],"categories_sizes":[],"default_left":[0,0,0,0,0,0,0,0,0,0,0,0,0,0,0,0,0,0,0,0,0,0,0,0,0,0,0,0,0,0,0],"id":0,"left_children":[1,3,5,7,9,11,13,15,17,19,21,23,25,27,29,-1,-1,-1,-1,-1,-1,-1,-1,-1,-1,-1,-1,-1,-1,-1,-1],"loss_changes":[5.9827207E3,9.825762E2,1.5011257E3,5.2697266E1,3.5402637E2,2.8472626E2,4.752915E2,3.2998535E1,2.9574219E1,2.4149005E2,1.4242847E2,1.8226898E2,5.9850544E1,2.0961401E2,1.3776794E2,0E0,0E0,0E0,0E0,0E0,0E0,0E0,0E0,0E0,0E0,0E0,0E0,0E0,0E0,0E0,0E0],"parents":[2147483647,0,0,1,1,2,2,3,3,4,4,5,5,6,6,7,7,8,8,9,9,10,10,11,11,12,12,13,13,14,14],"right_children":[2,4,6,8,10,12,14,16,18,20,22,24,26,28,30,-1,-1,-1,-1,-1,-1,-1,-1,-1,-1,-1,-1,-1,-1,-1,-1],"split_conditions":[2.5E0,2.4408181E-3,7.5E0,-6.833424E-1,-6.044312E-1,-5.435529E-1,1.65E1,-2.5395345E-4,-6.0168866E-2,1.1428572E0,1E0,1.3525964E0,7.769231E0,-5.6682634E-1,-2.759166E-1,3.3818305E-2,2.3399577E-2,3.83175E-2,3.4536865E-2,1.5573702E-2,-1.5187053E-2,2.973277E-2,1.9714296E-2,-8.075408E-2,-2.306722E-2,3.5053883E-3,-1.0824974E-2,-9.516979E-2,-4.4391833E-2,-1.892391E-1,-9.436468E-2],"split_indices":[2,1,2,0,0,0,2,1,12,4,2,1,3,0,0,0,0,0,0,0,0,0,0,0,0,0,0,0,0,0,0],"split_type":[0,0,0,0,0,0,0,0,0,0,0,0,0,0,0,0,0,0,0,0,0,0,0,0,0,0,0,0,0,0,0],"sum_hessian":[3.051896E4,2.7782504E4,2.7364585E3,1.8522035E4,9.260468E3,2.145089E3,5.913694E2,2.6868313E3,1.5835204E4,1.6622638E3,7.598204E3,5.6203314E2,1.5830559E3,4.998159E2,9.155346E1,2.1730808E3,5.137506E2,1.201575E4,3.819454E3,1.2124417E3,4.4982208E2,4.422191E3,3.176013E3,8.287483E1,4.791583E2,9.739626E2,6.090933E2,1.5474858E2,3.4506732E2,5.158286E1,3.9970604E1],"tree_param":{"num_deleted":"0","num_feature":"22","num_nodes":"31","size_leaf_vector":"1"}},{"base_weights":[7.32909E-1,8.740786E-1,-6.508952E-1,1.0015788E0,5.943321E-1,-3.2042074E-1,-1.9670109E0,1.0377351E0,8.912523E-1,1.7431569E-1,6.877356E-1,-9.206275E-1,-8.981076E-2,-1.5749311E0,-3.5204163E0,3.4016833E-2,3.7935436E-2,1.6789105E-2,3.3291332E-2,1.3472108E-2,-2.3929572E-2,2.8901054E-2,1.9518392E-2,-1.8693138E-2,-5.6273077E-2,2.5331937E-3,-1.4107075E-2,-7.450831E-2,-4.1087087E-2,-1.8834229E-1,-1.0638455E-1],"categories":[],"categories_nodes":[],"categories_segments":[],"categories_sizes":[],"default_left":[0,0,0,0,0,0,0,0,0,0,0,0,0,0,0,0,0,0,0,0,0,0,0,0,0,0,0,0,0,0,0],"id":1,"left_children":[1,3,5,7,9,11,13,15,17,19,21,23,25,27,29,-1,-1,-1,-1,-1,-1,-1,-1,-1,-1,-1,-1,-1,-1,-1,-1],"loss_changes":[5.8619375E3,9.693965E2,1.2058364E3,7.229883E1,3.3384497E2,3.067199E2,3.2999E2,2.1457031E1,6.900659E1,2.625522E2,1.1640796E2,1.5696075E2,7.836004E1,9.157471E1,8.544055E1,0E0,0E0,0E0,0E0,0E0,0E0,0E0,0E0,0E0,0E0,0E0,0E0,0E0,0E0,0E0,0E0],"parents":[2147483647,0,0,1,1,2,2,3,3,4,4,5,5,6,6,7,7,8,8,9,9,10,10,11,11,12,12,13,13,14,14],"right_children":[2,4,6,8,10,12,14,16,18,20,22,24,26,28,30,-1,-1,-1,-1,-1,-1,-1,-1,-1,-1,-1,-1,-1,-1,-1,-1],"split_conditions":[2.5E0,1.0354789E-2,8E0,-2.862511E-4,-5.9907025E-1,-5.3799725E-1,1.65E1,-5.9907025E-1,-8.303578E-1,1.7142857E0,1E0,4.3333335E0,4.5E0,-3.698563E-1,-8.2049567E-1,3.4016833E-2,3.7935436E-2,1.6789105E-2,3.3291332E-2,1.3472108E-2,-2.3929572E-2,2.8901054E-2,1.9518392E-2,-1.8693138E-2,-5.6273077E-2,2.5331937E-3,-1.4107075E-2,-7.450831E-2,-4.1087087E-2,-1.8834229E-1,-1.0638455E-1],"split_indices":[2,1,2,1,0,0,2,0,0,4,2,20,2,0,0,0,0,0,0,0,0,0,0,0,0,0,0,0,0,0,0],"split_type":[0,0,0,0,0,0,0,0,0,0,0,0,0,0,0,0,0,0,0,0,0,0,0,0,0,0,0,0,0,0,0],"sum_hessian":[3.0002488E4,2.7225904E4,2.776584E3,1.869854E4,8.527364E3,2.220742E3,5.558421E2,1.4072015E4,4.626524E3,1.5532372E3,6.974127E3,6.1472736E2,1.6060146E3,4.4579416E2,1.1004794E2,2.4369917E3,1.1635023E4,3.642665E2,4.2622573E3,1.2548157E3,2.9842148E2,3.8417454E3,3.1323818E3,3.8157147E2,2.3315587E2,1.0492638E3,5.567509E2,2.0372203E2,2.4207213E2,2.4517197E1,8.553075E1],"tree_param":{"num_deleted":"0","num_feature":"22","num_nodes":"31","size_leaf_vector":"1"}},{"base_weights":[7.227341E-1,8.642519E-1,-6.183525E-1,1.0008923E0,5.905132E-1,-2.7247077E-1,-1.7395723E0,1.030852E0,8.8734174E-1,1.8837367E-1,6.798993E-1,-8.991091E-1,-6.5026134E-2,-1.2567514E0,-2.7396715E0,3.347464E-2,3.7630484E-2,1.6960924E-2,3.287856E-2,1.4629382E-2,-1.2584351E-2,2.82017E-2,1.8385137E-2,-1.7941728E-2,-5.7692133E-2,2.7839108E-3,-1.2677992E-2,-5.9956565E-2,-1.9879824E-2,-8.930025E-2,-1.7544588E-1],"categories":[],"categories_nodes":[],"categories_segments":[],"categories_sizes":[],"default_left":[0,0,0,0,0,0,0,0,0,0,0,0,0,0,0,0,0,0,0,0,0,0,0,0,0,0,0,0,0,0,0],"id":2,"left_children":[1,3,5,7,9,11,13,15,17,19,21,23,25,27,29,-1,-1,-1,-1,-1,-1,-1,-1,-1,-1,-1,-1,-1,-1,-1,-1],"loss_changes":[5.58501E3,9.938281E2,1.0873326E3,5.811133E1,3.1796313E2,2.785056E2,3.1314E2,2.137207E1,4.2303223E1,1.9084448E2,1.2714673E2,1.4845206E2,6.657827E1,1.2773688E2,9.8691895E1,0E0,0E0,0E0,0E0,0E0,0E0,0E0,0E0,0E0,0E0,0E0,0E0,0E0,0E0,0E0,0E0],"parents":[2147483647,0,0,1,1,2,2,3,3,4,4,5,5,6,6,7,7,8,8,9,9,10,10,11,11,12,12,13,13,14,14],"right_children":[2,4,6,8,10,12,14,16,18,20,22,24,26,28,30,-1,-1,-1,-1,-1,-1,-1,-1,-1,-1,-1,-1,-1,-1,-1,-1],"split_conditions":[2.5E0,3.4165203E-3,7.5E0,-2.6958133E-4,-6.044312E-1,-5.730791E-1,1.3E1,-6.5364987E-1,-8.4500766E-1,1.1428572E0,5.3846157E-1,4.3333335E0,4.5E0,4.710961E-2,2.9E1,3.347464E-2,3.7630484E-2,1.6960924E-2,3.287856E-2,1.4629382E-2,-1.2584351E-2,2.82017E-2,1.8385137E-2,-1.7941728E-2,-5.7692133E-2,2.7839108E-3,-1.2677992E-2,-5.9956565E-2,-1.9879824E-2,-8.930025E-2,-1.7544588E-1],"split_indices":[2,1,2,1,0,0,2,0,0,4,3,20,2,0,16,0,0,0,0,0,0,0,0,0,0,0,0,0,0,0,0],"split_type":[0,0,0,0,0,0,0,0,0,0,0,0,0,0,0,0,0,0,0,0,0,0,0,0,0,0,0,0,0,0,0],"sum_hessian":[2.9422943E4,2.661526E4,2.8076838E3,1.7749904E4,8.865356E3,2.147182E3,6.6050183E2,1.4033048E4,3.7168562E3,1.6142119E3,7.2511445E3,5.323454E2,1.6148365E3,4.474507E2,2.1305112E2,2.0962173E3,1.193683E4,2.4032625E2,3.4765298E3,1.1487645E3,4.654474E2,4.447401E3,2.8037437E3,3.4200812E2,1.9033728E2,1.0790771E3,5.357594E2,2.803582E2,1.6709253E2,1.9284459E2,2.0206524E1],"tree_param":{"num_deleted":"0","num_feature":"22","num_nodes":"31","size_leaf_vector":"1"}},{"base_weights":[7.0752954E-1,8.5159755E-1,-5.9698665E-1,9.929651E-1,5.923496E-1,-2.7527812E-1,-1.6166682E0,8.657404E-1,1.0202608E0,1.9824864E-1,6.818749E-1,-8.689357E-1,-5.106546E-2,-1.2532563E0,-2.8208513E0,3.304099E-2,2.3360724E-2,3.7513576E-2,3.370419E-2,1.242713E-2,-2.1760857E-2,2.8494038E-2,1.8624606E-2,-7.56226E-2,-2.3650357E-2,2.3982124E-3,-1.04397405E-2,-5.7276636E-2,-2.4753282E-2,-1.1275075E-1,-3.7485935E-2],"categories":[],"categories_nodes":[],"categories_segments":[],"categories_sizes":[],"default_left":[0,0,0,0,0,0,0,0,0,0,0,0,0,0,0,0,0,0,0,0,0,0,0,0,0,0,0,0,0,0,0],"id":3,"left_children":[1,3,5,7,9,11,13,15,17,19,21,23,25,27,29,-1,-1,-1,-1,-1,-1,-1,-1,-1,-1,-1,-1,-1,-1,-1,-1],"loss_changes":[5.4121055E3,9.4863086E2,9.376324E2,5.603711E1,3.2223193E2,2.8929358E2,2.9381335E2,3.314331E1,2.5210938E1,2.0188652E2,1.3458472E2,1.5177783E2,4.490472E1,9.93233E1,8.328088E1,0E0,0E0,0E0,0E0,0E0,0E0,0E0,0E0,0E0,0E0,0E0,0E0,0E0,0E0,0E0,0E0],"parents":[2147483647,0,0,1,1,2,2,3,3,4,4,5,5,6,6,7,7,8,8,9,9,10,10,11,11,12,12,13,13,14,14],"right_children":[2,4,6,8,10,12,14,16,18,20,22,24,26,28,30,-1,-1,-1,-1,-1,-1,-1,-1,-1,-1,-1,-1,-1,-1,-1,-1],"split_conditions":[2.5E0,1.3473858E-3,7.5E0,-5.9907025E-1,-6.044312E-1,-5.3799725E-1,1.5E1,0E0,-6.0168866E-2,2.142857E0,1E0,1.3067217E0,4.5E0,6.7941454E-4,3.7341967E-1,3.304099E-2,2.3360724E-2,3.7513576E-2,3.370419E-2,1.242713E-2,-2.1760857E-2,2.8494038E-2,1.8624606E-2,-7.56226E-2,-2.3650357E-2,2.3982124E-3,-1.04397405E-2,-5.7276636E-2,-2.4753282E-2,-1.1275075E-1,-3.7485935E-2],"split_indices":[2,1,2,0,0,0,2,3,12,4,2,1,2,0,0,0,0,0,0,0,0,0,0,0,0,0,0,0,0,0,0],"split_type":[0,0,0,0,0,0,0,0,0,0,0,0,0,0,0,0,0,0,0,0,0,0,0,0,0,0,0,0,0,0,0],"sum_hessian":[2.8792465E4,2.592973E4,2.8627332E3,1.6776152E4,9.153578E3,2.1776519E3,6.850812E2,2.973848E3,1.3802305E4,1.6965044E3,7.457074E3,5.953303E2,1.5823215E3,5.2828064E2,1.5680054E2,2.3678354E3,6.060126E2,1.0598366E4,3.2039385E3,1.4342941E3,2.6221033E2,4.4219556E3,3.0351184E3,8.468122E1,5.106491E2,1.0592397E3,5.230818E2,3.26942E2,2.0133868E2,1.3192686E2,2.487366E1],"tree_param":{"num_deleted":"0","num_feature":"22","num_nodes":"31","size_leaf_vector":"1"}},{"base_weights":[6.95083E-1,8.562919E-1,-4.1386142E-1,9.891647E-1,6.162987E-1,-2.122432E-1,-1.7475407E0,8.613136E-1,1.0116968E0,2.495211E-1,6.9977975E-1,-8.5961115E-1,-4.6035375E-2,-1.4319652E0,-3.0278647E0,3.252465E-2,2.3397943E-2,3.7116677E-2,3.3420965E-2,1.4025138E-2,-1.0941373E-2,2.8422832E-2,1.8647168E-2,-6.844799E-2,-2.2360077E-2,7.3696007E-3,-1.1341505E-2,-7.711339E-2,-3.8685687E-2,-6.0649093E-2,-1.2730157E-1],"categories":[],"categories_nodes":[],"categories_segments":[],"categories_sizes":[],"default_left":[0,0,0,0,0,0,0,0,0,0,0,0,0,0,0,0,0,0,0,0,0,0,0,0,0,0,0,0,0,0,0],"id":4,"left_children":[1,3,5,7,9,11,13,15,17,19,21,23,25,27,29,-1,-1,-1,-1,-1,-1,-1,-1,-1,-1,-1,-1,-1,-1,-1,-1],"loss_changes":[5.064953E3,7.8697266E2,9.650626E2,4.365039E1,2.6916626E2,3.355586E2,1.8303467E2,2.0667236E1,2.1730469E1,1.2827457E2,1.1762891E2,1.5507278E2,1.6887154E2,9.1990234E1,5.39765E1,0E0,0E0,0E0,0E0,0E0,0E0,0E0,0E0,0E0,0E0,0E0,0E0,0E0,0E0,0E0,0E0],"parents":[2147483647,0,0,1,1,2,2,3,3,4,4,5,5,6,6,7,7,8,8,9,9,10,10,11,11,12,12,13,13,14,14],"right_children":[2,4,6,8,10,12,14,16,18,20,22,24,26,28,30,-1,-1,-1,-1,-1,-1,-1,-1,-1,-1,-1,-1,-1,-1,-1,-1],"split_conditions":[2E0,4.7586966E-4,9.5E0,-6.5364987E-1,-6.044312E-1,-6.368733E-1,1.85E1,4.6005547E-2,-6.0168866E-2,1.4285715E0,1E0,1.3960893E0,3.5E0,-5.7821006E-1,8E0,3.252465E-2,2.3397943E-2,3.7116677E-2,3.3420965E-2,1.4025138E-2,-1.0941373E-2,2.8422832E-2,1.8647168E-2,-6.844799E-2,-2.2360077E-2,7.3696007E-3,-1.1341505E-2,-7.711339E-2,-3.8685687E-2,-6.0649093E-2,-1.2730157E-1],"split_indices":[2,1,2,0,0,0,2,12,12,4,2,1,2,0,18,0,0,0,0,0,0,0,0,0,0,0,0,0,0,0,0],"split_type":[0,0,0,0,0,0,0,0,0,0,0,0,0,0,0,0,0,0,0,0,0,0,0,0,0,0,0,0,0,0,0],"sum_hessian":[2.8327234E4,2.4732678E4,3.5945574E3,1.5915142E4,8.817536E3,3.1239824E3,4.7057513E2,2.3951821E3,1.3519959E4,1.6371469E3,7.180389E3,6.3648334E2,2.487499E3,3.7966702E2,9.090811E1,1.9702311E3,4.2495096E2,1.0611853E4,2.908107E3,1.3062197E3,3.3092703E2,4.754259E3,2.4261306E3,1.1560606E2,5.2087726E2,1.2867815E3,1.2007174E3,1.23441376E2,2.5622565E2,2.6915909E1,6.3992207E1],"tree_param":{"num_deleted":"0","num_feature":"22","num_nodes":"31","size_leaf_vector":"1"}},{"base_weights":[6.829308E-1,8.472175E-1,-4.057961E-1,9.797032E-1,6.102343E-1,-1.367005E-1,-1.3385587E0,8.501842E-1,1.001761E0,3.174368E-1,7.0888966E-1,-7.0412123E-1,4.5903523E-2,-1.0145714E0,-2.076406E0,3.1392936E-2,1.514088E-2,3.6675543E-2,3.2904923E-2,1.7662399E-2,-1.8228741E-3,2.8627407E-2,1.9210251E-2,-5.5058103E-2,-1.6775467E-2,8.580028E-3,-7.894439E-3,-6.231044E-2,-2.754585E-2,-8.232764E-2,-3.503775E-2],"categories":[],"categories_nodes":[],"categories_segments":[],"categories_sizes":[],"default_left":[0,0,0,0,0,0,0,0,0,0,0,0,0,0,0,0,0,0,0,0,0,0,0,0,0,0,0,0,0,0,0],"id":5,"left_children":[1,3,5,7,9,11,13,15,17,19,21,23,25,27,29,-1,-1,-1,-1,-1,-1,-1,-1,-1,-1,-1,-1,-1,-1,-1,-1],"loss_changes":[4.9588447E3,7.5452734E2,9.1107324E2,4.196289E1,2.4867285E2,2.9295294E2,1.9007214E2,2.2060913E1,1.9825195E1,1.4048009E2,9.79353E1,1.3307315E2,1.0962494E2,9.811859E1,5.415747E1,0E0,0E0,0E0,0E0,0E0,0E0,0E0,0E0,0E0,0E0,0E0,0E0,0E0,0E0,0E0,0E0],"parents":[2147483647,0,0,1,1,2,2,3,3,4,4,5,5,6,6,7,7,8,8,9,9,10,10,11,11,12,12,13,13,14,14],"right_children":[2,4,6,8,10,12,14,16,18,20,22,24,26,28,30,-1,-1,-1,-1,-1,-1,-1,-1,-1,-1,-1,-1,-1,-1,-1,-1],"split_conditions":[2E0,4.7586966E-4,7E0,-6.833424E-1,-5.1738125E-1,-5.835074E-1,1.3E1,6.666667E-1,0E0,8.4615386E-1,1E0,1.4902662E0,3.5E0,-6.833424E-1,3.401956E-1,3.1392936E-2,1.514088E-2,3.6675543E-2,3.2904923E-2,1.7662399E-2,-1.8228741E-3,2.8627407E-2,1.9210251E-2,-5.5058103E-2,-1.6775467E-2,8.580028E-3,-7.894439E-3,-6.231044E-2,-2.754585E-2,-8.232764E-2,-3.503775E-2],"split_indices":[2,1,2,0,0,0,2,18,3,3,2,1,2,0,0,0,0,0,0,0,0,0,0,0,0,0,0,0,0,0,0],"split_type":[0,0,0,0,0,0,0,0,0,0,0,0,0,0,0,0,0,0,0,0,0,0,0,0,0,0,0,0,0,0,0],"sum_hessian":[2.7719545E4,2.4085904E4,3.6336394E3,1.5445148E4,8.640757E3,2.821549E3,8.120904E2,2.258046E3,1.3187103E4,2.1805493E3,6.4602075E3,6.871962E2,2.1343528E3,5.6662366E2,2.4546672E2,2.1351611E3,1.2288483E2,1.070181E4,2.485292E3,1.4805885E3,6.99961E2,4.2778184E3,2.182389E3,1.508212E2,5.3637506E2,1.2379056E3,8.964471E2,1.4252176E2,4.241019E2,2.036815E2,4.178522E1],"tree_param":{"num_deleted":"0","num_feature":"22","num_nodes":"31","size_leaf_vector":"1"}},{"base_weights":[6.7521304E-1,8.1958646E-1,-5.1622427E-1,9.552285E-1,5.393339E-1,-2.2743627E-1,-1.2586948E0,9.954359E-1,8.3434683E-1,2.1355048E-1,6.467706E-1,-1.0076927E0,-1.2261139E-1,-1.0331899E0,-2.2825758E0,3.2235272E-2,3.647874E-2,1.6024388E-2,3.134789E-2,1.4387932E-2,-7.905256E-3,2.6841672E-2,1.7574865E-2,-2.2937795E-2,-5.7756353E-2,-2.2998236E-2,-1.2089957E-3,-4.6230167E-2,-2.0211456E-2,-6.769802E-2,-1.0899083E-1],"categories":[],"categories_nodes":[],"categories_segments":[],"categories_sizes":[],"default_left":[0,0,0,0,0,0,0,0,0,0,0,0,0,0,0,0,0,0,0,0,0,0,0,0,0,0,0,0,0,0,0],"id":6,"left_children":[1,3,5,7,9,11,13,15,17,19,21,23,25,27,29,-1,-1,-1,-1,-1,-1,-1,-1,-1,-1,-1,-1,-1,-1,-1,-1],"loss_changes":[4.682627E3,9.21334E2,6.294496E2,7.737207E1,2.765371E2,1.7246738E2,1.8529395E2,2.2299805E1,6.0151855E1,1.5994955E2,9.3167725E1,5.2816513E1,8.5674385E1,7.8914856E1,3.4780457E1,0E0,0E0,0E0,0E0,0E0,0E0,0E0,0E0,0E0,0E0,0E0,0E0,0E0,0E0,0E0,0E0],"parents":[2147483647,0,0,1,1,2,2,3,3,4,4,5,5,6,6,7,7,8,8,9,9,10,10,11,11,12,12,13,13,14,14],"right_children":[2,4,6,8,10,12,14,16,18,20,22,24,26,28,30,-1,-1,-1,-1,-1,-1,-1,-1,-1,-1,-1,-1,-1,-1,-1,-1],"split_conditions":[2.5E0,1.0354789E-2,7E0,-2.862511E-4,-5.2265376E-1,-8.2049567E-1,1.65E1,-5.9907025E-1,-8.1599456E-1,1.1428572E0,5.3846157E-1,9.333333E0,1.4902662E0,4.710961E-2,1.1E1,3.2235272E-2,3.647874E-2,1.6024388E-2,3.134789E-2,1.4387932E-2,-7.905256E-3,2.6841672E-2,1.7574865E-2,-2.2937795E-2,-5.7756353E-2,-2.2998236E-2,-1.2089957E-3,-4.6230167E-2,-2.0211456E-2,-6.769802E-2,-1.0899083E-1],"split_indices":[2,1,2,1,0,0,2,0,0,4,3,5,1,0,18,0,0,0,0,0,0,0,0,0,0,0,0,0,0,0,0],"split_type":[0,0,0,0,0,0,0,0,0,0,0,0,0,0,0,0,0,0,0,0,0,0,0,0,0,0,0,0,0,0,0],"sum_hessian":[2.7217996E4,2.4277105E4,2.9408914E3,1.6355914E4,7.921191E3,2.1189685E3,8.219227E2,1.2263688E4,4.092225E3,1.9668002E3,5.9543906E3,2.49139E2,1.8698295E3,6.757862E2,1.4613657E2,2.1421348E3,1.0121554E4,3.7392435E2,3.7183008E3,1.3751155E3,5.916847E2,3.62421E3,2.3301807E3,1.5637938E2,9.2759636E1,2.7197086E2,1.5978586E3,4.3648593E2,2.3930025E2,9.857915E1,4.7557423E1],"tree_param":{"num_deleted":"0","num_feature":"22","num_nodes":"31","size_leaf_vector":"1"}},{"base_weights":[6.5963507E-1,8.250669E-1,-3.7124267E-1,9.612168E-1,5.948865E-1,-1.3201545E-1,-1.2852128E0,8.2865965E-1,9.8353785E-1,2.7358487E-1,6.780112E-1,-8.9791477E-1,-3.2821447E-2,-9.524732E-1,-1.8436272E0,3.1200755E-2,2.2612067E-2,3.60382E-2,3.2010093E-2,1.3723677E-2,-1.4256474E-2,2.7508626E-2,1.8025687E-2,-1.6213145E-2,-4.9396176E-2,3.8927798E-3,-1.2710699E-2,-5.8519136E-2,-2.6172645E-2,-5.904258E-2,-1.0844615E-1],"categories":[],"categories_nodes":[],"categories_segments":[],"categories_sizes":[],"default_left":[0,0,0,0,0,0,0,0,0,0,0,0,0,0,0,0,0,0,0,0,0,0,0,0,0,0,0,0,0,0,0],"id":7,"left_children":[1,3,5,7,9,11,13,15,17,19,21,23,25,27,29,-1,-1,-1,-1,-1,-1,-1,-1,-1,-1,-1,-1,-1,-1,-1,-1],"loss_changes":[4.5581104E3,7.200371E2,8.0685596E2,4.07041E1,2.2785645E2,2.2196265E2,1.3857178E2,1.51866455E1,2.0694336E1,1.286121E2,1.0417969E2,6.956732E1,1.1799525E2,7.0242065E1,5.8339233E1,0E0,0E0,0E0,0E0,0E0,0E0,0E0,0E0,0E0,0E0,0E0,0E0,0E0,0E0,0E0,0E0],"parents":[2147483647,0,0,1,1,2,2,3,3,4,4,5,5,6,6,7,7,8,8,9,9,10,10,11,11,12,12,13,13,14,14],"right_children":[2,4,6,8,10,12,14,16,18,20,22,24,26,28,30,-1,-1,-1,-1,-1,-1,-1,-1,-1,-1,-1,-1,-1,-1,-1,-1],"split_conditions":[2E0,3.4407436E-4,7.5E0,-7.0903987E-1,-5.835074E-1,-8.2049567E-1,1.25E1,4.6005547E-2,0E0,4.3333335E0,1E0,5.3076925E0,6E0,-6.833424E-1,2.4E1,3.1200755E-2,2.2612067E-2,3.60382E-2,3.2010093E-2,1.3723677E-2,-1.4256474E-2,2.7508626E-2,1.8025687E-2,-1.6213145E-2,-4.9396176E-2,3.8927798E-3,-1.2710699E-2,-5.8519136E-2,-2.6172645E-2,-5.904258E-2,-1.0844615E-1],"split_indices":[2,1,2,0,0,0,2,12,3,5,2,3,16,0,2,0,0,0,0,0,0,0,0,0,0,0,0,0,0,0,0],"split_type":[0,0,0,0,0,0,0,0,0,0,0,0,0,0,0,0,0,0,0,0,0,0,0,0,0,0,0,0,0,0,0],"sum_hessian":[2.6722828E4,2.3028223E4,3.6946052E3,1.4465648E4,8.562573E3,2.929693E3,7.6491223E2,2.0948628E3,1.2370785E4,1.7625657E3,6.800008E3,3.3418335E2,2.5955098E3,4.8180048E2,2.8311172E2,1.7362161E3,3.5864682E2,1.0135528E4,2.2352576E3,1.5181534E3,2.4441225E2,4.526365E3,2.2736426E3,1.745448E2,1.5963855E2,1.8016779E3,7.938319E2,1.1721376E2,3.6458673E2,2.4467523E2,3.8436497E1],"tree_param":{"num_deleted":"0","num_feature":"22","num_nodes":"31","size_leaf_vector":"1"}},{"base_weights":[6.527353E-1,8.179222E-1,-3.3623117E-1,9.584628E-1,5.812865E-1,-7.879323E-2,-1.0816759E0,8.2743514E-1,9.8163235E-1,2.2507341E-1,6.6712135E-1,-3.658009E-1,1.8750696E-1,-8.142323E-1,-1.8444878E0,3.1262845E-2,2.2498783E-2,3.60355E-2,3.232878E-2,1.2807808E-2,-8.7245125E-3,2.839402E-2,2.0131687E-2,-4.306522E-2,-6.664857E-3,1.2883485E-2,-6.998985E-4,-4.9273442E-2,-2.2179822E-2,-3.119754E-2,-7.730763E-2],"categories":[],"categories_nodes":[],"categories_segments":[],"categories_sizes":[],"default_left":[0,0,0,0,0,0,0,0,0,0,0,0,0,0,0,0,0,0,0,0,0,0,0,0,0,0,0,0,0,0,0],"id":8,"left_children":[1,3,5,7,9,11,13,15,17,19,21,23,25,27,29,-1,-1,-1,-1,-1,-1,-1,-1,-1,-1,-1,-1,-1,-1,-1,-1],"loss_changes":[4.3038936E3,7.490381E2,7.226156E2,4.088672E1,2.5651538E2,2.1451968E2,1.9389233E2,1.6964966E1,1.9207031E1,1.0103027E2,8.783325E1,2.017465E2,5.1804066E1,7.6532135E1,7.11087E1,0E0,0E0,0E0,0E0,0E0,0E0,0E0,0E0,0E0,0E0,0E0,0E0,0E0,0E0,0E0,0E0],"parents":[2147483647,0,0,1,1,2,2,3,3,4,4,5,5,6,6,7,7,8,8,9,9,10,10,11,11,12,12,13,13,14,14],"right_children":[2,4,6,8,10,12,14,16,18,20,22,24,26,28,30,-1,-1,-1,-1,-1,-1,-1,-1,-1,-1,-1,-1,-1,-1,-1,-1],"split_conditions":[2E0,3.4407436E-4,6.5E0,-6.5364987E-1,-5.9907025E-1,-1.7241913E-1,1.35E1,0E0,-6.0168866E-2,1.4285715E0,3.3333334E-1,1.2623551E0,9E0,-6.368733E-1,2.3091865E0,3.1262845E-2,2.2498783E-2,3.60355E-2,3.232878E-2,1.2807808E-2,-8.7245125E-3,2.839402E-2,2.0131687E-2,-4.306522E-2,-6.664857E-3,1.2883485E-2,-6.998985E-4,-4.9273442E-2,-2.2179822E-2,-3.119754E-2,-7.730763E-2],"split_indices":[2,1,2,0,0,0,2,3,12,4,20,1,6,0,17,0,0,0,0,0,0,0,0,0,0,0,0,0,0,0,0],"split_type":[0,0,0,0,0,0,0,0,0,0,0,0,0,0,0,0,0,0,0,0,0,0,0,0,0,0,0,0,0,0,0],"sum_hessian":[2.6340604E4,2.2571396E4,3.7692058E3,1.4157217E4,8.41418E3,2.8031877E3,9.660182E2,2.1373755E3,1.2019842E4,1.6361353E3,6.7780444E3,1.3502418E3,1.4529458E3,7.174693E2,2.4854886E2,1.7530232E3,3.8435233E2,9.446033E3,2.5738083E3,1.278377E3,3.5775833E2,3.1294075E3,3.648637E3,2.382812E2,1.1119606E3,7.964968E2,6.56449E2,1.8435594E2,5.331134E2,6.118963E1,1.8735924E2],"tree_param":{"num_deleted":"0","num_feature":"22","num_nodes":"31","size_leaf_vector":"1"}},{"base_weights":[6.413819E-1,8.0452675E-1,-3.2120255E-1,9.452939E-1,5.6357646E-1,-9.219789E-2,-1.0492568E0,8.197419E-1,9.6805584E-1,3.7767854E-1,7.0986E-1,-5.7361513E-1,6.663747E-2,-8.9450836E-1,-2.1392264E0,3.0829508E-2,2.1606501E-2,3.557603E-2,3.180551E-2,1.8191965E-2,4.7996496E-3,2.8833583E-2,2.1113742E-2,-5.6349024E-2,-1.2250329E-2,8.242662E-3,-5.357639E-3,-5.044359E-2,-2.5463168E-2,-9.120966E-2,-4.721908E-2],"categories":[],"categories_nodes":[],"categories_segments":[],"categories_sizes":[],"default_left":[0,0,0,0,0,0,0,0,0,0,0,0,0,0,0,0,0,0,0,0,0,0,0,0,0,0,0,0,0,0,0],"id":9,"left_children":[1,3,5,7,9,11,13,15,17,19,21,23,25,27,29,-1,-1,-1,-1,-1,-1,-1,-1,-1,-1,-1,-1,-1,-1,-1,-1],"loss_changes":[4.048338E3,7.459668E2,6.2190594E2,3.7688477E1,2.2010913E2,2.1783017E2,1.4655609E2,1.663147E1,1.9805664E1,1.1231641E2,5.0161865E1,1.6165718E2,7.527399E1,7.169165E1,3.0188843E1,0E0,0E0,0E0,0E0,0E0,0E0,0E0,0E0,0E0,0E0,0E0,0E0,0E0,0E0,0E0,0E0],"parents":[2147483647,0,0,1,1,2,2,3,3,4,4,5,5,6,6,7,7,8,8,9,9,10,10,11,11,12,12,13,13,14,14],"right_children":[2,4,6,8,10,12,14,16,18,20,22,24,26,28,30,-1,-1,-1,-1,-1,-1,-1,-1,-1,-1,-1,-1,-1,-1,-1,-1],"split_conditions":[2E0,4.7586966E-4,7E0,-6.5364987E-1,-1.6651317E-1,-5.835074E-1,1.85E1,-2.5395345E-4,-6.0168866E-2,6.666667E-1,6.666667E-1,1.2623551E0,3.5E0,-6.368733E-1,-2.702159E-1,3.0829508E-2,2.1606501E-2,3.557603E-2,3.180551E-2,1.8191965E-2,4.7996496E-3,2.8833583E-2,2.1113742E-2,-5.6349024E-2,-1.2250329E-2,8.242662E-3,-5.357639E-3,-5.044359E-2,-2.5463168E-2,-9.120966E-2,-4.721908E-2],"split_indices":[2,1,2,0,0,0,2,1,12,20,18,1,2,0,0,0,0,0,0,0,0,0,0,0,0,0,0,0,0,0,0],"split_type":[0,0,0,0,0,0,0,0,0,0,0,0,0,0,0,0,0,0,0,0,0,0,0,0,0,0,0,0,0,0,0],"sum_hessian":[2.5774082E4,2.2039578E4,3.7345046E3,1.390827E4,8.131308E3,2.8425122E3,8.919923E2,2.1449858E3,1.1763283E4,3.584517E3,4.546791E3,7.056373E2,2.136875E3,7.832605E2,1.0873184E2,1.8151289E3,3.298571E2,9.1994375E3,2.5638462E3,2.3424077E3,1.2421093E3,2.5700671E3,1.976724E3,1.3188066E2,5.7375665E2,1.219567E3,9.173079E2,2.0590082E2,5.773597E2,7.116382E1,3.756802E1],"tree_param":{"num_deleted":"0","num_feature":"22","num_nodes":"31","size_leaf_vector":"1"}},{"base_weights":[6.2415653E-1,8.165926E-1,-1.9173639E-1,9.3748826E-1,6.0118055E-1,9.062695E-2,-7.498163E-1,8.7517136E-1,9.789738E-1,4.0992454E-1,7.3849463E-1,-3.4026366E-1,2.1868038E-1,-1.1607832E0,-4.3021354E-1,3.2456994E-2,2.61476E-2,3.588354E-2,3.303046E-2,1.7650133E-2,1.8570161E-3,2.8190082E-2,1.9839058E-2,-3.4161333E-2,-1.4447966E-3,1.3409892E-2,9.799874E-4,-9.382075E-2,-3.8508724E-2,-1.9401363E-3,-2.5012344E-2],"categories":[],"categories_nodes":[],"categories_segments":[],"categories_sizes":[],"default_left":[0,0,0,0,0,0,0,0,0,0,0,0,0,0,0,0,0,0,0,0,0,0,0,0,0,0,0,0,0,0,0],"id":10,"left_children":[1,3,5,7,9,11,13,15,17,19,21,23,25,27,29,-1,-1,-1,-1,-1,-1,-1,-1,-1,-1,-1,-1,-1,-1,-1,-1],"loss_changes":[3.9739727E3,5.316455E2,7.6162964E2,3.1726562E1,1.9233838E2,1.7695273E2,2.1162982E2,2.040747E1,7.1831055E0,8.974359E1,3.575464E1,1.3382318E2,7.3007E1,8.546161E1,9.121274E1,0E0,0E0,0E0,0E0,0E0,0E0,0E0,0E0,0E0,0E0,0E0,0E0,0E0,0E0,0E0,0E0],"parents":[2147483647,0,0,1,1,2,2,3,3,4,4,5,5,6,6,7,7,8,8,9,9,10,10,11,11,12,12,13,13,14,14],"right_children":[2,4,6,8,10,12,14,16,18,20,22,24,26,28,30,-1,-1,-1,-1,-1,-1,-1,-1,-1,-1,-1,-1,-1,-1,-1,-1],"split_conditions":[1.5E0,1.6383252E-4,4.5E0,-1.7801015E-1,-1.947938E-1,-5.9907025E-1,-4.0225586E-1,4.6005547E-2,-3.3157202E-4,1.2857143E0,1.3076923E0,1.5818838E0,2.5E0,1.8335165E0,7.6666665E0,3.2456994E-2,2.61476E-2,3.588354E-2,3.303046E-2,1.7650133E-2,1.8570161E-3,2.8190082E-2,1.9839058E-2,-3.4161333E-2,-1.4447966E-3,1.3409892E-2,9.799874E-4,-9.382075E-2,-3.8508724E-2,-1.9401363E-3,-2.5012344E-2],"split_indices":[2,1,2,0,0,0,0,12,1,4,3,1,2,1,16,0,0,0,0,0,0,0,0,0,0,0,0,0,0,0,0],"split_type":[0,0,0,0,0,0,0,0,0,0,0,0,0,0,0,0,0,0,0,0,0,0,0,0,0,0,0,0,0,0,0],"sum_hessian":[2.5305953E4,2.0477104E4,4.8288496E3,1.3111749E4,7.3653545E3,3.206215E3,1.6226344E3,5.255886E3,7.8558633E3,3.0819106E3,4.283444E3,7.3289124E2,2.473324E3,7.0773236E2,9.1490204E2,4.3870693E3,8.6881665E2,5.8186177E3,2.0372456E3,2.5079697E3,5.7394073E2,3.4194019E3,8.640422E2,2.3982988E2,4.9306134E2,1.3648243E3,1.1084995E3,3.846858E1,6.692638E2,3.808929E2,5.340091E2],"tree_param":{"num_deleted":"0","num_feature":"22","num_nodes":"31","size_leaf_vector":"1"}},{"base_weights":[6.161034E-1,8.0884993E-1,-1.869991E-1,9.2582047E-1,5.8516705E-1,8.80427E-2,-7.229703E-1,8.0142593E-1,9.529068E-1,3.0206937E-1,6.6716933E-1,-3.6243683E-1,2.2224356E-1,-5.5558985E-1,-1.4406106E0,3.0212648E-2,2.211313E-2,3.498924E-2,3.0758163E-2,1.8552627E-2,2.927248E-3,2.6439318E-2,1.8353771E-2,-3.3482134E-2,-2.6247397E-3,1.3479157E-2,1.3226923E-3,-3.3279017E-2,-1.0163426E-2,-8.7622635E-2,-4.5308307E-2],"categories":[],"categories_nodes":[],"categories_segments":[],"categories_sizes":[],"default_left":[0,0,0,0,0,0,0,0,0,0,0,0,0,0,0,0,0,0,0,0,0,0,0,0,0,0,0,0,0,0,0],"id":11,"left_children":[1,3,5,7,9,11,13,15,17,19,21,23,25,27,29,-1,-1,-1,-1,-1,-1,-1,-1,-1,-1,-1,-1,-1,-1,-1,-1],"loss_changes":[3.8323838E3,5.2072266E2,7.068099E2,4.2148438E1,1.5835791E2,1.9140347E2,1.9307861E2,1.5926147E1,2.018164E1,7.264191E1,5.6112305E1,1.1895304E2,6.902082E1,1.3251212E2,4.8989014E1,0E0,0E0,0E0,0E0,0E0,0E0,0E0,0E0,0E0,0E0,0E0,0E0,0E0,0E0,0E0,0E0],"parents":[2147483647,0,0,1,1,2,2,3,3,4,4,5,5,6,6,7,7,8,8,9,9,10,10,11,11,12,12,13,13,14,14],"right_children":[2,4,6,8,10,12,14,16,18,20,22,24,26,28,30,-1,-1,-1,-1,-1,-1,-1,-1,-1,-1,-1,-1,-1,-1,-1,-1],"split_conditions":[1.5E0,4.7586966E-4,4.5E0,-5.9907025E-1,-5.614653E-1,-5.9907025E-1,1.25E1,4.6005547E-2,-2.862511E-4,2.3076923E-1,6.1538464E-1,1.5818838E0,2.5E0,-4.0225586E-1,-8.5604465E-1,3.0212648E-2,2.211313E-2,3.498924E-2,3.0758163E-2,1.8552627E-2,2.927248E-3,2.6439318E-2,1.8353771E-2,-3.3482134E-2,-2.6247397E-3,1.3479157E-2,1.3226923E-3,-3.3279017E-2,-1.0163426E-2,-8.7622635E-2,-4.5308307E-2],"split_indices":[2,1,2,0,0,0,2,12,1,3,3,1,2,0,0,0,0,0,0,0,0,0,0,0,0,0,0,0,0,0,0],"split_type":[0,0,0,0,0,0,0,0,0,0,0,0,0,0,0,0,0,0,0,0,0,0,0,0,0,0,0,0,0,0,0],"sum_hessian":[2.4752941E4,1.9962719E4,4.7902236E3,1.3103954E4,6.858764E3,3.165375E3,1.6248484E3,2.353272E3,1.0750682E4,1.5434895E3,5.3152744E3,7.2494025E2,2.4404348E3,1.3197876E3,3.0506085E2,1.9298473E3,4.234247E2,8.770529E3,1.980153E3,7.79926E2,7.6356354E2,3.67673E3,1.6385446E3,2.4249681E2,4.8244342E2,1.3337938E3,1.1066409E3,5.5659595E2,7.6319165E2,4.3752407E1,2.6130844E2],"tree_param":{"num_deleted":"0","num_feature":"22","num_nodes":"31","size_leaf_vector":"1"}},{"base_weights":[6.0190225E-1,7.9662573E-1,-1.9288123E-1,9.218375E-1,5.7743317E-1,7.310332E-2,-7.041764E-1,7.977891E-1,9.4916666E-1,2.9208618E-1,6.7285043E-1,-3.4248012E-1,2.0436333E-1,-9.7155094E-1,-3.1361297E-1,2.9451529E-2,1.8048305E-2,3.481853E-2,3.1128654E-2,1.6523194E-2,7.5727777E-4,2.768722E-2,2.0222716E-2,-3.031912E-2,-1.5854653E-3,1.2658552E-2,8.587887E-4,-2.6513476E-2,-5.2431636E-2,-5.478609E-3,-3.7775766E-2],"categories":[],"categories_nodes":[],"categories_segments":[],"categories_sizes":[],"default_left":[0,0,0,0,0,0,0,0,0,0,0,0,0,0,0,0,0,0,0,0,0,0,0,0,0,0,0,0,0,0,0],"id":12,"left_children":[1,3,5,7,9,11,13,15,17,19,21,23,25,27,29,-1,-1,-1,-1,-1,-1,-1,-1,-1,-1,-1,-1,-1,-1,-1,-1],"loss_changes":[3.7769297E3,5.3633496E2,6.535404E2,4.0279297E1,1.9326123E2,1.7227641E2,1.7048291E2,1.3637207E1,1.5099609E1,8.120923E1,5.6152588E1,1.1272048E2,6.3962357E1,1.0838739E2,7.874498E1,0E0,0E0,0E0,0E0,0E0,0E0,0E0,0E0,0E0,0E0,0E0,0E0,0E0,0E0,0E0,0E0],"parents":[2147483647,0,0,1,1,2,2,3,3,4,4,5,5,6,6,7,7,8,8,9,9,10,10,11,11,12,12,13,13,14,14],"right_children":[2,4,6,8,10,12,14,16,18,20,22,24,26,28,30,-1,-1,-1,-1,-1,-1,-1,-1,-1,-1,-1,-1,-1,-1,-1,-1],"split_conditions":[1.5E0,1.6383252E-4,4.5E0,-5.9907025E-1,-5.2265376E-1,-5.9907025E-1,-8.957656E-2,7.597302E-1,-6.0168866E-2,5.714286E-1,3.3333334E-1,1.8335165E0,2.5E0,1.05E1,8E0,2.9451529E-2,1.8048305E-2,3.481853E-2,3.1128654E-2,1.6523194E-2,7.5727777E-4,2.768722E-2,2.0222716E-2,-3.031912E-2,-1.5854653E-3,1.2658552E-2,8.587887E-4,-2.6513476E-2,-5.2431636E-2,-5.478609E-3,-3.7775766E-2],"split_indices":[2,1,2,0,0,0,0,12,12,4,20,1,2,2,18,0,0,0,0,0,0,0,0,0,0,0,0,0,0,0,0],"split_type":[0,0,0,0,0,0,0,0,0,0,0,0,0,0,0,0,0,0,0,0,0,0,0,0,0,0,0,0,0,0,0],"sum_hessian":[2.4399852E4,1.959896E4,4.800892E3,1.2469453E4,7.129508E3,3.1576812E3,1.6432107E3,2.261325E3,1.0208128E4,1.789493E3,5.3400146E3,7.5626135E2,2.40142E3,9.734772E2,6.697336E2,2.0976067E3,1.6371808E2,8.1520137E3,2.0561145E3,1.1023937E3,6.870993E2,2.8097178E3,2.5302969E3,2.8035934E2,4.7590198E2,1.3159094E3,1.0855104E3,6.617409E2,3.1173624E2,5.516132E2,1.18120346E2],"tree_param":{"num_deleted":"0","num_feature":"22","num_nodes":"31","size_leaf_vector":"1"}},{"base_weights":[5.954892E-1,7.9288995E-1,-1.7978445E-1,9.110457E-1,5.7661396E-1,-3.978443E-3,-8.964397E-1,7.6361364E-1,9.358791E-1,3.1086373E-1,6.683324E-1,-2.4055037E-1,2.2694089E-1,-1.6198295E0,-7.6598376E-1,2.8858041E-2,1.9233666E-2,3.445769E-2,3.0423053E-2,1.637305E-2,2.3379067E-3,2.6379202E-2,1.8738149E-2,-2.3994356E-2,-2.0923025E-3,1.615555E-2,1.5420987E-3,-4.520219E-2,-7.8622535E-2,-2.0634811E-2,-4.1035473E-2],"categories":[],"categories_nodes":[],"categories_segments":[],"categories_sizes":[],"default_left":[0,0,0,0,0,0,0,0,0,0,0,0,0,0,0,0,0,0,0,0,0,0,0,0,0,0,0,0,0,0,0],"id":13,"left_children":[1,3,5,7,9,11,13,15,17,19,21,23,25,27,29,-1,-1,-1,-1,-1,-1,-1,-1,-1,-1,-1,-1,-1,-1,-1,-1],"loss_changes":[3.6643877E3,4.8606152E2,6.1151373E2,4.3248047E1,1.6354517E2,2.133014E2,8.731421E1,1.4960327E1,2.0128906E1,6.1479324E1,4.743213E1,1.4991718E2,8.063544E1,2.4492432E1,5.673178E1,0E0,0E0,0E0,0E0,0E0,0E0,0E0,0E0,0E0,0E0,0E0,0E0,0E0,0E0,0E0,0E0],"parents":[2147483647,0,0,1,1,2,2,3,3,4,4,5,5,6,6,7,7,8,8,9,9,10,10,11,11,12,12,13,13,14,14],"right_children":[2,4,6,8,10,12,14,16,18,20,22,24,26,28,30,-1,-1,-1,-1,-1,-1,-1,-1,-1,-1,-1,-1,-1,-1,-1,-1],"split_conditions":[1.5E0,3.4407436E-4,7E0,-7.245496E-1,-5.2265376E-1,-1.7241913E-1,-8.3497214E-1,-2.5395345E-4,-6.0168866E-2,5.3846157E-1,1E0,1.7249197E0,2.5E0,1.35E1,1.25E1,2.8858041E-2,1.9233666E-2,3.445769E-2,3.0423053E-2,1.637305E-2,2.3379067E-3,2.6379202E-2,1.8738149E-2,-2.3994356E-2,-2.0923025E-3,1.615555E-2,1.5420987E-3,-4.520219E-2,-7.8622535E-2,-2.0634811E-2,-4.1035473E-2],"split_indices":[2,1,2,0,0,0,0,1,12,3,16,1,2,2,2,0,0,0,0,0,0,0,0,0,0,0,0,0,0,0,0],"split_type":[0,0,0,0,0,0,0,0,0,0,0,0,0,0,0,0,0,0,0,0,0,0,0,0,0,0,0,0,0,0,0],"sum_hessian":[2.3939281E4,1.9081602E4,4.857679E3,1.2335815E4,6.745786E3,3.902367E3,9.553121E2,1.787003E3,1.05488125E4,1.7339288E3,5.011857E3,1.9290881E3,1.9732789E3,1.4338336E2,8.119287E2,1.5149099E3,2.7209308E2,8.302277E3,2.2465352E3,1.0877834E3,6.461454E2,3.443412E3,1.568445E3,5.74505E2,1.3545831E3,8.896872E2,1.0835918E3,9.050943E1,5.2873928E1,5.414827E2,2.7044595E2],"tree_param":{"num_deleted":"0","num_feature":"22","num_nodes":"31","size_leaf_vector":"1"}},{"base_weights":[5.8198035E-1,7.775783E-1,-1.7935318E-1,9.0371263E-1,5.497884E-1,2.9963689E-2,-7.2874206E-1,7.568576E-1,9.305067E-1,1.1839306E-1,6.035302E-1,-3.654299E-1,1.7363991E-1,-1.1168067E0,-4.2606363E-1,2.893608E-2,1.9763062E-2,3.4577057E-2,3.0850016E-2,7.4537257E-3,-1.9434644E-2,2.4370015E-2,1.5996195E-2,-2.8549245E-2,-5.97674E-3,1.2692677E-2,4.0259343E-4,-3.3716813E-2,-6.129478E-2,-8.027628E-3,-3.4879446E-2],"categories":[],"categories_nodes":[],"categories_segments":[],"categories_sizes":[],"default_left":[0,0,0,0,0,0,0,0,0,0,0,0,0,0,0,0,0,0,0,0,0,0,0,0,0,0,0,0,0,0,0],"id":14,"left_children":[1,3,5,7,9,11,13,15,17,19,21,23,25,27,29,-1,-1,-1,-1,-1,-1,-1,-1,-1,-1,-1,-1,-1,-1,-1,-1],"loss_changes":[3.5124478E3,5.375908E2,5.5485583E2,4.560254E1,1.5455615E2,1.982238E2,1.5475336E2,1.7543213E1,2.1510742E1,4.3650818E1,6.957837E1,7.86398E1,7.458995E1,5.7546265E1,8.179318E1,0E0,0E0,0E0,0E0,0E0,0E0,0E0,0E0,0E0,0E0,0E0,0E0,0E0,0E0,0E0,0E0],"parents":[2147483647,0,0,1,1,2,2,3,3,4,4,5,5,6,6,7,7,8,8,9,9,10,10,11,11,12,12,13,13,14,14],"right_children":[2,4,6,8,10,12,14,16,18,20,22,24,26,28,30,-1,-1,-1,-1,-1,-1,-1,-1,-1,-1,-1,-1,-1,-1,-1,-1],"split_conditions":[1.5E0,3.4407436E-4,7.6666665E0,-6.5364987E-1,-8.017127E-1,-5.730791E-1,-3.698563E-1,-2.9354412E-4,-3.4355343E-4,2.9230769E0,6.1538464E-1,1.8335165E0,2.5E0,1.4E1,1.05E1,2.893608E-2,1.9763062E-2,3.4577057E-2,3.0850016E-2,7.4537257E-3,-1.9434644E-2,2.4370015E-2,1.5996195E-2,-2.8549245E-2,-5.97674E-3,1.2692677E-2,4.0259343E-4,-3.3716813E-2,-6.129478E-2,-8.027628E-3,-3.4879446E-2],"split_indices":[2,1,16,0,0,0,0,1,1,3,3,1,2,2,2,0,0,0,0,0,0,0,0,0,0,0,0,0,0,0,0],"split_type":[0,0,0,0,0,0,0,0,0,0,0,0,0,0,0,0,0,0,0,0,0,0,0,0,0,0,0,0,0,0,0],"sum_hessian":[2.3582096E4,1.876261E4,4.819485E3,1.2071929E4,6.6906816E3,3.4896023E3,1.3298826E3,1.8712981E3,1.0200631E4,7.429881E2,5.9476934E3,9.283429E2,2.5612595E3,5.805387E2,7.493439E2,1.5070878E3,3.6421033E2,6.993601E3,3.2070298E3,6.5604156E2,8.694652E1,4.024997E3,1.9226963E3,2.9175397E2,6.365889E2,1.2127919E3,1.3484675E3,4.49077E2,1.314617E2,5.484205E2,2.009234E2],"tree_param":{"num_deleted":"0","num_feature":"22","num_nodes":"31","size_leaf_vector":"1"}},{"base_weights":[5.745686E-1,8.082005E-1,-1.8790564E-2,9.044724E-1,6.134207E-1,1.8230031E-1,-5.8631474E-1,7.5757873E-1,9.301282E-1,3.0327532E-1,6.919242E-1,-1.6003812E-2,3.863801E-1,-1.0946653E0,-4.065564E-1,2.901637E-2,2.0635583E-2,3.4230873E-2,3.1197703E-2,1.586836E-2,6.3604396E-4,2.1057101E-2,2.7300011E-2,-1.0446308E-2,6.079493E-3,1.7482277E-2,5.048937E-3,-3.0441599E-2,-5.4797783E-2,-1.0910168E-2,-3.7979297E-2],"categories":[],"categories_nodes":[],"categories_segments":[],"categories_sizes":[],"default_left":[0,0,0,0,0,0,0,0,0,0,0,0,0,0,0,0,0,0,0,0,0,0,0,0,0,0,0,0,0,0,0],"id":15,"left_children":[1,3,5,7,9,11,13,15,17,19,21,23,25,27,29,-1,-1,-1,-1,-1,-1,-1,-1,-1,-1,-1,-1,-1,-1,-1,-1],"loss_changes":[3.2157651E3,3.104297E2,7.4817163E2,4.0051758E1,1.3324268E2,1.960582E2,1.5524646E2,1.3939941E1,1.1344238E1,4.3880463E1,3.0299072E1,1.2510913E2,5.842453E1,4.45802E1,8.364369E1,0E0,0E0,0E0,0E0,0E0,0E0,0E0,0E0,0E0,0E0,0E0,0E0,0E0,0E0,0E0,0E0],"parents":[2147483647,0,0,1,1,2,2,3,3,4,4,5,5,6,6,7,7,8,8,9,9,10,10,11,11,12,12,13,13,14,14],"right_children":[2,4,6,8,10,12,14,16,18,20,22,24,26,28,30,-1,-1,-1,-1,-1,-1,-1,-1,-1,-1,-1,-1,-1,-1,-1,-1],"split_conditions":[1E0,-3.7246504E-5,4.5E0,-7.0903987E-1,-5.9907025E-1,-1.2599955E-1,-6.833424E-1,-3.2688366E-4,-3.4355343E-4,5.714286E-1,3.449444E-2,1.5818838E0,2.5E0,2.9019837E0,9E0,2.901637E-2,2.0635583E-2,3.4230873E-2,3.1197703E-2,1.586836E-2,6.3604396E-4,2.1057101E-2,2.7300011E-2,-1.0446308E-2,6.079493E-3,1.7482277E-2,5.048937E-3,-3.0441599E-2,-5.4797783E-2,-1.0910168E-2,-3.7979297E-2],"split_indices":[2,1,2,0,0,0,0,1,1,4,0,1,2,11,18,0,0,0,0,0,0,0,0,0,0,0,0,0,0,0,0],"split_type":[0,0,0,0,0,0,0,0,0,0,0,0,0,0,0,0,0,0,0,0,0,0,0,0,0,0,0,0,0,0,0],"sum_hessian":[2.3191996E4,1.6640662E4,6.5513335E3,1.1131511E4,5.509151E3,4.8369023E3,1.7144312E3,1.6637578E3,9.467753E3,1.1156051E3,4.3935454E3,2.451869E3,2.3850334E3,4.4550943E2,1.2689218E3,1.2978E3,3.6595782E2,6.8469893E3,2.620764E3,7.489122E2,3.6669293E2,1.7360597E3,2.6574858E3,9.8855927E2,1.4633098E3,1.6900186E3,6.950149E2,2.8631277E2,1.5919667E2,1.0982605E3,1.706613E2],"tree_param":{"num_deleted":"0","num_feature":"22","num_nodes":"31","size_leaf_vector":"1"}},{"base_weights":[5.6574434E-1,7.6022106E-1,-1.4962423E-1,8.8432646E-1,5.343779E-1,8.185588E-2,-5.7271695E-1,7.315542E-1,9.109247E-1,1.0510774E-1,5.9005016E-1,-2.9336032E-1,1.9732584E-1,-1.0520589E0,-3.9976907E-1,2.7759816E-2,1.5673501E-2,3.3656597E-2,2.9342333E-2,9.507192E-3,-1.1771734E-2,2.3973895E-2,1.4731167E-2,-2.7446523E-2,-1.3346812E-3,1.254314E-2,5.8035593E-4,-3.3170495E-2,-5.8901913E-2,-1.0841931E-2,-3.5755105E-2],"categories":[],"categories_nodes":[],"categories_segments":[],"categories_sizes":[],"default_left":[0,0,0,0,0,0,0,0,0,0,0,0,0,0,0,0,0,0,0,0,0,0,0,0,0,0,0,0,0,0,0],"id":16,"left_children":[1,3,5,7,9,11,13,15,17,19,21,23,25,27,29,-1,-1,-1,-1,-1,-1,-1,-1,-1,-1,-1,-1,-1,-1,-1,-1],"loss_changes":[3.1652144E3,4.9983887E2,4.765902E2,4.5058594E1,1.5114417E2,1.361452E2,1.4119464E2,1.9900513E1,2.2310547E1,5.0604218E1,7.7359985E1,8.8517784E1,6.596563E1,3.0962524E1,7.265524E1,0E0,0E0,0E0,0E0,0E0,0E0,0E0,0E0,0E0,0E0,0E0,0E0,0E0,0E0,0E0,0E0],"parents":[2147483647,0,0,1,1,2,2,3,3,4,4,5,5,6,6,7,7,8,8,9,9,10,10,11,11,12,12,13,13,14,14],"right_children":[2,4,6,8,10,12,14,16,18,20,22,24,26,28,30,-1,-1,-1,-1,-1,-1,-1,-1,-1,-1,-1,-1,-1,-1,-1,-1],"split_conditions":[1.5E0,4.7586966E-4,4.5E0,-7.0903987E-1,-7.9688245E-1,-6.095587E-1,-6.833424E-1,3.2198235E-1,-6.0168866E-2,6.666667E-1,6.923077E-1,1.5818838E0,2.5E0,1.8666666E1,9E0,2.7759816E-2,1.5673501E-2,3.3656597E-2,2.9342333E-2,9.507192E-3,-1.1771734E-2,2.3973895E-2,1.4731167E-2,-2.7446523E-2,-1.3346812E-3,1.254314E-2,5.8035593E-4,-3.3170495E-2,-5.8901913E-2,-1.0841931E-2,-3.5755105E-2],"split_indices":[2,1,2,0,0,0,0,12,12,20,3,1,2,16,18,0,0,0,0,0,0,0,0,0,0,0,0,0,0,0,0],"split_type":[0,0,0,0,0,0,0,0,0,0,0,0,0,0,0,0,0,0,0,0,0,0,0,0,0,0,0,0,0,0,0],"sum_hessian":[2.2746334E4,1.7885102E4,4.861232E3,1.153844E4,6.3466616E3,3.141566E3,1.7196661E3,1.7191758E3,9.819265E3,7.3040283E2,5.616259E3,7.3747565E2,2.40409E3,4.5351624E2,1.2661499E3,1.5033507E3,2.1582506E2,7.646906E3,2.1723596E3,5.350915E2,1.9531131E2,3.9178345E3,1.6984242E3,2.581259E2,4.793498E2,1.3046089E3,1.0994813E3,3.7545493E2,7.806132E1,1.0899657E3,1.7618425E2],"tree_param":{"num_deleted":"0","num_feature":"22","num_nodes":"31","size_leaf_vector":"1"}},{"base_weights":[5.5069226E-1,7.4512804E-1,-1.4390154E-1,8.802525E-1,5.195387E-1,7.8648865E-2,-5.539492E-1,7.3887146E-1,9.105406E-1,2.2509418E-1,5.9680164E-1,-2.6895618E-1,2.1440114E-1,-9.997721E-1,-3.8945004E-1,2.7778143E-2,1.8651353E-2,3.3519607E-2,2.9389758E-2,1.2686261E-2,-4.623726E-3,2.5341373E-2,1.7023688E-2,-2.2905366E-2,3.6700086E-3,-1.971939E-2,8.83634E-3,-8.7265715E-2,-3.3160828E-2,-9.636792E-3,-2.997863E-2],"categories":[],"categories_nodes":[],"categories_segments":[],"categories_sizes":[],"default_left":[0,0,0,0,0,0,0,0,0,0,0,0,0,0,0,0,0,0,0,0,0,0,0,0,0,0,0,0,0,0,0],"id":17,"left_children":[1,3,5,7,9,11,13,15,17,19,21,23,25,27,29,-1,-1,-1,-1,-1,-1,-1,-1,-1,-1,-1,-1,-1,-1,-1,-1],"loss_changes":[3.0133599E3,5.2987305E2,4.4562003E2,4.4822266E1,1.4792566E2,1.4924225E2,1.2459656E2,1.3417236E1,1.6964844E1,6.1987587E1,6.7986206E1,1.21934586E2,5.500715E1,4.566916E1,6.68103E1,0E0,0E0,0E0,0E0,0E0,0E0,0E0,0E0,0E0,0E0,0E0,0E0,0E0,0E0,0E0,0E0],"parents":[2147483647,0,0,1,1,2,2,3,3,4,4,5,5,6,6,7,7,8,8,9,9,10,10,11,11,12,12,13,13,14,14],"right_children":[2,4,6,8,10,12,14,16,18,20,22,24,26,28,30,-1,-1,-1,-1,-1,-1,-1,-1,-1,-1,-1,-1,-1,-1,-1,-1],"split_conditions":[1.5E0,1.6383252E-4,4.5E0,-6.095587E-1,-5.940242E-1,1.4414035E0,-6.833424E-1,4.2063493E-1,-6.0168866E-2,1E0,3.3333334E-1,-2.2220394E-1,-8.983948E-1,1.4902662E0,1.15E1,2.7778143E-2,1.8651353E-2,3.3519607E-2,2.9389758E-2,1.2686261E-2,-4.623726E-3,2.5341373E-2,1.7023688E-2,-2.2905366E-2,3.6700086E-3,-1.971939E-2,8.83634E-3,-8.7265715E-2,-3.3160828E-2,-9.636792E-3,-2.997863E-2],"split_indices":[2,1,2,0,0,1,0,21,12,4,20,0,0,1,2,0,0,0,0,0,0,0,0,0,0,0,0,0,0,0,0],"split_type":[0,0,0,0,0,0,0,0,0,0,0,0,0,0,0,0,0,0,0,0,0,0,0,0,0,0,0,0,0,0,0],"sum_hessian":[2.2307338E4,1.742934E4,4.877999E3,1.0896476E4,6.5328643E3,3.1613025E3,1.7166963E3,1.93111E3,8.965365E3,1.3606401E3,5.172224E3,8.861175E2,2.275185E3,4.601674E2,1.2565289E3,1.6620563E3,2.6905374E2,7.1596436E3,1.805722E3,1.0002192E3,3.6042093E2,2.7337078E3,2.4385164E3,4.4497418E2,4.4114328E2,8.912898E1,2.1860562E3,2.1246595E1,4.389208E2,9.9053253E2,2.6599643E2],"tree_param":{"num_deleted":"0","num_feature":"22","num_nodes":"31","size_leaf_vector":"1"}},{"base_weights":[5.4040205E-1,7.783387E-1,-3.1090619E-2,8.766293E-1,5.903479E-1,1.983166E-1,-4.5213258E-1,7.4699026E-1,9.054156E-1,7.1366824E-2,6.3088244E-1,1.5178103E-3,3.996752E-1,-6.32938E-1,-7.615445E-2,2.8308854E-2,2.294709E-2,3.3386435E-2,2.9786617E-2,-1.0176105E-3,1.9079182E-2,1.8169533E-2,2.6123043E-2,-1.0783602E-2,6.6739307E-3,1.6885845E-2,4.7899396E-3,-1.8777097E-2,-4.396837E-2,8.5997133E-4,-2.5954595E-2],"categories":[],"categories_nodes":[],"categories_segments":[],"categories_sizes":[],"default_left":[0,0,0,0,0,0,0,0,0,0,0,0,0,0,0,0,0,0,0,0,0,0,0,0,0,0,0,0,0,0,0],"id":18,"left_children":[1,3,5,7,9,11,13,15,17,19,21,23,25,27,29,-1,-1,-1,-1,-1,-1,-1,-1,-1,-1,-1,-1,-1,-1,-1,-1],"loss_changes":[2.9979297E3,2.860332E2,6.261479E2,3.627588E1,1.11987915E2,1.6591092E2,1.5489862E2,6.8258057E0,1.3439453E1,1.8256065E1,5.8616577E1,1.1815615E2,3.8446228E1,9.850513E1,4.8741383E1,0E0,0E0,0E0,0E0,0E0,0E0,0E0,0E0,0E0,0E0,0E0,0E0,0E0,0E0,0E0,0E0],"parents":[2147483647,0,0,1,1,2,2,3,3,4,4,5,5,6,6,7,7,8,8,9,9,10,10,11,11,12,12,13,13,14,14],"right_children":[2,4,6,8,10,12,14,16,18,20,22,24,26,28,30,-1,-1,-1,-1,-1,-1,-1,-1,-1,-1,-1,-1,-1,-1,-1,-1],"split_conditions":[1E0,-5.756278E-5,3.5E0,-5.9907025E-1,-8.502873E-1,-1.3420914E-1,1.1560663E-1,-3.4355343E-4,-3.346976E-4,1.3067217E0,-5.4172695E-2,1.2623551E0,6E0,1.3E1,8E0,2.8308854E-2,2.294709E-2,3.3386435E-2,2.9786617E-2,-1.0176105E-3,1.9079182E-2,1.8169533E-2,2.6123043E-2,-1.0783602E-2,6.6739307E-3,1.6885845E-2,4.7899396E-3,-1.8777097E-2,-4.396837E-2,8.5997133E-4,-2.5954595E-2],"split_indices":[2,1,2,0,0,0,0,1,1,1,0,1,5,2,18,0,0,0,0,0,0,0,0,0,0,0,0,0,0,0,0],"split_type":[0,0,0,0,0,0,0,0,0,0,0,0,0,0,0,0,0,0,0,0,0,0,0,0,0,0,0,0,0,0,0],"sum_hessian":[2.2041928E4,1.5563192E4,6.4787363E3,1.0214908E4,5.348284E3,4.1929995E3,2.2857368E3,1.865449E3,8.349459E3,3.8892905E2,4.959355E3,2.1228008E3,2.0701985E3,1.541749E3,7.439877E2,1.3386849E3,5.2676404E2,6.3010596E3,2.0484E3,3.1914737E2,6.9781685E1,2.169913E3,2.789442E3,8.0321185E2,1.319589E3,1.6336179E3,4.365807E2,1.3026461E3,2.3910295E2,6.4414294E2,9.984472E1],"tree_param":{"num_deleted":"0","num_feature":"22","num_nodes":"31","size_leaf_vector":"1"}},{"base_weights":[5.30774E-1,7.248758E-1,-1.3548478E-1,8.56517E-1,4.9356377E-1,6.2762043E-3,-6.810331E-1,7.605774E-1,9.0801215E-1,3.276843E-1,6.265473E-1,-2.1207948E-1,2.2234394E-1,-5.5313104E-1,-1.2237501E0,2.8909719E-2,2.0731222E-2,3.3672653E-2,2.9889455E-2,1.550739E-2,2.8345725E-3,2.4060484E-2,1.3008551E-2,-2.2076286E-2,-2.9616656E-3,1.4469101E-2,2.840118E-3,-2.5228877E-2,-9.512677E-3,-2.3154449E-2,-5.281474E-2],"categories":[],"categories_nodes":[],"categories_segments":[],"categories_sizes":[],"default_left":[0,0,0,0,0,0,0,0,0,0,0,0,0,0,0,0,0,0,0,0,0,0,0,0,0,0,0,0,0,0,0],"id":19,"left_children":[1,3,5,7,9,11,13,15,17,19,21,23,25,27,29,-1,-1,-1,-1,-1,-1,-1,-1,-1,-1,-1,-1,-1,-1,-1,-1],"loss_changes":[2.7951494E3,5.082207E2,3.775277E2,5.080127E1,1.3311023E2,1.8262622E2,6.793521E1,2.9052002E1,1.355957E1,6.977429E1,3.7780273E1,9.98545E1,5.0006927E1,3.4350662E1,2.474939E1,0E0,0E0,0E0,0E0,0E0,0E0,0E0,0E0,0E0,0E0,0E0,0E0,0E0,0E0,0E0,0E0],"parents":[2147483647,0,0,1,1,2,2,3,3,4,4,5,5,6,6,7,7,8,8,9,9,10,10,11,11,12,12,13,13,14,14],"right_children":[2,4,6,8,10,12,14,16,18,20,22,24,26,28,30,-1,-1,-1,-1,-1,-1,-1,-1,-1,-1,-1,-1,-1,-1,-1,-1],"split_conditions":[1.5E0,4.7586966E-4,7E0,-2.702159E-1,-1.8446459E-1,-1.7241913E-1,1.6E1,-2.862511E-4,-3.3157202E-4,8.4615386E-1,1.6666666E0,1.3067217E0,2.5E0,4.710961E-2,5.084E1,2.8909719E-2,2.0731222E-2,3.3672653E-2,2.9889455E-2,1.550739E-2,2.8345725E-3,2.4060484E-2,1.3008551E-2,-2.2076286E-2,-2.9616656E-3,1.4469101E-2,2.840118E-3,-2.5228877E-2,-9.512677E-3,-2.3154449E-2,-5.281474E-2],"split_indices":[2,1,2,0,0,0,2,1,1,3,18,1,2,0,9,0,0,0,0,0,0,0,0,0,0,0,0,0,0,0,0],"split_type":[0,0,0,0,0,0,0,0,0,0,0,0,0,0,0,0,0,0,0,0,0,0,0,0,0,0,0,0,0,0,0],"sum_hessian":[2.1608871E4,1.6734553E4,4.874318E3,1.0661343E4,6.073211E3,3.8687175E3,1.0056001E3,3.734049E3,6.927294E3,2.70628E3,3.3669307E3,1.9225472E3,1.9461704E3,8.165017E2,1.8909837E2,2.9975562E3,7.36493E2,4.9541978E3,1.9730957E3,1.904753E3,8.015269E2,2.8869702E3,4.7996057E2,4.657839E2,1.4567633E3,8.577821E2,1.0883883E3,5.350478E2,2.8145398E2,5.851831E1,1.3058006E2],"tree_param":{"num_deleted":"0","num_feature":"22","num_nodes":"31","size_leaf_vector":"1"}},{"base_weights":[5.18236E-1,7.575612E-1,-3.2281537E-2,8.6431664E-1,5.6221485E-1,1.8446398E-1,-4.419334E-1,7.050579E-1,8.9175886E-1,2.2782429E-1,6.2886345E-1,-7.0111803E-3,3.9213917E-1,-1.0844646E0,-3.4108484E-1,2.6289068E-2,1.4704544E-2,3.276084E-2,2.8430106E-2,1.1521355E-2,-5.8743623E-3,1.9902805E-2,2.7201662E-2,-9.155829E-3,4.245411E-3,1.7404988E-2,6.032682E-3,-9.2107005E-2,-3.367033E-2,-3.2553968E-3,-1.8806033E-2],"categories":[],"categories_nodes":[],"categories_segments":[],"categories_sizes":[],"default_left":[0,0,0,0,0,0,0,0,0,0,0,0,0,0,0,0,0,0,0,0,0,0,0,0,0,0,0,0,0,0,0],"id":20,"left_children":[1,3,5,7,9,11,13,15,17,19,21,23,25,27,29,-1,-1,-1,-1,-1,-1,-1,-1,-1,-1,-1,-1,-1,-1,-1,-1],"loss_changes":[2.806151E3,3.0804492E2,5.7317236E2,4.016748E1,1.16263306E2,1.6805519E2,1.4338303E2,1.0253357E1,1.4940918E1,3.2066387E1,4.0641968E1,6.828582E1,4.1497925E1,6.065396E1,8.795921E1,0E0,0E0,0E0,0E0,0E0,0E0,0E0,0E0,0E0,0E0,0E0,0E0,0E0,0E0,0E0,0E0],"parents":[2147483647,0,0,1,1,2,2,3,3,4,4,5,5,6,6,7,7,8,8,9,9,10,10,11,11,12,12,13,13,14,14],"right_children":[2,4,6,8,10,12,14,16,18,20,22,24,26,28,30,-1,-1,-1,-1,-1,-1,-1,-1,-1,-1,-1,-1,-1,-1,-1,-1],"split_conditions":[1E0,-9.506975E-5,5E0,-7.245496E-1,-7.348682E-1,-1.2599955E-1,-8.3497214E-1,-2.5395345E-4,-6.0168866E-2,1.1428572E0,3.78947E-1,1.2623551E0,2.5E0,8.5787266E-1,5E0,2.6289068E-2,1.4704544E-2,3.276084E-2,2.8430106E-2,1.1521355E-2,-5.8743623E-3,1.9902805E-2,2.7201662E-2,-9.155829E-3,4.245411E-3,1.7404988E-2,6.032682E-3,-9.2107005E-2,-3.367033E-2,-3.2553968E-3,-1.8806033E-2],"split_indices":[2,1,16,0,0,0,0,1,12,4,0,1,2,1,20,0,0,0,0,0,0,0,0,0,0,0,0,0,0,0,0],"split_type":[0,0,0,0,0,0,0,0,0,0,0,0,0,0,0,0,0,0,0,0,0,0,0,0,0,0,0,0,0,0,0],"sum_hessian":[2.129353E4,1.4842149E4,6.4513804E3,9.592731E3,5.2494175E3,4.2183057E3,2.2330747E3,1.4177122E3,8.1750195E3,8.749025E2,4.3745146E3,2.1934807E3,2.0248248E3,3.0066635E2,1.9324083E3,1.295067E3,1.2264519E2,6.763257E3,1.4117627E3,7.084769E2,1.664256E2,2.7767634E3,1.5977515E3,7.376363E2,1.4558446E3,1.4297903E3,5.950346E2,2.5186035E1,2.7548032E2,8.17325E2,1.1150833E3],"tree_param":{"num_deleted":"0","num_feature":"22","num_nodes":"31","size_leaf_vector":"1"}},{"base_weights":[5.0879276E-1,7.459208E-1,-2.1789145E-2,8.567162E-1,5.557294E-1,1.8649237E-1,-3.8955003E-1,7.4168456E-1,8.9771736E-1,2.8137198E-1,6.553438E-1,-1.4001235E-1,2.850254E-1,-6.8139046E-1,-2.1652101E-1,2.8326426E-2,2.1645917E-2,3.26672E-2,2.8314702E-2,-9.935629E-3,1.2496905E-2,2.4652364E-2,1.4938136E-2,-1.6688079E-2,4.170087E-3,1.2210941E-2,-2.7187436E-3,-2.077042E-2,-4.7545023E-2,-8.8235905E-4,-1.4549289E-2],"categories":[],"categories_nodes":[],"categories_segments":[],"categories_sizes":[],"default_left":[0,0,0,0,0,0,0,0,0,0,0,0,0,0,0,0,0,0,0,0,0,0,0,0,0,0,0,0,0,0,0],"id":21,"left_children":[1,3,5,7,9,11,13,15,17,19,21,23,25,27,29,-1,-1,-1,-1,-1,-1,-1,-1,-1,-1,-1,-1,-1,-1,-1,-1],"loss_changes":[2.6387075E3,3.039204E2,4.9632214E2,4.134424E1,1.4509595E2,1.33152E2,1.17548676E2,1.4372803E1,6.9594727E0,5.3209114E1,2.819519E1,7.994771E1,6.3328186E1,5.5456116E1,5.3074036E1,0E0,0E0,0E0,0E0,0E0,0E0,0E0,0E0,0E0,0E0,0E0,0E0,0E0,0E0,0E0,0E0],"parents":[2147483647,0,0,1,1,2,2,3,3,4,4,5,5,6,6,7,7,8,8,9,9,10,10,11,11,12,12,13,13,14,14],"right_children":[2,4,6,8,10,12,14,16,18,20,22,24,26,28,30,-1,-1,-1,-1,-1,-1,-1,-1,-1,-1,-1,-1,-1,-1,-1,-1],"split_conditions":[1E0,-1.5237206E-4,3.5E0,-4.8130152E-1,-5.1738125E-1,-6.044312E-1,-5.1230335E-1,-3.4355343E-4,-2.862511E-4,-9.1334194E-1,3.6666667E0,1.5818838E0,5E0,1.8333334E1,7.6666665E0,2.8326426E-2,2.1645917E-2,3.26672E-2,2.8314702E-2,-9.935629E-3,1.2496905E-2,2.4652364E-2,1.4938136E-2,-1.6688079E-2,4.170087E-3,1.2210941E-2,-2.7187436E-3,-2.077042E-2,-4.7545023E-2,-8.8235905E-4,-1.4549289E-2],"split_indices":[2,1,2,0,0,0,0,1,1,0,5,1,16,16,16,0,0,0,0,0,0,0,0,0,0,0,0,0,0,0,0],"split_type":[0,0,0,0,0,0,0,0,0,0,0,0,0,0,0,0,0,0,0,0,0,0,0,0,0,0,0,0,0,0,0],"sum_hessian":[2.0967572E4,1.4491813E4,6.475759E3,9.152699E3,5.3391133E3,4.133381E3,2.3423782E3,2.4146404E3,6.738059E3,1.4250886E3,3.914025E3,9.56441E2,3.17694E3,8.692366E2,1.4731415E3,1.7945465E3,6.2009375E2,6.05433E3,6.837293E2,1.5060835E2,1.2744802E3,3.4578855E3,4.5613934E2,4.226042E2,5.338368E2,2.7580515E3,4.1888828E2,7.51845E2,1.173916E2,7.326769E2,7.404646E2],"tree_param":{"num_deleted":"0","num_feature":"22","num_nodes":"31","size_leaf_vector":"1"}},{"base_weights":[4.9828902E-1,6.960075E-1,-1.3613123E-1,8.411135E-1,4.6838164E-1,1.582198E-2,-5.683632E-1,7.63963E-1,8.9253753E-1,2.9781523E-1,6.0609984E-1,-1.651476E-1,2.0016474E-1,-4.578217E-1,-1.0450488E0,2.8743813E-2,2.1356132E-2,3.3192493E-2,2.9418688E-2,1.2735832E-2,-3.2035313E-3,2.5172899E-2,1.7927058E-2,-1.6386362E-2,-4.1419503E-4,1.0826347E-2,1.2692516E-3,-3.5174567E-2,-1.4144343E-2,-4.4383477E-2,-1.14555815E-2],"categories":[],"categories_nodes":[],"categories_segments":[],"categories_sizes":[],"default_left":[0,0,0,0,0,0,0,0,0,0,0,0,0,0,0,0,0,0,0,0,0,0,0,0,0,0,0,0,0,0,0],"id":22,"left_children":[1,3,5,7,9,11,13,15,17,19,21,23,25,27,29,-1,-1,-1,-1,-1,-1,-1,-1,-1,-1,-1,-1,-1,-1,-1,-1],"loss_changes":[2.5808564E3,5.167285E2,3.214221E2,3.613086E1,1.4270593E2,1.2069359E2,6.551282E1,2.2301025E1,1.139209E1,6.040616E1,3.3063477E1,8.123052E1,2.9714394E1,3.318213E1,3.1453583E1,0E0,0E0,0E0,0E0,0E0,0E0,0E0,0E0,0E0,0E0,0E0,0E0,0E0,0E0,0E0,0E0],"parents":[2147483647,0,0,1,1,2,2,3,3,4,4,5,5,6,6,7,7,8,8,9,9,10,10,11,11,12,12,13,13,14,14],"right_children":[2,4,6,8,10,12,14,16,18,20,22,24,26,28,30,-1,-1,-1,-1,-1,-1,-1,-1,-1,-1,-1,-1,-1,-1,-1,-1],"split_conditions":[1.5E0,1.6383252E-4,6E0,-1.9019006E-1,-1.8446459E-1,-1.7241913E-1,1.5E1,0E0,-3.4355343E-4,4.3333335E0,3.3333334E-1,1.8335165E0,4.923077E0,2.7877355E0,1.5605302E-1,2.8743813E-2,2.1356132E-2,3.3192493E-2,2.9418688E-2,1.2735832E-2,-3.2035313E-3,2.5172899E-2,1.7927058E-2,-1.6386362E-2,-4.1419503E-4,1.0826347E-2,1.2692516E-3,-3.5174567E-2,-1.4144343E-2,-4.4383477E-2,-1.14555815E-2],"split_indices":[2,1,2,0,0,0,2,3,1,5,20,1,3,1,0,0,0,0,0,0,0,0,0,0,0,0,0,0,0,0,0],"split_type":[0,0,0,0,0,0,0,0,0,0,0,0,0,0,0,0,0,0,0,0,0,0,0,0,0,0,0,0,0,0,0],"sum_hessian":[2.057006E4,1.5683335E4,4.886725E3,9.5742E3,6.109135E3,3.6151309E3,1.2715945E3,3.8411104E3,5.7330903E3,2.7328125E3,3.3763223E3,1.8223662E3,1.7927645E3,1.035025E3,2.3656944E2,3.1520068E3,6.8910345E2,3.9789434E3,1.754147E3,2.384308E3,3.485044E2,1.7808324E3,1.5954899E3,6.27037E2,1.1953292E3,1.1069275E3,6.8583704E2,1.1014059E2,9.248844E2,1.8595567E2,5.0613766E1],"tree_param":{"num_deleted":"0","num_feature":"22","num_nodes":"31","size_leaf_vector":"1"}},{"base_weights":[4.8412058E-1,7.2116125E-1,-2.6051033E-2,8.317267E-1,5.1569754E-1,1.744649E-1,-4.2326906E-1,6.632381E-1,8.6407495E-1,1.9519387E-1,5.944181E-1,1.5206648E-2,3.512914E-1,-7.2289693E-1,-1.9495295E-1,8.138481E-3,2.4387257E-2,3.1651966E-2,2.7063467E-2,1.110037E-2,-8.507037E-3,1.8628096E-2,2.5850752E-2,-6.1209877E-3,5.4979534E-3,1.5584646E-2,5.513103E-3,-4.326009E-2,-2.1628184E-2,-4.077239E-3,-2.9392295E-2],"categories":[],"categories_nodes":[],"categories_segments":[],"categories_sizes":[],"default_left":[0,0,0,0,0,0,0,0,0,0,0,0,0,0,0,0,0,0,0,0,0,0,0,0,0,0,0,0,0,0,0],"id":23,"left_children":[1,3,5,7,9,11,13,15,17,19,21,23,25,27,29,-1,-1,-1,-1,-1,-1,-1,-1,-1,-1,-1,-1,-1,-1,-1,-1],"loss_changes":[2.4533906E3,3.132412E2,5.127513E2,4.739795E1,1.21698E2,1.2013797E2,1.4697366E2,9.356506E0,1.2696289E1,4.7380684E1,3.5690186E1,5.7699013E1,3.2633102E1,5.215741E1,6.1614204E1,0E0,0E0,0E0,0E0,0E0,0E0,0E0,0E0,0E0,0E0,0E0,0E0,0E0,0E0,0E0,0E0],"parents":[2147483647,0,0,1,1,2,2,3,3,4,4,5,5,6,6,7,7,8,8,9,9,10,10,11,11,12,12,13,13,14,14],"right_children":[2,4,6,8,10,12,14,16,18,20,22,24,26,28,30,-1,-1,-1,-1,-1,-1,-1,-1,-1,-1,-1,-1,-1,-1,-1,-1],"split_conditions":[1E0,-3.7246504E-5,7.1538463E0,-6.5364987E-1,-6.205567E-1,-1.2599955E-1,-4.0225586E-1,-9.41573E-1,-2.862511E-4,1E0,3.78947E-1,1.8335165E0,2.5E0,-8.833309E-1,9E0,8.138481E-3,2.4387257E-2,3.1651966E-2,2.7063467E-2,1.110037E-2,-8.507037E-3,1.8628096E-2,2.5850752E-2,-6.1209877E-3,5.4979534E-3,1.5584646E-2,5.513103E-3,-4.326009E-2,-2.1628184E-2,-4.077239E-3,-2.9392295E-2],"split_indices":[2,1,3,0,0,0,0,0,1,4,0,1,2,0,18,0,0,0,0,0,0,0,0,0,0,0,0,0,0,0,0],"split_type":[0,0,0,0,0,0,0,0,0,0,0,0,0,0,0,0,0,0,0,0,0,0,0,0,0,0,0,0,0,0,0],"sum_hessian":[2.028222E4,1.384869E4,6.4335303E3,8.999384E3,4.849306E3,4.274523E3,2.1590073E3,1.4565045E3,7.54288E3,9.586679E2,3.8906384E3,2.2516655E3,2.0228573E3,9.314096E2,1.2275977E3,5.345924E1,1.4030453E3,6.5016616E3,1.0412179E3,7.601359E2,1.9853203E2,2.434779E3,1.4558594E3,9.573567E2,1.2943087E3,1.4227397E3,6.0011755E2,1.8338599E2,7.480236E2,1.0879161E3,1.3968155E2],"tree_param":{"num_deleted":"0","num_feature":"22","num_nodes":"31","size_leaf_vector":"1"}},{"base_weights":[4.7878665E-1,7.210157E-1,-3.248607E-2,8.3901495E-1,5.424646E-1,1.375729E-1,-4.2419696E-1,7.3296076E-1,8.771802E-1,2.9478598E-1,6.34289E-1,-1.8829683E-2,3.0971816E-1,-3.27552E-1,-9.1802603E-1,2.7692873E-2,2.1076545E-2,3.207073E-2,2.7520683E-2,-9.228641E-3,1.2973424E-2,2.6136486E-2,1.9740948E-2,-1.8963158E-2,1.2109451E-3,1.449018E-2,4.3227402E-3,-1.7864835E-2,-3.1923617E-3,-2.5891425E-2,-5.2901518E-2],"categories":[],"categories_nodes":[],"categories_segments":[],"categories_sizes":[],"default_left":[0,0,0,0,0,0,0,0,0,0,0,0,0,0,0,0,0,0,0,0,0,0,0,0,0,0,0,0,0,0,0],"id":24,"left_children":[1,3,5,7,9,11,13,15,17,19,21,23,25,27,29,-1,-1,-1,-1,-1,-1,-1,-1,-1,-1,-1,-1,-1,-1,-1,-1],"loss_changes":[2.4833823E3,2.851919E2,4.2958392E2,3.1351562E1,1.2238513E2,1.2119269E2,9.200162E1,1.07561035E1,8.786133E0,5.4112526E1,2.994043E1,6.335351E1,3.7622177E1,6.589517E1,3.2137756E1,0E0,0E0,0E0,0E0,0E0,0E0,0E0,0E0,0E0,0E0,0E0,0E0,0E0,0E0,0E0,0E0],"parents":[2147483647,0,0,1,1,2,2,3,3,4,4,5,5,6,6,7,7,8,8,9,9,10,10,11,11,12,12,13,13,14,14],"right_children":[2,4,6,8,10,12,14,16,18,20,22,24,26,28,30,-1,-1,-1,-1,-1,-1,-1,-1,-1,-1,-1,-1,-1,-1,-1,-1],"split_conditions":[1E0,-2.1279996E-4,6E0,-4.8130152E-1,-5.1738125E-1,-1.3420914E-1,1.3E1,-3.362604E-4,-2.7651142E-2,-9.1334194E-1,2.7767919E-2,-8.9349383E-1,2.5E0,-3.1214144E-2,1.1E1,2.7692873E-2,2.1076545E-2,3.207073E-2,2.7520683E-2,-9.228641E-3,1.2973424E-2,2.6136486E-2,1.9740948E-2,-1.8963158E-2,1.2109451E-3,1.449018E-2,4.3227402E-3,-1.7864835E-2,-3.1923617E-3,-2.5891425E-2,-5.2901518E-2],"split_indices":[2,1,16,0,0,0,2,1,12,0,1,0,2,0,18,0,0,0,0,0,0,0,0,0,0,0,0,0,0,0,0],"split_type":[0,0,0,0,0,0,0,0,0,0,0,0,0,0,0,0,0,0,0,0,0,0,0,0,0,0,0,0,0,0,0],"sum_hessian":[2.004719E4,1.360326E4,6.443929E3,8.185819E3,5.417441E3,4.4924126E3,1.9515167E3,2.176507E3,6.0093115E3,1.4684686E3,3.9489724E3,2.3521426E3,2.14027E3,1.6346976E3,3.1681912E2,1.7169226E3,4.5958435E2,5.2387173E3,7.705945E2,1.5654166E2,1.311927E3,1.865733E3,2.0832393E3,2.2043121E2,2.1317114E3,1.4277439E3,7.12526E2,9.522992E2,6.8239844E2,2.3651428E2,8.030482E1],"tree_param":{"num_deleted":"0","num_feature":"22","num_nodes":"31","size_leaf_vector":"1"}},{"base_weights":[4.6994126E-1,7.06551E-1,-1.6408509E-2,8.116038E-1,4.7047782E-1,1.7419067E-1,-3.3751142E-1,6.813072E-1,8.594034E-1,1.6909678E-2,5.321703E-1,-2.0619105E-1,2.3236881E-1,-4.6124122E-1,-0E0,2.5471417E-2,9.033104E-3,3.1867992E-2,2.7385654E-2,4.7534886E-3,-2.0158892E-2,2.2966668E-2,1.4814372E-2,-2.8518012E-3,-2.5949828E-2,2.6077041E-3,1.2050129E-2,-1.2552728E-2,-2.868533E-2,1.6318533E-3,-3.616277E-2],"categories":[],"categories_nodes":[],"categories_segments":[],"categories_sizes":[],"default_left":[0,0,0,0,0,0,0,0,0,0,0,0,0,0,0,0,0,0,0,0,0,0,0,0,0,0,0,0,0,0,0],"id":25,"left_children":[1,3,5,7,9,11,13,15,17,19,21,23,25,27,29,-1,-1,-1,-1,-1,-1,-1,-1,-1,-1,-1,-1,-1,-1,-1,-1],"loss_changes":[2.2741748E3,3.2836963E2,3.959333E2,5.559326E1,1.1427252E2,8.984943E1,1.0054172E2,2.902893E1,1.6433105E1,3.269994E1,4.5328674E1,3.454267E1,5.774887E1,6.537402E1,2.9951965E1,0E0,0E0,0E0,0E0,0E0,0E0,0E0,0E0,0E0,0E0,0E0,0E0,0E0,0E0,0E0,0E0],"parents":[2147483647,0,0,1,1,2,2,3,3,4,4,5,5,6,6,7,7,8,8,9,9,10,10,11,11,12,12,13,13,14,14],"right_children":[2,4,6,8,10,12,14,16,18,20,22,24,26,28,30,-1,-1,-1,-1,-1,-1,-1,-1,-1,-1,-1,-1,-1,-1,-1,-1],"split_conditions":[1E0,4.7586966E-4,3.3333333E0,-4.8130152E-1,-8.017127E-1,-7.9688245E-1,2.0881382E-1,6.666667E-1,-6.0168866E-2,1.4285715E0,1.5384616E-1,5.4615383E0,1.5818838E0,7E0,1.0341501E1,2.5471417E-2,9.033104E-3,3.1867992E-2,2.7385654E-2,4.7534886E-3,-2.0158892E-2,2.2966668E-2,1.4814372E-2,-2.8518012E-3,-2.5949828E-2,2.6077041E-3,1.2050129E-2,-1.2552728E-2,-2.868533E-2,1.6318533E-3,-3.616277E-2],"split_indices":[2,1,20,0,0,0,0,18,12,4,3,3,1,18,11,0,0,0,0,0,0,0,0,0,0,0,0,0,0,0,0],"split_type":[0,0,0,0,0,0,0,0,0,0,0,0,0,0,0,0,0,0,0,0,0,0,0,0,0,0,0,0,0,0,0],"sum_hessian":[1.9757166E4,1.3291729E4,6.4654375E3,9.194657E3,4.097072E3,4.056087E3,2.4093506E3,2.47585E3,6.718807E3,4.920743E2,3.6049976E3,5.361141E2,3.519973E3,1.7622238E3,6.471267E2,2.3218267E3,1.5402321E2,5.1926772E3,1.5261298E3,4.1184055E2,8.023376E1,1.8933402E3,1.7116573E3,4.3249597E2,1.0361807E2,1.3851438E3,2.134829E3,1.32745E3,4.347738E2,6.1986255E2,2.7264149E1],"tree_param":{"num_deleted":"0","num_feature":"22","num_nodes":"31","size_leaf_vector":"1"}},{"base_weights":[4.6160114E-1,6.6858596E-1,-9.105274E-2,7.9389995E-1,4.2870346E-1,2.7347606E-2,-5.146087E-1,6.8362594E-1,8.537016E-1,2.93287E-1,5.616364E-1,-4.6648034E-1,9.608467E-2,-8.834828E-1,-3.6756542E-1,2.6242342E-2,1.5701665E-2,3.170073E-2,2.7284883E-2,1.5772143E-2,6.0259704E-3,2.0594897E-2,-9.118584E-3,-7.7493433E-3,-3.1262096E-2,2.1056423E-2,1.8853778E-3,-2.7343724E-2,-4.927458E-2,5.9826107E-5,-1.8040339E-2],"categories":[],"categories_nodes":[],"categories_segments":[],"categories_sizes":[],"default_left":[0,0,0,0,0,0,0,0,0,0,0,0,0,0,0,0,0,0,0,0,0,0,0,0,0,0,0,0,0,0,0],"id":26,"left_children":[1,3,5,7,9,11,13,15,17,19,21,23,25,27,29,-1,-1,-1,-1,-1,-1,-1,-1,-1,-1,-1,-1,-1,-1,-1,-1],"loss_changes":[2.2188994E3,4.2295215E2,2.6535886E2,5.942627E1,8.646118E1,1.3995232E2,6.1478455E1,3.6863037E1,1.4583008E1,4.3545486E1,2.4147766E1,5.0047768E1,7.7014404E1,1.6954086E1,4.1660416E1,0E0,0E0,0E0,0E0,0E0,0E0,0E0,0E0,0E0,0E0,0E0,0E0,0E0,0E0,0E0,0E0],"parents":[2147483647,0,0,1,1,2,2,3,3,4,4,5,5,6,6,7,7,8,8,9,9,10,10,11,11,12,12,13,13,14,14],"right_children":[2,4,6,8,10,12,14,16,18,20,22,24,26,28,30,-1,-1,-1,-1,-1,-1,-1,-1,-1,-1,-1,-1,-1,-1,-1,-1],"split_conditions":[1.1428572E0,2.4408181E-3,6.5E0,-2.759166E-1,-1.1431857E-1,-8.303578E-1,-6.833424E-1,3.3333334E-1,-6.0168866E-2,2.857143E-1,3E0,5.4615383E0,1.2540611E-2,1.8E1,7.6666665E0,2.6242342E-2,1.5701665E-2,3.170073E-2,2.7284883E-2,1.5772143E-2,6.0259704E-3,2.0594897E-2,-9.118584E-3,-7.7493433E-3,-3.1262096E-2,2.1056423E-2,1.8853778E-3,-2.7343724E-2,-4.927458E-2,5.9826107E-5,-1.8040339E-2],"split_indices":[4,1,2,0,0,0,0,16,12,4,2,3,1,2,16,0,0,0,0,0,0,0,0,0,0,0,0,0,0,0,0],"split_type":[0,0,0,0,0,0,0,0,0,0,0,0,0,0,0,0,0,0,0,0,0,0,0,0,0,0,0,0,0,0,0],"sum_hessian":[1.9392385E4,1.4109167E4,5.283217E3,9.264271E3,4.844896E3,4.1284224E3,1.1547942E3,3.266027E3,5.998244E3,2.404261E3,2.440635E3,5.0246356E2,3.625959E3,3.2632895E2,8.284653E2,2.7364685E3,5.295587E2,4.5630845E3,1.4351594E3,1.107519E3,1.296742E3,2.4065728E3,3.4062237E1,3.1216156E2,1.9030202E2,2.9358887E2,3.33237E3,2.6438226E2,6.1946682E1,2.2050235E2,6.079629E2],"tree_param":{"num_deleted":"0","num_feature":"22","num_nodes":"31","size_leaf_vector":"1"}},{"base_weights":[4.5268026E-1,6.577023E-1,-8.4263E-2,7.825143E-1,4.110628E-1,6.6738755E-2,-4.0967506E-1,5.964595E-1,8.1761026E-1,2.8492618E-1,5.425931E-1,-2.3337805E-1,1.9013862E-1,-6.6266215E-1,-2.0800067E-1,2.2769563E-2,7.903927E-3,3.0708263E-2,2.5316147E-2,1.5692506E-2,5.595441E-3,2.1269763E-2,1.2321214E-2,-3.1249889E-3,-1.758332E-2,2.0742683E-2,5.0931876E-3,-1.7897947E-2,-3.982875E-2,-4.086134E-3,-2.4437156E-2],"categories":[],"categories_nodes":[],"categories_segments":[],"categories_sizes":[],"default_left":[0,0,0,0,0,0,0,0,0,0,0,0,0,0,0,0,0,0,0,0,0,0,0,0,0,0,0,0,0,0,0],"id":27,"left_children":[1,3,5,7,9,11,13,15,17,19,21,23,25,27,29,-1,-1,-1,-1,-1,-1,-1,-1,-1,-1,-1,-1,-1,-1,-1,-1],"loss_changes":[2.108739E3,4.2550488E2,2.6030188E2,5.8584473E1,7.659277E1,1.3385452E2,8.490448E1,2.0056519E1,3.1041992E1,4.633104E1,2.1748413E1,3.900225E1,4.73789E1,5.276706E1,4.10815E1,0E0,0E0,0E0,0E0,0E0,0E0,0E0,0E0,0E0,0E0,0E0,0E0,0E0,0E0,0E0,0E0],"parents":[2147483647,0,0,1,1,2,2,3,3,4,4,5,5,6,6,7,7,8,8,9,9,10,10,11,11,12,12,13,13,14,14],"right_children":[2,4,6,8,10,12,14,16,18,20,22,24,26,28,30,-1,-1,-1,-1,-1,-1,-1,-1,-1,-1,-1,-1,-1,-1,-1,-1],"split_conditions":[1.1428572E0,4.781357E-3,7E0,-7.0903987E-1,-1.9175768E-2,-5.730791E-1,-3.698563E-1,1.6383252E-4,-6.0168866E-2,2.857143E-1,1.053647E0,4.3846154E0,3.437748E-2,4.2909374E0,1.25E1,2.2769563E-2,7.903927E-3,3.0708263E-2,2.5316147E-2,1.5692506E-2,5.595441E-3,2.1269763E-2,1.2321214E-2,-3.1249889E-3,-1.758332E-2,2.0742683E-2,5.0931876E-3,-1.7897947E-2,-3.982875E-2,-4.086134E-3,-2.4437156E-2],"split_indices":[4,1,16,0,0,0,0,1,12,4,17,3,1,11,2,0,0,0,0,0,0,0,0,0,0,0,0,0,0,0,0],"split_type":[0,0,0,0,0,0,0,0,0,0,0,0,0,0,0,0,0,0,0,0,0,0,0,0,0,0,0,0,0,0,0],"sum_hessian":[1.9150314E4,1.3859437E4,5.2908784E3,9.199155E3,4.6602817E3,3.612962E3,1.6779169E3,1.4659431E3,7.733212E3,2.3832869E3,2.2769946E3,1.0507722E3,2.5621895E3,7.4169995E2,9.362169E2,1.3301847E3,1.3575842E2,5.78596E3,1.9472521E3,1.0904552E3,1.2928317E3,1.8177794E3,4.592152E2,6.714952E2,3.7927704E2,2.8104767E2,2.2811418E3,5.450159E2,1.9668405E2,7.8290247E2,1.5331442E2],"tree_param":{"num_deleted":"0","num_feature":"22","num_nodes":"31","size_leaf_vector":"1"}},{"base_weights":[4.3633914E-1,6.7280275E-1,-2.3163972E-2,7.938941E-1,4.8302478E-1,1.3075647E-1,-3.6656582E-1,6.2948614E-1,8.260721E-1,2.4844289E-1,5.743276E-1,-1.1768067E-2,2.91688E-1,-6.0362536E-1,-1.7163667E-1,1.617016E-2,2.4131984E-2,3.0391436E-2,2.5766725E-2,1.5163242E-2,1.8316754E-3,2.1898516E-2,1.0724694E-2,-8.430157E-3,3.8087638E-3,1.3577929E-2,4.09945E-3,-4.557605E-2,-1.8299988E-2,4.7645494E-4,-1.5003122E-2],"categories":[],"categories_nodes":[],"categories_segments":[],"categories_sizes":[],"default_left":[0,0,0,0,0,0,0,0,0,0,0,0,0,0,0,0,0,0,0,0,0,0,0,0,0,0,0,0,0,0,0],"id":28,"left_children":[1,3,5,7,9,11,13,15,17,19,21,23,25,27,29,-1,-1,-1,-1,-1,-1,-1,-1,-1,-1,-1,-1,-1,-1,-1,-1],"loss_changes":[2.0449756E3,2.8422607E2,3.3812854E2,3.8552246E1,1.0303088E2,1.0143779E2,9.085663E1,8.429901E0,1.2255371E1,4.63655E1,3.331897E1,6.1596054E1,3.1461334E1,5.385788E1,4.990417E1,0E0,0E0,0E0,0E0,0E0,0E0,0E0,0E0,0E0,0E0,0E0,0E0,0E0,0E0,0E0,0E0],"parents":[2147483647,0,0,1,1,2,2,3,3,4,4,5,5,6,6,7,7,8,8,9,9,10,10,11,11,12,12,13,13,14,14],"right_children":[2,4,6,8,10,12,14,16,18,20,22,24,26,28,30,-1,-1,-1,-1,-1,-1,-1,-1,-1,-1,-1,-1,-1,-1,-1,-1],"split_conditions":[1E0,-1.6435345E-4,4.3333335E0,-6.5364987E-1,-5.1738125E-1,-1.2599955E-1,-4.3744034E-1,-8.983948E-1,-6.0168866E-2,2.3076923E-1,3.6666667E0,1.2623551E0,2.5E0,1.7249197E0,5.084E1,1.617016E-2,2.4131984E-2,3.0391436E-2,2.5766725E-2,1.5163242E-2,1.8316754E-3,2.1898516E-2,1.0724694E-2,-8.430157E-3,3.8087638E-3,1.3577929E-2,4.09945E-3,-4.557605E-2,-1.8299988E-2,4.7645494E-4,-1.5003122E-2],"split_indices":[2,1,20,0,0,0,0,0,12,3,5,1,2,1,9,0,0,0,0,0,0,0,0,0,0,0,0,0,0,0,0],"split_type":[0,0,0,0,0,0,0,0,0,0,0,0,0,0,0,0,0,0,0,0,0,0,0,0,0,0,0,0,0,0,0],"sum_hessian":[1.8815295E4,1.24232705E4,6.3920244E3,7.5798716E3,4.8433994E3,4.412704E3,1.9793203E3,1.2476793E3,6.3321924E3,1.3601907E3,3.4832087E3,2.3383381E3,2.0743662E3,8.905535E2,1.0887667E3,2.451151E2,1.0025642E3,5.3209473E3,1.01124475E3,7.2075433E2,6.394364E2,3.0818967E3,4.0131195E2,8.101621E2,1.528176E3,1.3914915E3,6.828747E2,1.0767491E2,7.828786E2,6.206838E2,4.6808298E2],"tree_param":{"num_deleted":"0","num_feature":"22","num_nodes":"31","size_leaf_vector":"1"}},{"base_weights":[4.306424E-1,6.649852E-1,-1.6638573E-2,7.7821696E-1,4.6780205E-1,1.5652832E-1,-3.225129E-1,6.798846E-1,8.4087896E-1,1.70569E-1,5.542148E-1,1.6664816E-2,3.2525596E-1,-4.5094824E-1,-1.8506931E-2,2.5643604E-2,1.8870067E-2,3.1337008E-2,2.7295373E-2,-1.27946315E-2,9.149364E-3,1.7198898E-2,2.4188286E-2,4.94489E-3,-6.1264713E-3,1.3515679E-2,3.3503608E-3,-1.3916471E-2,-3.4897182E-2,1.1185082E-2,-4.070472E-3],"categories":[],"categories_nodes":[],"categories_segments":[],"categories_sizes":[],"default_left":[0,0,0,0,0,0,0,0,0,0,0,0,0,0,0,0,0,0,0,0,0,0,0,0,0,0,0,0,0,0,0],"id":29,"left_children":[1,3,5,7,9,11,13,15,17,19,21,23,25,27,29,-1,-1,-1,-1,-1,-1,-1,-1,-1,-1,-1,-1,-1,-1,-1,-1],"loss_changes":[1.9496199E3,2.7122607E2,3.3879654E2,4.609082E1,1.1385132E2,9.6066185E1,8.9963974E1,1.4761353E1,1.0325684E1,4.4720177E1,2.9857178E1,5.0668888E1,2.1554276E1,5.2279022E1,2.1482243E1,0E0,0E0,0E0,0E0,0E0,0E0,0E0,0E0,0E0,0E0,0E0,0E0,0E0,0E0,0E0,0E0],"parents":[2147483647,0,0,1,1,2,2,3,3,4,4,5,5,6,6,7,7,8,8,9,9,10,10,11,11,12,12,13,13,14,14],"right_children":[2,4,6,8,10,12,14,16,18,20,22,24,26,28,30,-1,-1,-1,-1,-1,-1,-1,-1,-1,-1,-1,-1,-1,-1,-1,-1],"split_conditions":[1E0,-3.7246504E-5,7.6666665E0,-2.1070343E-1,-5.940242E-1,-8.957656E-2,1.6359381E-1,-3.8460426E-2,-3.4355343E-4,-9.1334194E-1,3.7341967E-1,2.142857E0,3.5E0,1.5E1,2.5E0,2.5643604E-2,1.8870067E-2,3.1337008E-2,2.7295373E-2,-1.27946315E-2,9.149364E-3,1.7198898E-2,2.4188286E-2,4.94489E-3,-6.1264713E-3,1.3515679E-2,3.3503608E-3,-1.3916471E-2,-3.4897182E-2,1.1185082E-2,-4.070472E-3],"split_indices":[2,1,5,0,0,0,0,12,1,0,0,4,2,2,2,0,0,0,0,0,0,0,0,0,0,0,0,0,0,0,0],"split_type":[0,0,0,0,0,0,0,0,0,0,0,0,0,0,0,0,0,0,0,0,0,0,0,0,0,0,0,0,0,0,0],"sum_hessian":[1.8594719E4,1.2202561E4,6.392157E3,7.747207E3,4.455353E3,4.08031E3,2.3118474E3,3.0243752E3,4.722832E3,1.0060468E3,3.4493064E3,2.233881E3,1.8464287E3,1.6232467E3,6.8860065E2,2.467759E3,5.566164E2,3.3723613E3,1.3504705E3,1.370731E2,8.689737E2,2.1231494E3,1.3261571E3,1.3593406E3,8.7454065E2,1.5097426E3,3.3668616E2,1.4499751E3,1.7327156E2,1.5155739E2,5.370433E2],"tree_param":{"num_deleted":"0","num_feature":"22","num_nodes":"31","size_leaf_vector":"1"}},{"base_weights":[4.1826206E-1,6.166178E-1,-1.2148126E-1,7.7444386E-1,4.1544697E-1,2.822619E-2,-3.5115382E-1,6.146067E-1,8.097888E-1,2.5700587E-1,5.472387E-1,-3.8477504E-1,8.636898E-2,-6.674219E-1,-2.3058178E-1,2.3401134E-2,1.4032581E-2,3.0015137E-2,2.4888193E-2,1.1517441E-2,-1.1175205E-3,2.1164183E-2,1.2173139E-2,-4.4265896E-2,-1.0151052E-2,-4.243474E-3,6.667918E-3,-2.1089945E-2,-5.0367624E-2,6.2401517E-4,-1.2392014E-2],"categories":[],"categories_nodes":[],"categories_segments":[],"categories_sizes":[],"default_left":[0,0,0,0,0,0,0,0,0,0,0,0,0,0,0,0,0,0,0,0,0,0,0,0,0,0,0,0,0,0,0],"id":30,"left_children":[1,3,5,7,9,11,13,15,17,19,21,23,25,27,29,-1,-1,-1,-1,-1,-1,-1,-1,-1,-1,-1,-1,-1,-1,-1,-1],"loss_changes":[1.9601902E3,4.2386865E2,1.6937785E2,4.0853516E1,1.22267456E2,7.13098E1,7.330528E1,1.03515625E1,1.704126E1,4.942482E1,2.7356323E1,3.0261543E1,5.3143166E1,2.9210373E1,4.0282867E1,0E0,0E0,0E0,0E0,0E0,0E0,0E0,0E0,0E0,0E0,0E0,0E0,0E0,0E0,0E0,0E0],"parents":[2147483647,0,0,1,1,2,2,3,3,4,4,5,5,6,6,7,7,8,8,9,9,10,10,11,11,12,12,13,13,14,14],"right_children":[2,4,6,8,10,12,14,16,18,20,22,24,26,28,30,-1,-1,-1,-1,-1,-1,-1,-1,-1,-1,-1,-1,-1,-1,-1,-1],"split_conditions":[1.5E0,-5.756278E-5,4.3333335E0,-6.146932E-1,-1.947938E-1,-8.2049567E-1,-6.833424E-1,0E0,-6.0168866E-2,1.4285715E0,1.6923077E0,5.419952E-1,1.8809024E0,5.5E1,1.5E1,2.3401134E-2,1.4032581E-2,3.0015137E-2,2.4888193E-2,1.1517441E-2,-1.1175205E-3,2.1164183E-2,1.2173139E-2,-4.4265896E-2,-1.0151052E-2,-4.243474E-3,6.667918E-3,-2.1089945E-2,-5.0367624E-2,6.2401517E-4,-1.2392014E-2],"split_indices":[2,1,20,0,0,0,0,3,12,4,3,1,1,7,6,0,0,0,0,0,0,0,0,0,0,0,0,0,0,0,0],"split_type":[0,0,0,0,0,0,0,0,0,0,0,0,0,0,0,0,0,0,0,0,0,0,0,0,0,0,0,0,0,0,0],"sum_hessian":[1.8304082E4,1.3385925E4,4.9181577E3,7.497489E3,5.8884365E3,2.9760605E3,1.9420973E3,1.3646626E3,6.132826E3,2.6776619E3,3.2107744E3,3.6506958E2,2.610991E3,5.3316156E2,1.4089358E3,1.1661383E3,1.9852429E2,4.9999204E3,1.1329058E3,2.1944163E3,4.832457E2,2.6654211E3,5.453533E2,3.728028E1,3.2778928E2,8.510896E2,1.7599014E3,4.8330557E2,4.9855984E1,4.434958E2,9.6543994E2],"tree_param":{"num_deleted":"0","num_feature":"22","num_nodes":"31","size_leaf_vector":"1"}},{"base_weights":[4.1561663E-1,6.616871E-1,1.3378059E-2,7.725564E-1,4.560267E-1,1.9167165E-1,-2.4338305E-1,6.8008226E-1,8.321008E-1,2.7000887E-2,4.8853868E-1,-1.2247985E-1,2.872268E-1,-3.6042765E-1,7.6867323E-3,1.5041441E-2,2.5282243E-2,3.0684475E-2,2.6094083E-2,-7.554313E-3,6.361798E-3,1.9850401E-2,1.0261558E-2,-8.495962E-3,8.444815E-3,2.1260815E-2,8.172613E-3,-1.1896361E-2,-5.2975636E-2,3.0473424E-3,-2.0120097E-2],"categories":[],"categories_nodes":[],"categories_segments":[],"categories_sizes":[],"default_left":[0,0,0,0,0,0,0,0,0,0,0,0,0,0,0,0,0,0,0,0,0,0,0,0,0,0,0,0,0,0,0],"id":31,"left_children":[1,3,5,7,9,11,13,15,17,19,21,23,25,27,29,-1,-1,-1,-1,-1,-1,-1,-1,-1,-1,-1,-1,-1,-1,-1,-1],"loss_changes":[1.7897344E3,2.5462549E2,3.143791E2,3.8484863E1,5.4507202E1,1.2187941E2,8.291942E1,1.6890503E1,8.732178E0,9.988191E0,4.691333E1,3.8622993E1,5.583734E1,6.0564423E1,3.8883507E1,0E0,0E0,0E0,0E0,0E0,0E0,0E0,0E0,0E0,0E0,0E0,0E0,0E0,0E0,0E0,0E0],"parents":[2147483647,0,0,1,1,2,2,3,3,4,4,5,5,6,6,7,7,8,8,9,9,10,10,11,11,12,12,13,13,14,14],"right_children":[2,4,6,8,10,12,14,16,18,20,22,24,26,28,30,-1,-1,-1,-1,-1,-1,-1,-1,-1,-1,-1,-1,-1,-1,-1,-1],"split_conditions":[5.714286E-1,-1.693023E-5,3E0,-2.1070343E-1,-8.502873E-1,-6.2755257E-1,1.1560663E-1,-8.983948E-1,-6.0168866E-2,9.025714E-2,1E0,2.6666668E-1,1.0354789E-2,2.35E1,8E0,1.5041441E-2,2.5282243E-2,3.0684475E-2,2.6094083E-2,-7.554313E-3,6.361798E-3,1.9850401E-2,1.0261558E-2,-8.495962E-3,8.444815E-3,2.1260815E-2,8.172613E-3,-1.1896361E-2,-5.2975636E-2,3.0473424E-3,-2.0120097E-2],"split_indices":[4,1,2,0,0,0,0,0,12,1,2,15,1,2,18,0,0,0,0,0,0,0,0,0,0,0,0,0,0,0,0],"split_type":[0,0,0,0,0,0,0,0,0,0,0,0,0,0,0,0,0,0,0,0,0,0,0,0,0,0,0,0,0,0,0],"sum_hessian":[1.8085885E4,1.1219761E4,6.866125E3,7.285836E3,3.9339248E3,4.0540383E3,2.8120864E3,2.8633315E3,4.4225044E3,2.7878232E2,3.6551423E3,9.437186E2,3.1103196E3,1.9195938E3,8.9249274E2,2.4536266E2,2.6179688E3,3.6336807E3,7.8882355E2,1.0603833E2,1.7274399E2,2.771071E3,8.840713E2,7.1718195E2,2.2653674E2,5.0529147E2,2.605028E3,1.8726362E3,4.6957535E1,7.8757916E2,1.04913574E2],"tree_param":{"num_deleted":"0","num_feature":"22","num_nodes":"31","size_leaf_vector":"1"}},{"base_weights":[4.0171903E-1,6.037388E-1,-8.176785E-2,7.589555E-1,3.9698616E-1,2.1509273E-2,-4.2162398E-1,6.6535956E-1,8.231813E-1,2.5340843E-1,5.401475E-1,-5.637505E-1,6.0664225E-2,-1.1205463E0,-3.4060985E-1,1.5274032E-2,2.4640484E-2,3.0740486E-2,2.6514756E-2,1.7271273E-2,6.9870153E-3,2.218723E-2,1.3519703E-2,-2.8307332E-2,-4.7161696E-3,1.7507056E-2,5.991153E-4,-3.2533854E-2,-5.7957746E-2,-1.0060589E-2,-2.9880952E-2],"categories":[],"categories_nodes":[],"categories_segments":[],"categories_sizes":[],"default_left":[0,0,0,0,0,0,0,0,0,0,0,0,0,0,0,0,0,0,0,0,0,0,0,0,0,0,0,0,0,0,0],"id":32,"left_children":[1,3,5,7,9,11,13,15,17,19,21,23,25,27,29,-1,-1,-1,-1,-1,-1,-1,-1,-1,-1,-1,-1,-1,-1,-1,-1],"loss_changes":[1.7397043E3,4.0196143E2,1.8448068E2,4.1504883E1,1.10092896E2,9.188928E1,6.792525E1,1.3595825E1,1.0087402E1,3.551187E1,3.3364746E1,2.3650658E1,7.0484825E1,1.0073273E1,3.1642769E1,0E0,0E0,0E0,0E0,0E0,0E0,0E0,0E0,0E0,0E0,0E0,0E0,0E0,0E0,0E0,0E0],"parents":[2147483647,0,0,1,1,2,2,3,3,4,4,5,5,6,6,7,7,8,8,9,9,10,10,11,11,12,12,13,13,14,14],"right_children":[2,4,6,8,10,12,14,16,18,20,22,24,26,28,30,-1,-1,-1,-1,-1,-1,-1,-1,-1,-1,-1,-1,-1,-1,-1,-1],"split_conditions":[1.1428572E0,-3.7246504E-5,9E0,-1.9019006E-1,-1.1431857E-1,-8.9349383E-1,-8.730406E-1,-8.983948E-1,-3.4355343E-4,0E0,1E0,1.746E1,3.0981017E-2,2.3757331E-2,1.1E1,1.5274032E-2,2.4640484E-2,3.0740486E-2,2.6514756E-2,1.7271273E-2,6.9870153E-3,2.218723E-2,1.3519703E-2,-2.8307332E-2,-4.7161696E-3,1.7507056E-2,5.991153E-4,-3.2533854E-2,-5.7957746E-2,-1.0060589E-2,-2.9880952E-2],"split_indices":[4,1,16,0,0,0,0,0,1,3,2,9,1,8,18,0,0,0,0,0,0,0,0,0,0,0,0,0,0,0,0],"split_type":[0,0,0,0,0,0,0,0,0,0,0,0,0,0,0,0,0,0,0,0,0,0,0,0,0,0,0,0,0,0,0],"sum_hessian":[1.7806055E4,1.2559444E4,5.246609E3,7.1703213E3,5.3891235E3,4.0229458E3,1.2236631E3,2.9270903E3,4.243231E3,2.694506E3,2.6946172E3,2.5028906E2,3.7726567E3,1.2486268E2,1.0988004E3,2.3880333E2,2.688287E3,3.0425425E3,1.2006884E3,5.493755E2,2.1451306E3,1.821613E3,8.7300415E2,1.6310004E2,8.718902E1,3.4989575E2,3.422761E3,9.002165E1,3.4841026E1,9.8121643E2,1.1758396E2],"tree_param":{"num_deleted":"0","num_feature":"22","num_nodes":"31","size_leaf_vector":"1"}},{"base_weights":[3.9675042E-1,6.2675726E-1,-6.1276183E-3,7.6579595E-1,4.504278E-1,1.08013935E-1,-3.0492568E-1,5.9176713E-1,7.98599E-1,6.549525E-2,5.0272137E-1,-2.287764E-2,2.6082978E-1,-5.660754E-1,-1.6242778E-1,2.1838894E-2,3.2232285E-3,2.9461984E-2,2.5584517E-2,6.109465E-3,-1.8828196E-2,1.5509252E-2,2.3219403E-2,-8.812549E-3,3.0957037E-3,1.2500059E-2,3.8933873E-3,-4.8702378E-2,-1.745486E-2,1.0091384E-3,-1.2387862E-2],"categories":[],"categories_nodes":[],"categories_segments":[],"categories_sizes":[],"default_left":[0,0,0,0,0,0,0,0,0,0,0,0,0,0,0,0,0,0,0,0,0,0,0,0,0,0,0,0,0,0,0],"id":33,"left_children":[1,3,5,7,9,11,13,15,17,19,21,23,25,27,29,-1,-1,-1,-1,-1,-1,-1,-1,-1,-1,-1,-1,-1,-1,-1,-1],"loss_changes":[1.6330815E3,2.7378955E2,2.1854822E2,3.432202E1,9.9203E1,9.2828316E1,6.532732E1,7.7214355E0,8.267822E0,3.65564E1,4.3339844E1,6.067422E1,2.8105667E1,3.7419907E1,4.0222336E1,0E0,0E0,0E0,0E0,0E0,0E0,0E0,0E0,0E0,0E0,0E0,0E0,0E0,0E0,0E0,0E0],"parents":[2147483647,0,0,1,1,2,2,3,3,4,4,5,5,6,6,7,7,8,8,9,9,10,10,11,11,12,12,13,13,14,14],"right_children":[2,4,6,8,10,12,14,16,18,20,22,24,26,28,30,-1,-1,-1,-1,-1,-1,-1,-1,-1,-1,-1,-1,-1,-1,-1,-1],"split_conditions":[1E0,-2.5395345E-4,5E0,-7.0903987E-1,-8.067694E-1,-1.1431857E-1,-5.614653E-1,8.0785584E-1,-3.4355343E-4,6.666667E-1,3.84676E-1,1.2623551E0,2.5E0,1.3960893E0,1.5333333E1,2.1838894E-2,3.2232285E-3,2.9461984E-2,2.5584517E-2,6.109465E-3,-1.8828196E-2,1.5509252E-2,2.3219403E-2,-8.812549E-3,3.0957037E-3,1.2500059E-2,3.8933873E-3,-4.8702378E-2,-1.745486E-2,1.0091384E-3,-1.2387862E-2],"split_indices":[2,1,20,0,0,0,0,12,1,20,0,1,2,1,5,0,0,0,0,0,0,0,0,0,0,0,0,0,0,0,0],"split_type":[0,0,0,0,0,0,0,0,0,0,0,0,0,0,0,0,0,0,0,0,0,0,0,0,0,0,0,0,0,0,0],"sum_hessian":[1.7617758E4,1.1215772E4,6.401985E3,6.266874E3,4.9488984E3,4.631142E3,1.7708429E3,1.0003621E3,5.266512E3,5.937957E2,4.3551025E3,2.4924705E3,2.1386719E3,6.223457E2,1.1484972E3,9.670403E2,3.332187E1,4.18373E3,1.0827822E3,5.0594427E2,8.7851456E1,2.9254885E3,1.4296141E3,8.216121E2,1.6708583E3,1.3559631E3,7.827086E2,5.489345E1,5.674523E2,5.605194E2,5.879778E2],"tree_param":{"num_deleted":"0","num_feature":"22","num_nodes":"31","size_leaf_vector":"1"}},{"base_weights":[3.8901672E-1,6.186762E-1,-9.611739E-3,7.368711E-1,4.0127608E-1,1.9889513E-1,-2.0262402E-1,5.988393E-1,7.8875005E-1,2.3930891E-1,5.377067E-1,1.1383825E-1,4.9155417E-1,-6.629346E-1,-1.3225207E-1,2.3843633E-2,1.5946954E-2,2.939649E-2,2.4161467E-2,-1.0783482E-2,1.0113504E-2,2.17524E-2,1.4126406E-2,-1.0400169E-2,6.237897E-3,1.8947033E-2,3.7903509E-3,-1.7642803E-2,-4.071925E-2,-6.6148927E-3,9.755427E-3],"categories":[],"categories_nodes":[],"categories_segments":[],"categories_sizes":[],"default_left":[0,0,0,0,0,0,0,0,0,0,0,0,0,0,0,0,0,0,0,0,0,0,0,0,0,0,0,0,0,0,0],"id":34,"left_children":[1,3,5,7,9,11,13,15,17,19,21,23,25,27,29,-1,-1,-1,-1,-1,-1,-1,-1,-1,-1,-1,-1,-1,-1,-1,-1],"loss_changes":[1.5931372E3,2.825542E2,2.5596176E2,4.9729248E1,8.5328E1,7.557651E1,1.0639137E2,1.869934E1,1.6393799E1,4.0842026E1,1.9781372E1,5.725503E1,9.059937E0,3.3581787E1,6.0220863E1,0E0,0E0,0E0,0E0,0E0,0E0,0E0,0E0,0E0,0E0,0E0,0E0,0E0,0E0,0E0,0E0],"parents":[2147483647,0,0,1,1,2,2,3,3,4,4,5,5,6,6,7,7,8,8,9,9,10,10,11,11,12,12,13,13,14,14],"right_children":[2,4,6,8,10,12,14,16,18,20,22,24,26,28,30,-1,-1,-1,-1,-1,-1,-1,-1,-1,-1,-1,-1,-1,-1,-1,-1],"split_conditions":[1E0,1.6383252E-4,3E0,-4.865705E-1,-1.947938E-1,4.3831792E-1,-8.3497214E-1,-3.362604E-4,-3.8460426E-2,-9.1334194E-1,8.2625544E-1,-8.848305E-3,2E0,1.7714285E1,6.315789E-1,2.3843633E-2,1.5946954E-2,2.939649E-2,2.4161467E-2,-1.0783482E-2,1.0113504E-2,2.17524E-2,1.4126406E-2,-1.0400169E-2,6.237897E-3,1.8947033E-2,3.7903509E-3,-1.7642803E-2,-4.071925E-2,-6.6148927E-3,9.755427E-3],"split_indices":[2,1,16,0,0,0,0,1,12,0,17,12,18,4,15,0,0,0,0,0,0,0,0,0,0,0,0,0,0,0,0],"split_type":[0,0,0,0,0,0,0,0,0,0,0,0,0,0,0,0,0,0,0,0,0,0,0,0,0,0,0,0,0,0,0],"sum_hessian":[1.7396273E4,1.1038155E4,6.3581187E3,7.1469087E3,3.8912463E3,3.0545981E3,3.3035205E3,1.9595212E3,5.187387E3,1.7827554E3,2.108491E3,2.3696956E3,6.8490265E2,4.3561484E2,2.8679055E3,1.37292E3,5.8660126E2,4.111987E3,1.0754008E3,1.2808289E2,1.6546725E3,1.4268507E3,6.816402E2,3.0424652E2,2.065449E3,6.2426776E2,6.0634853E1,3.219218E2,1.1369305E2,2.5430002E3,3.249053E2],"tree_param":{"num_deleted":"0","num_feature":"22","num_nodes":"31","size_leaf_vector":"1"}},{"base_weights":[3.784224E-1,6.056672E-1,-2.4303462E-2,7.5490624E-1,4.295802E-1,1.6303751E-1,-2.0244142E-1,5.6672144E-1,7.908198E-1,2.9736862E-1,5.494451E-1,-2.1270241E-1,2.140152E-1,-4.4280708E-1,-8.92945E-2,2.0961372E-2,2.8838087E-3,2.7440462E-2,3.0877287E-2,1.2732795E-2,2.3622815E-3,2.4331663E-2,1.6761398E-2,-2.0444898E-2,-2.3777818E-3,-6.4172056E-3,8.946886E-3,-2.8955799E-2,-1.19929975E-2,-5.6199105E-3,7.5005163E-3],"categories":[],"categories_nodes":[],"categories_segments":[],"categories_sizes":[],"default_left":[0,0,0,0,0,0,0,0,0,0,0,0,0,0,0,0,0,0,0,0,0,0,0,0,0,0,0,0,0,0,0],"id":35,"left_children":[1,3,5,7,9,11,13,15,17,19,21,23,25,27,29,-1,-1,-1,-1,-1,-1,-1,-1,-1,-1,-1,-1,-1,-1,-1,-1],"loss_changes":[1.5722786E3,2.8740625E2,2.0681749E2,3.8734375E1,7.913757E1,5.786032E1,8.601639E1,7.4371033E0,7.349121E0,3.1526917E1,2.6843811E1,1.829068E1,3.682287E1,3.907373E1,4.3375496E1,0E0,0E0,0E0,0E0,0E0,0E0,0E0,0E0,0E0,0E0,0E0,0E0,0E0,0E0,0E0,0E0],"parents":[2147483647,0,0,1,1,2,2,3,3,4,4,5,5,6,6,7,7,8,8,9,9,10,10,11,11,12,12,13,13,14,14],"right_children":[2,4,6,8,10,12,14,16,18,20,22,24,26,28,30,-1,-1,-1,-1,-1,-1,-1,-1,-1,-1,-1,-1,-1,-1,-1,-1],"split_conditions":[6.666667E-1,-2.602046E-4,3.5384614E0,-7.0903987E-1,-1.5984288E-1,-8.2049567E-1,-5.730791E-1,7.597302E-1,6.2297714E-1,1.3333334E0,1.2540611E-2,5.6025016E-1,-3.5393428E-2,1.9277261E0,5.3333336E-1,2.0961372E-2,2.8838087E-3,2.7440462E-2,3.0877287E-2,1.2732795E-2,2.3622815E-3,2.4331663E-2,1.6761398E-2,-2.0444898E-2,-2.3777818E-3,-6.4172056E-3,8.946886E-3,-2.8955799E-2,-1.19929975E-2,-5.6199105E-3,7.5005163E-3],"split_indices":[20,1,3,0,0,0,0,12,0,16,1,1,12,1,15,0,0,0,0,0,0,0,0,0,0,0,0,0,0,0,0],"split_type":[0,0,0,0,0,0,0,0,0,0,0,0,0,0,0,0,0,0,0,0,0,0,0,0,0,0,0,0,0,0,0],"sum_hessian":[1.7174445E4,1.0980035E4,6.194409E3,5.9391274E3,5.0409077E3,3.017315E3,3.1770942E3,9.576493E2,4.981478E3,2.4014717E3,2.6394363E3,3.5842102E2,2.658894E3,1.01393646E3,2.1631577E3,9.235957E2,3.4053585E1,3.6136038E3,1.3678745E3,1.9226194E3,4.7885233E2,1.028306E3,1.6111301E3,1.0209E2,2.5633102E2,2.1647981E2,2.442414E3,2.3052951E2,7.834069E2,1.7675437E3,3.9561404E2],"tree_param":{"num_deleted":"0","num_feature":"22","num_nodes":"31","size_leaf_vector":"1"}},{"base_weights":[3.6446914E-1,5.910443E-1,-1.3799253E-2,7.182358E-1,3.8982648E-1,1.2384226E-1,-2.5808266E-1,4.7735804E-1,7.4760884E-1,1.5319046E-1,4.88882E-1,2.7437888E-2,2.9173937E-1,-6.8582696E-1,-2.0416602E-1,1.8755086E-2,1.0634841E-5,2.7856665E-2,2.2249907E-2,-1.1488737E-2,7.7447486E-3,1.45798E-2,2.1877248E-2,-4.5592627E-3,5.8387816E-3,7.487424E-3,1.714803E-2,-1.6240971E-2,-4.548542E-2,-6.6605117E-3,-4.1912217E-2],"categories":[],"categories_nodes":[],"categories_segments":[],"categories_sizes":[],"default_left":[0,0,0,0,0,0,0,0,0,0,0,0,0,0,0,0,0,0,0,0,0,0,0,0,0,0,0,0,0,0,0],"id":36,"left_children":[1,3,5,7,9,11,13,15,17,19,21,23,25,27,29,-1,-1,-1,-1,-1,-1,-1,-1,-1,-1,-1,-1,-1,-1,-1,-1],"loss_changes":[1.4553667E3,2.7068164E2,2.1394052E2,4.4780273E1,9.596405E1,6.557997E1,5.2131897E1,1.4909164E1,1.943042E1,3.6025124E1,2.794806E1,5.403987E1,2.2305664E1,3.2784386E1,3.5502434E1,0E0,0E0,0E0,0E0,0E0,0E0,0E0,0E0,0E0,0E0,0E0,0E0,0E0,0E0,0E0,0E0],"parents":[2147483647,0,0,1,1,2,2,3,3,4,4,5,5,6,6,7,7,8,8,9,9,10,10,11,11,12,12,13,13,14,14],"right_children":[2,4,6,8,10,12,14,16,18,20,22,24,26,28,30,-1,-1,-1,-1,-1,-1,-1,-1,-1,-1,-1,-1,-1,-1,-1,-1],"split_conditions":[1E0,-5.756278E-5,5.3333335E0,-8.017127E-1,-5.1738125E-1,1.0042596E-1,-8.5604465E-1,-2.3572089E-4,-3.8460426E-2,-9.1334194E-1,3.78947E-1,2.0844257E0,7.3463464E-1,2.3757331E-2,2.4E1,1.8755086E-2,1.0634841E-5,2.7856665E-2,2.2249907E-2,-1.1488737E-2,7.7447486E-3,1.45798E-2,2.1877248E-2,-4.5592627E-3,5.8387816E-3,7.487424E-3,1.714803E-2,-1.6240971E-2,-4.548542E-2,-6.6605117E-3,-4.1912217E-2],"split_indices":[2,1,16,0,0,0,0,1,12,0,0,1,0,8,2,0,0,0,0,0,0,0,0,0,0,0,0,0,0,0,0],"split_type":[0,0,0,0,0,0,0,0,0,0,0,0,0,0,0,0,0,0,0,0,0,0,0,0,0,0,0,0,0,0,0],"sum_hessian":[1.6975006E4,1.0616969E4,6.3580366E3,6.501328E3,4.1156406E3,4.0651282E3,2.2929082E3,7.111175E2,5.7902104E3,1.2173038E3,2.8983367E3,2.5857898E3,1.4793383E3,2.5388094E2,2.0390273E3,6.4840314E2,6.271435E1,4.7354785E3,1.054732E3,1.4023642E2,1.0770675E3,1.7232001E3,1.1751367E3,1.2045717E3,1.3812181E3,1.0259135E3,4.5342484E2,1.8323248E2,7.064846E1,2.0021481E3,3.687929E1],"tree_param":{"num_deleted":"0","num_feature":"22","num_nodes":"31","size_leaf_vector":"1"}},{"base_weights":[3.561143E-1,6.034818E-1,-7.112242E-3,7.34389E-1,4.4433343E-1,1.7704082E-1,-1.9689123E-1,5.7306725E-1,7.7363217E-1,3.2260463E-1,5.602975E-1,-9.704666E-2,2.7545288E-1,-1.501059E-1,-6.466618E-1,2.105811E-2,1.9438886E-4,2.6532734E-2,2.9841058E-2,3.246307E-3,1.3130961E-2,2.1948485E-2,1.240248E-2,-7.6352344E-3,8.029786E-3,1.9553784E-2,7.898426E-3,-1.9893097E-2,-3.2722442E-3,-4.9337134E-2,-1.7383698E-2],"categories":[],"categories_nodes":[],"categories_segments":[],"categories_sizes":[],"default_left":[0,0,0,0,0,0,0,0,0,0,0,0,0,0,0,0,0,0,0,0,0,0,0,0,0,0,0,0,0,0,0],"id":37,"left_children":[1,3,5,7,9,11,13,15,17,19,21,23,25,27,29,-1,-1,-1,-1,-1,-1,-1,-1,-1,-1,-1,-1,-1,-1,-1,-1],"loss_changes":[1.5071074E3,2.0668384E2,2.3746326E2,3.323047E1,6.282202E1,9.311416E1,6.978659E1,7.7796326E0,7.0266113E0,2.170317E1,2.4348877E1,3.3748928E1,3.723271E1,7.179178E1,3.5101685E1,0E0,0E0,0E0,0E0,0E0,0E0,0E0,0E0,0E0,0E0,0E0,0E0,0E0,0E0,0E0,0E0],"parents":[2147483647,0,0,1,1,2,2,3,3,4,4,5,5,6,6,7,7,8,8,9,9,10,10,11,11,12,12,13,13,14,14],"right_children":[2,4,6,8,10,12,14,16,18,20,22,24,26,28,30,-1,-1,-1,-1,-1,-1,-1,-1,-1,-1,-1,-1,-1,-1,-1,-1],"split_conditions":[5.714286E-1,-2.862511E-4,2.5E0,-5.9907025E-1,-1.4156947E-1,-6.044312E-1,1.35E1,7.597302E-1,4.259894E-1,-8.502873E-1,1E0,1.627907E-1,7.0218774E-3,1.4902662E0,-8.3497214E-1,2.105811E-2,1.9438886E-4,2.6532734E-2,2.9841058E-2,3.246307E-3,1.3130961E-2,2.1948485E-2,1.240248E-2,-7.6352344E-3,8.029786E-3,1.9553784E-2,7.898426E-3,-1.9893097E-2,-3.2722442E-3,-4.9337134E-2,-1.7383698E-2],"split_indices":[4,1,2,0,0,0,2,12,0,0,2,15,1,1,0,0,0,0,0,0,0,0,0,0,0,0,0,0,0,0,0],"split_type":[0,0,0,0,0,0,0,0,0,0,0,0,0,0,0,0,0,0,0,0,0,0,0,0,0,0,0,0,0,0,0],"sum_hessian":[1.6767756E4,9.975472E3,6.792285E3,5.4689365E3,4.506535E3,3.4453752E3,3.3469097E3,1.0766599E3,4.3922764E3,2.2034492E3,2.3030857E3,9.0834576E2,2.5370295E3,3.0342017E3,3.1270792E2,1.0505609E3,2.6098965E1,2.7551318E3,1.6371447E3,3.480173E2,1.855432E3,1.8573325E3,4.4575314E2,6.69541E2,2.3880476E2,4.299142E2,2.1071152E3,3.8395255E2,2.6502493E3,5.4949165E1,2.5775873E2],"tree_param":{"num_deleted":"0","num_feature":"22","num_nodes":"31","size_leaf_vector":"1"}},{"base_weights":[3.464417E-1,6.620809E-1,8.22788E-2,5.305015E-1,7.419091E-1,2.4906816E-1,-1.7073008E-1,6.269404E-1,3.2852656E-1,7.852853E-1,6.186261E-1,1.7984353E-1,4.6528473E-1,-5.3883857E-1,-1.0584726E-1,1.769262E-2,2.384503E-2,-1.8009635E-2,1.3658474E-2,2.845662E-2,1.890276E-2,2.0024508E-2,2.6319321E-2,1.3296794E-2,3.00146E-3,2.3967449E-2,1.5183729E-2,-3.81523E-2,-1.4916271E-2,-6.6435216E-3,2.912941E-3],"categories":[],"categories_nodes":[],"categories_segments":[],"categories_sizes":[],"default_left":[0,0,0,0,0,0,0,0,0,0,0,0,0,0,0,0,0,0,0,0,0,0,0,0,0,0,0,0,0,0,0],"id":38,"left_children":[1,3,5,7,9,11,13,15,17,19,21,23,25,27,29,-1,-1,-1,-1,-1,-1,-1,-1,-1,-1,-1,-1,-1,-1,-1,-1],"loss_changes":[1.381303E3,7.80022E1,3.8093442E2,5.4777283E1,2.3614014E1,8.090024E1,8.509758E1,8.477539E0,4.005873E1,5.1396484E0,7.251068E0,7.5287445E1,1.0234894E1,3.310544E1,4.524494E1,0E0,0E0,0E0,0E0,0E0,0E0,0E0,0E0,0E0,0E0,0E0,0E0,0E0,0E0,0E0,0E0],"parents":[2147483647,0,0,1,1,2,2,3,3,4,4,5,5,6,6,7,7,8,8,9,9,10,10,11,11,12,12,13,13,14,14],"right_children":[2,4,6,8,10,12,14,16,18,20,22,24,26,28,30,-1,-1,-1,-1,-1,-1,-1,-1,-1,-1,-1,-1,-1,-1,-1,-1],"split_conditions":[1.0354789E-2,-2.6447982E-1,3.0769231E0,-2.9354412E-4,0E0,4.1930494E-1,-8.2049567E-1,-8.3497214E-1,-9.2316157E-1,8.85814E-1,6.2297714E-1,1.5384616E-1,0E0,1.2204167E0,3.228316E-1,1.769262E-2,2.384503E-2,-1.8009635E-2,1.3658474E-2,2.845662E-2,1.890276E-2,2.0024508E-2,2.6319321E-2,1.3296794E-2,3.00146E-3,2.3967449E-2,1.5183729E-2,-3.81523E-2,-1.4916271E-2,-6.6435216E-3,2.912941E-3],"split_indices":[1,0,3,1,3,0,0,0,0,12,0,3,3,1,0,0,0,0,0,0,0,0,0,0,0,0,0,0,0,0,0],"split_type":[0,0,0,0,0,0,0,0,0,0,0,0,0,0,0,0,0,0,0,0,0,0,0,0,0,0,0,0,0,0,0],"sum_hessian":[1.6572309E4,7.548578E3,9.02373E3,2.8566096E3,4.6919688E3,5.440226E3,3.5835044E3,1.9296327E3,9.2697687E2,3.4625657E3,1.2294032E3,4.1247466E3,1.3154796E3,5.3424725E2,3.049257E3,4.2562802E2,1.5040046E3,5.319954E1,8.7377734E2,3.3636492E3,9.891636E1,8.0996155E2,4.194416E2,1.3812023E3,2.7435444E3,2.2261354E2,1.0928661E3,9.9339035E1,4.349082E2,2.1448066E3,9.044505E2],"tree_param":{"num_deleted":"0","num_feature":"22","num_nodes":"31","size_leaf_vector":"1"}},{"base_weights":[3.408167E-1,6.552129E-1,7.757392E-2,4.967136E-1,7.214862E-1,2.3884895E-1,-1.6858372E-1,5.8543545E-1,2.9017258E-1,7.7032065E-1,6.014861E-1,1.5931126E-1,4.672628E-1,-9.776626E-2,-4.2927095E-1,1.5985833E-2,2.306314E-2,-1.389729E-2,1.2275076E-2,2.6831955E-2,3.039679E-2,1.9587154E-2,2.6139613E-2,1.1878051E-2,2.744306E-3,1.9552024E-2,1.0807986E-2,-1.16631E-2,4.166767E-4,-1.7759928E-2,1.4412633E-2],"categories":[],"categories_nodes":[],"categories_segments":[],"categories_sizes":[],"default_left":[0,0,0,0,0,0,0,0,0,0,0,0,0,0,0,0,0,0,0,0,0,0,0,0,0,0,0,0,0,0,0],"id":39,"left_children":[1,3,5,7,9,11,13,15,17,19,21,23,25,27,29,-1,-1,-1,-1,-1,-1,-1,-1,-1,-1,-1,-1,-1,-1,-1,-1],"loss_changes":[1.3537451E3,7.709741E1,3.5376364E2,3.9610107E1,2.9342285E1,9.7305786E1,6.466466E1,1.1216797E1,2.3445774E1,4.7807617E0,9.519897E0,5.6508446E1,1.7065826E1,6.915349E1,4.101265E1,0E0,0E0,0E0,0E0,0E0,0E0,0E0,0E0,0E0,0E0,0E0,0E0,0E0,0E0,0E0,0E0],"parents":[2147483647,0,0,1,1,2,2,3,3,4,4,5,5,6,6,7,7,8,8,9,9,10,10,11,11,12,12,13,13,14,14],"right_children":[2,4,6,8,10,12,14,16,18,20,22,24,26,28,30,-1,-1,-1,-1,-1,-1,-1,-1,-1,-1,-1,-1,-1,-1,-1,-1],"split_conditions":[1.2540611E-2,-4.7646067E-1,3E0,0E0,-6.0168866E-2,3.903272E-1,6.6666665E0,-8.3497214E-1,-9.2824656E-1,7.200308E-1,6.173472E-1,1.5384616E-1,1E0,2.5077033E0,8.6857843E-1,1.5985833E-2,2.306314E-2,-1.389729E-2,1.2275076E-2,2.6831955E-2,3.039679E-2,1.9587154E-2,2.6139613E-2,1.1878051E-2,2.744306E-3,1.9552024E-2,1.0807986E-2,-1.16631E-2,4.166767E-4,-1.7759928E-2,1.4412633E-2],"split_indices":[1,0,16,3,12,0,18,0,0,0,0,3,4,1,0,0,0,0,0,0,0,0,0,0,0,0,0,0,0,0,0],"split_type":[0,0,0,0,0,0,0,0,0,0,0,0,0,0,0,0,0,0,0,0,0,0,0,0,0,0,0,0,0,0,0],"sum_hessian":[1.6362876E4,7.4550156E3,8.907859E3,2.203744E3,5.251272E3,5.3836E3,3.52426E3,1.5378676E3,6.658763E2,3.724318E3,1.5269537E3,3.9966875E3,1.3869126E3,2.7746138E3,7.496461E2,4.4995114E2,1.0879164E3,4.578917E1,6.2008716E2,2.8754424E3,8.488758E2,1.0661449E3,4.6080878E2,1.2984343E3,2.6982532E3,9.423904E2,4.4452222E2,9.0348456E2,1.8711292E3,6.9613873E2,5.3507412E1],"tree_param":{"num_deleted":"0","num_feature":"22","num_nodes":"31","size_leaf_vector":"1"}},{"base_weights":[3.3211827E-1,5.565073E-1,-1.7466795E-2,6.9665015E-1,3.785642E-1,1.2413628E-1,-2.3641224E-1,5.960081E-1,7.6571214E-1,2.2592488E-1,5.0916976E-1,-6.390503E-2,2.6153573E-1,-5.8637947E-1,-1.7851818E-1,2.1783952E-2,1.4397657E-3,2.8456213E-2,2.4246817E-2,-7.5521674E-3,9.943573E-3,1.9581428E-2,8.021273E-3,-5.7767797E-3,9.148592E-3,1.2714254E-2,3.325315E-3,-1.36512965E-2,-4.0154707E-2,-3.7582584E-3,-2.0254297E-2],"categories":[],"categories_nodes":[],"categories_segments":[],"categories_sizes":[],"default_left":[0,0,0,0,0,0,0,0,0,0,0,0,0,0,0,0,0,0,0,0,0,0,0,0,0,0,0,0,0,0,0],"id":40,"left_children":[1,3,5,7,9,11,13,15,17,19,21,23,25,27,29,-1,-1,-1,-1,-1,-1,-1,-1,-1,-1,-1,-1,-1,-1,-1,-1],"loss_changes":[1.2705413E3,2.4493579E2,1.963546E2,3.6904297E1,8.608215E1,9.943506E1,4.9768326E1,1.2895325E1,6.3311768E0,4.483439E1,2.3535889E1,5.0072475E1,3.4402405E1,3.701204E1,6.035228E1,0E0,0E0,0E0,0E0,0E0,0E0,0E0,0E0,0E0,0E0,0E0,0E0,0E0,0E0,0E0,0E0],"parents":[2147483647,0,0,1,1,2,2,3,3,4,4,5,5,6,6,7,7,8,8,9,9,10,10,11,11,12,12,13,13,14,14],"right_children":[2,4,6,8,10,12,14,16,18,20,22,24,26,28,30,-1,-1,-1,-1,-1,-1,-1,-1,-1,-1,-1,-1,-1,-1,-1,-1],"split_conditions":[1E0,-2.2165576E-4,3.5E0,-2.0590506E-1,-1.947938E-1,1.5388477E0,2.4618852E0,2.363411E0,-3.4355343E-4,-8.983948E-1,3.6666667E0,3.9542988E-1,1.5493524E0,7.3333335E0,1.3E1,2.1783952E-2,1.4397657E-3,2.8456213E-2,2.4246817E-2,-7.5521674E-3,9.943573E-3,1.9581428E-2,8.021273E-3,-5.7767797E-3,9.148592E-3,1.2714254E-2,3.325315E-3,-1.36512965E-2,-4.0154707E-2,-3.7582584E-3,-2.0254297E-2],"split_indices":[2,1,2,0,0,1,1,12,1,0,5,0,17,20,2,0,0,0,0,0,0,0,0,0,0,0,0,0,0,0,0],"split_type":[0,0,0,0,0,0,0,0,0,0,0,0,0,0,0,0,0,0,0,0,0,0,0,0,0,0,0,0,0,0,0],"sum_hessian":[1.6190993E4,9.862174E3,6.32882E3,5.513219E3,4.348954E3,3.8415125E3,2.4873074E3,2.2517358E3,3.2614832E3,2.0090869E3,2.3398672E3,1.619913E3,2.2215994E3,3.5002676E2,2.1372805E3,2.207938E3,4.3797916E1,2.5037463E3,7.5773694E2,2.0853084E2,1.8005562E3,2.0739104E3,2.659569E2,1.2440623E3,3.7585074E2,1.4317733E3,7.898262E2,2.5444879E2,9.557797E1,1.7963362E3,3.409444E2],"tree_param":{"num_deleted":"0","num_feature":"22","num_nodes":"31","size_leaf_vector":"1"}},{"base_weights":[3.1732166E-1,6.3279223E-1,6.253986E-2,4.264113E-1,6.857409E-1,2.305276E-1,-1.6645552E-1,4.990539E-1,7.589438E-2,7.441342E-1,5.4593265E-1,2.6021925E-1,-2.761347E-1,-5.349678E-1,-1.0510772E-1,1.0027987E-2,1.9502359E-2,-1.3633315E-3,2.1764435E-2,2.41631E-2,2.782983E-2,1.7736822E-2,2.4846291E-2,5.553696E-3,1.3483784E-2,-1.7567223E-2,9.347509E-4,-3.6556147E-2,-1.3561336E-2,1.4855327E-3,-7.0691365E-3],"categories":[],"categories_nodes":[],"categories_segments":[],"categories_sizes":[],"default_left":[0,0,0,0,0,0,0,0,0,0,0,0,0,0,0,0,0,0,0,0,0,0,0,0,0,0,0,0,0,0,0],"id":41,"left_children":[1,3,5,7,9,11,13,15,17,19,21,23,25,27,29,-1,-1,-1,-1,-1,-1,-1,-1,-1,-1,-1,-1,-1,-1,-1,-1],"loss_changes":[1.2868861E3,7.710596E1,3.4104437E2,3.6888824E1,4.5128906E1,7.700812E1,8.425466E1,1.10164795E1,1.5795876E1,7.2753906E0,1.1591949E1,5.8393616E1,1.8521997E1,3.9142166E1,4.3366184E1,0E0,0E0,0E0,0E0,0E0,0E0,0E0,0E0,0E0,0E0,0E0,0E0,0E0,0E0,0E0,0E0],"parents":[2147483647,0,0,1,1,2,2,3,3,4,4,5,5,6,6,7,7,8,8,9,9,10,10,11,11,12,12,13,13,14,14],"right_children":[2,4,6,8,10,12,14,16,18,20,22,24,26,28,30,-1,-1,-1,-1,-1,-1,-1,-1,-1,-1,-1,-1,-1,-1,-1,-1],"split_conditions":[1.2540611E-2,-6.095587E-1,2.6666667E0,1.6383252E-4,-6.0168866E-2,3.5E0,-8.2555944E-1,-9.0334886E-1,1.087E1,-1.5421648E-1,6.2297714E-1,-1.2599955E-1,1.109585E0,1.8335165E0,8E0,1.0027987E-2,1.9502359E-2,-1.3633315E-3,2.1764435E-2,2.41631E-2,2.782983E-2,1.7736822E-2,2.4846291E-2,5.553696E-3,1.3483784E-2,-1.7567223E-2,9.347509E-4,-3.6556147E-2,-1.3561336E-2,1.4855327E-3,-7.0691365E-3],"split_indices":[1,0,16,1,12,2,0,0,9,0,0,0,12,1,5,0,0,0,0,0,0,0,0,0,0,0,0,0,0,0,0],"split_type":[0,0,0,0,0,0,0,0,0,0,0,0,0,0,0,0,0,0,0,0,0,0,0,0,0,0,0,0,0,0,0],"sum_hessian":[1.6016425E4,7.154036E3,8.86239E3,1.4652609E3,5.688775E3,5.113956E3,3.7484333E3,1.211696E3,2.5356482E2,4.006144E3,1.6826311E3,4.832638E3,2.8131778E2,5.322081E2,3.216225E3,2.0639879E2,1.0052973E3,2.0840375E2,4.5161076E1,1.227488E3,2.778656E3,1.2479238E3,4.3470737E2,2.527561E3,2.305077E3,1.6598053E2,1.1533725E2,1.2825327E2,4.039549E2,1.2360719E3,1.9801533E3],"tree_param":{"num_deleted":"0","num_feature":"22","num_nodes":"31","size_leaf_vector":"1"}},{"base_weights":[3.199703E-1,6.274062E-1,7.819183E-2,4.617855E-1,6.978876E-1,2.4832094E-1,-1.2532783E-1,5.6958294E-1,2.5564432E-1,7.481561E-1,5.7556176E-1,1.4302321E-1,3.8320467E-1,-7.382617E-2,-4.5039147E-1,1.7270755E-2,2.2461567E-2,-1.249826E-2,1.11067E-2,2.5877083E-2,2.8984062E-2,1.8605163E-2,2.531596E-2,7.2499043E-3,-3.4083487E-3,1.588822E-2,8.12795E-3,-1.0402792E-2,1.5893555E-3,-9.140311E-3,-3.0327441E-2],"categories":[],"categories_nodes":[],"categories_segments":[],"categories_sizes":[],"default_left":[0,0,0,0,0,0,0,0,0,0,0,0,0,0,0,0,0,0,0,0,0,0,0,0,0,0,0,0,0,0,0],"id":42,"left_children":[1,3,5,7,9,11,13,15,17,19,21,23,25,27,29,-1,-1,-1,-1,-1,-1,-1,-1,-1,-1,-1,-1,-1,-1,-1,-1],"loss_changes":[1.1789958E3,8.0385254E1,3.0776996E2,4.5733E1,2.8726807E1,6.834137E1,6.73038E1,5.707428E0,2.348085E1,3.9501953E0,9.425812E0,3.8261387E1,1.913095E1,8.9276276E1,4.1549416E1,0E0,0E0,0E0,0E0,0E0,0E0,0E0,0E0,0E0,0E0,0E0,0E0,0E0,0E0,0E0,0E0],"parents":[2147483647,0,0,1,1,2,2,3,3,4,4,5,5,6,6,7,7,8,8,9,9,10,10,11,11,12,12,13,13,14,14],"right_children":[2,4,6,8,10,12,14,16,18,20,22,24,26,28,30,-1,-1,-1,-1,-1,-1,-1,-1,-1,-1,-1,-1,-1,-1,-1,-1],"split_conditions":[1.0354789E-2,-4.7646067E-1,2.3333333E0,-2.9666972E-4,-6.0168866E-2,5.445932E-3,1.05E1,-8.017127E-1,-9.2316157E-1,6.289751E-1,6.173472E-1,2E0,1E0,2.5077033E0,3.9E1,1.7270755E-2,2.2461567E-2,-1.249826E-2,1.11067E-2,2.5877083E-2,2.8984062E-2,1.8605163E-2,2.531596E-2,7.2499043E-3,-3.4083487E-3,1.588822E-2,8.12795E-3,-1.0402792E-2,1.5893555E-3,-9.140311E-3,-3.0327441E-2],"split_indices":[1,0,16,1,12,0,2,0,0,0,0,2,4,1,7,0,0,0,0,0,0,0,0,0,0,0,0,0,0,0,0],"split_type":[0,0,0,0,0,0,0,0,0,0,0,0,0,0,0,0,0,0,0,0,0,0,0,0,0,0,0,0,0,0,0],"sum_hessian":[1.5867745E4,6.983402E3,8.884343E3,2.0899521E3,4.8934497E3,4.8409185E3,4.0434248E3,1.3689054E3,7.2104675E2,3.4604858E3,1.4329636E3,2.722727E3,2.1181914E3,3.4933618E3,5.5006305E2,5.387004E2,8.30205E2,5.735095E1,6.636958E2,2.37914E3,1.0813458E3,1.00012665E3,4.32837E2,2.1850771E3,5.3764984E2,1.532521E3,5.856704E2,1.2367894E3,2.2565723E3,3.6981174E2,1.8025133E2],"tree_param":{"num_deleted":"0","num_feature":"22","num_nodes":"31","size_leaf_vector":"1"}},{"base_weights":[3.1305096E-1,5.466126E-1,2.3252189E-3,6.812414E-1,3.8570154E-1,1.4873429E-1,-1.9239905E-1,5.0988954E-1,7.2458297E-1,2.8439385E-1,4.9367237E-1,-5.703621E-2,2.4885409E-1,-2.659662E-1,1.6307471E-2,1.8880498E-2,-3.0172247E-4,2.468843E-2,2.828062E-2,1.6874771E-3,1.1787115E-2,1.98182E-2,9.578266E-3,-9.266338E-3,4.179235E-3,6.543783E-3,1.6969776E-2,-1.8319648E-2,-7.0438185E-3,9.3688E-3,-1.7857753E-3],"categories":[],"categories_nodes":[],"categories_segments":[],"categories_sizes":[],"default_left":[0,0,0,0,0,0,0,0,0,0,0,0,0,0,0,0,0,0,0,0,0,0,0,0,0,0,0,0,0,0,0],"id":43,"left_children":[1,3,5,7,9,11,13,15,17,19,21,23,25,27,29,-1,-1,-1,-1,-1,-1,-1,-1,-1,-1,-1,-1,-1,-1,-1,-1],"loss_changes":[1.140835E3,1.9342773E2,1.9244084E2,3.502173E1,4.4083984E1,7.9585205E1,4.463762E1,8.570892E0,7.4903564E0,2.1779068E1,2.5411285E1,4.4078445E1,3.8143845E1,3.5935837E1,1.232823E1,0E0,0E0,0E0,0E0,0E0,0E0,0E0,0E0,0E0,0E0,0E0,0E0,0E0,0E0,0E0,0E0],"parents":[2147483647,0,0,1,1,2,2,3,3,4,4,5,5,6,6,7,7,8,8,9,9,10,10,11,11,12,12,13,13,14,14],"right_children":[2,4,6,8,10,12,14,16,18,20,22,24,26,28,30,-1,-1,-1,-1,-1,-1,-1,-1,-1,-1,-1,-1,-1,-1,-1,-1],"split_conditions":[5.714286E-1,-2.6958133E-4,3E0,-5.9907025E-1,-5.4172695E-2,-5.276539E-1,2.7330512E-1,9.278737E-1,4.259894E-1,-8.502873E-1,1E0,6.6723675E-1,6.4615154E-1,-4.81383E-1,3.3333333E0,1.8880498E-2,-3.0172247E-4,2.468843E-2,2.828062E-2,1.6874771E-3,1.1787115E-2,1.98182E-2,9.578266E-3,-9.266338E-3,4.179235E-3,6.543783E-3,1.6969776E-2,-1.8319648E-2,-7.0438185E-3,9.3688E-3,-1.7857753E-3],"split_indices":[4,1,2,0,0,0,0,12,0,0,2,1,0,10,16,0,0,0,0,0,0,0,0,0,0,0,0,0,0,0,0],"split_type":[0,0,0,0,0,0,0,0,0,0,0,0,0,0,0,0,0,0,0,0,0,0,0,0,0,0,0,0,0,0,0],"sum_hessian":[1.5724078E4,8.97491E3,6.7491675E3,4.8823613E3,4.0925488E3,3.8547454E3,2.894422E3,9.91515E2,3.8908464E3,2.11669E3,1.9758589E3,1.2595035E3,2.5952417E3,2.1423782E3,7.520438E2,9.632463E2,2.8268791E1,2.466418E3,1.4244283E3,3.330655E2,1.7836245E3,1.5685057E3,4.0735318E2,5.849955E2,6.745081E2,2.0037623E3,5.9147943E2,4.7247336E2,1.6699049E3,1.6153096E2,5.905128E2],"tree_param":{"num_deleted":"0","num_feature":"22","num_nodes":"31","size_leaf_vector":"1"}},{"base_weights":[3.0114552E-1,5.8251834E-1,4.1689053E-2,6.8273205E-1,4.5270932E-1,2.1423623E-1,-1.308627E-1,5.7885104E-1,7.563199E-1,6.1574075E-2,4.8609582E-1,-2.872231E-2,2.933122E-1,-7.259683E-2,-3.922321E-1,1.7711414E-2,2.2559952E-2,2.7461106E-2,1.9614665E-2,4.1811727E-3,-1.7220087E-2,1.9031512E-2,1.0754076E-2,2.5452164E-3,-7.7255876E-3,1.8689321E-2,8.123132E-3,-1.222729E-2,-6.121378E-4,-3.3526063E-2,-1.0418116E-2],"categories":[],"categories_nodes":[],"categories_segments":[],"categories_sizes":[],"default_left":[0,0,0,0,0,0,0,0,0,0,0,0,0,0,0,0,0,0,0,0,0,0,0,0,0,0,0,0,0,0,0],"id":44,"left_children":[1,3,5,7,9,11,13,15,17,19,21,23,25,27,29,-1,-1,-1,-1,-1,-1,-1,-1,-1,-1,-1,-1,-1,-1,-1,-1],"loss_changes":[1.1309227E3,9.5583984E1,2.4021562E2,3.064392E1,4.195111E1,7.771922E1,6.1031364E1,6.2820435E0,3.0084229E0,7.4591017E0,2.3746582E1,1.8493849E1,4.578232E1,4.8852394E1,3.934417E1,0E0,0E0,0E0,0E0,0E0,0E0,0E0,0E0,0E0,0E0,0E0,0E0,0E0,0E0,0E0,0E0],"parents":[2147483647,0,0,1,1,2,2,3,3,4,4,5,5,6,6,7,7,8,8,9,9,10,10,11,11,12,12,13,13,14,14],"right_children":[2,4,6,8,10,12,14,16,18,20,22,24,26,28,30,-1,-1,-1,-1,-1,-1,-1,-1,-1,-1,-1,-1,-1,-1,-1,-1],"split_conditions":[2.857143E-1,-3.2375808E-4,2E0,-1.947938E-1,-8.502873E-1,-6.146932E-1,6.6666665E0,-7.484954E-1,-3.5393428E-2,1E0,3.3333334E-1,1.4285715E0,7.0218774E-3,1.4902662E0,-8.3497214E-1,1.7711414E-2,2.2559952E-2,2.7461106E-2,1.9614665E-2,4.1811727E-3,-1.7220087E-2,1.9031512E-2,1.0754076E-2,2.5452164E-3,-7.7255876E-3,1.8689321E-2,8.123132E-3,-1.222729E-2,-6.121378E-4,-3.3526063E-2,-1.0418116E-2],"split_indices":[4,1,2,0,0,0,18,0,12,16,20,4,1,1,0,0,0,0,0,0,0,0,0,0,0,0,0,0,0,0,0],"split_type":[0,0,0,0,0,0,0,0,0,0,0,0,0,0,0,0,0,0,0,0,0,0,0,0,0,0,0,0,0,0,0],"sum_hessian":[1.54966455E4,7.4324233E3,8.064222E3,4.1888613E3,3.243562E3,4.0340996E3,4.0301226E3,1.744594E3,2.444267E3,2.5698477E2,2.9865771E3,9.8853143E2,3.0455684E3,3.2987415E3,7.3138104E2,6.48178E2,1.0964161E3,2.3436077E3,1.0065953E2,2.3522865E2,2.1756128E1,2.4127695E3,5.7380756E2,6.4222626E2,3.4630515E2,6.902916E2,2.3552766E3,5.6338055E2,2.7353608E3,1.1361864E2,6.177624E2],"tree_param":{"num_deleted":"0","num_feature":"22","num_nodes":"31","size_leaf_vector":"1"}},{"base_weights":[2.9647478E-1,6.002498E-1,6.8321444E-2,4.3124864E-1,6.741215E-1,2.2579947E-1,-1.1644562E-1,5.2497196E-1,2.218444E-1,7.263126E-1,5.5100614E-1,1.6122256E-1,4.3780738E-1,-4.7241038E-1,-6.3502505E-2,1.6727671E-2,2.2200327E-2,-1.3866943E-2,9.255326E-3,2.4848482E-2,2.791963E-2,1.4274554E-2,2.0935612E-2,1.0750198E-2,3.0226773E-3,1.612998E-2,-2.7997917E-3,-1.2094917E-2,-3.13118E-2,-3.7072038E-3,8.247022E-3],"categories":[],"categories_nodes":[],"categories_segments":[],"categories_sizes":[],"default_left":[0,0,0,0,0,0,0,0,0,0,0,0,0,0,0,0,0,0,0,0,0,0,0,0,0,0,0,0,0,0,0],"id":45,"left_children":[1,3,5,7,9,11,13,15,17,19,21,23,25,27,29,-1,-1,-1,-1,-1,-1,-1,-1,-1,-1,-1,-1,-1,-1,-1,-1],"loss_changes":[1.0630265E3,8.107739E1,2.5516309E2,3.8746704E1,2.8085205E1,6.432822E1,7.557751E1,6.5727844E0,1.3651695E1,4.050415E0,5.812195E0,3.8381042E1,6.790634E0,2.7028404E1,4.0868076E1,0E0,0E0,0E0,0E0,0E0,0E0,